2427 50
system.collections.generic.list.add() 0.14724973 -0.8460468 -0.1446876 0.40717903 -0.14377953 0.7339074 -0.24539489 0.7693247 0.5481151 -0.4063012 0.10004121 0.32724324 -0.21964112 0.18658175 -0.3412177 -0.5377645 0.23864079 0.32039377 0.22548582 0.29256573 0.34409544 -0.40519142 0.06431118 -0.21110167 -0.22565219 0.3610373 -0.16537517 -0.49382997 0.46541533 -0.034851667 -0.1994536 -0.011375096 -0.061378345 0.09327321 -0.14896046 0.24927762 0.2683408 0.21591333 -0.49565646 -0.6560312 -0.60964423 0.25824243 0.55783 0.4585795 -0.50639117 0.44389653 -0.16763556 -0.042321038 -0.31766438 -0.6452909
system.collections.generic.dictionary.add() -0.29067463 -1.1129996 0.3910832 -0.020314276 0.55529034 0.1945184 0.27539766 0.8491344 0.15324883 -0.537254 -0.09213736 0.41343373 -0.48655748 0.31073695 -0.6940562 0.38315842 0.67874634 -0.12015401 -0.011259901 0.5477898 0.91313297 -0.6988809 0.32188767 -0.8618123 -0.3647332 0.1336465 -1.2140307 -0.23669809 0.389079 -0.07834783 -0.05916669 0.045333803 0.56174123 0.30185208 -0.27484953 0.2424912 0.23102902 0.118421175 0.60711306 0.18976639 -0.52382267 0.22564246 0.31640458 0.49815273 0.38999552 -0.07513395 0.4055768 -0.17404394 0.2783151 -0.9548411
system.string.format() 0.47584337 -0.6875587 -0.46844107 -0.021270078 -0.30882883 0.33956727 0.21514092 0.99217004 0.24677718 0.23509014 -0.47362822 0.6340938 0.58178633 0.026753886 0.15205848 0.3864017 0.37821338 -0.05218373 -0.028623883 0.5485778 0.19621688 -0.22580238 -0.21790816 -0.17158255 -0.18941817 0.20688955 -0.8876571 -0.12005978 0.27264488 0.24879105 -0.26493505 -0.04122149 -0.06327789 0.14678937 -0.71235365 -0.051567003 0.47710192 -0.812156 0.13143635 0.109688446 -0.27469495 -0.11308622 0.2495055 0.44526014 0.08948911 0.013031612 -0.085211925 0.12794726 -0.54720044 -0.31560308
system.string.isnullorempty() -0.6190324 -0.32741892 0.6130658 -0.36293128 0.1828536 0.63366985 0.12831664 1.1141336 0.019244915 0.8990142 -0.008036836 0.29020265 0.47344735 0.23032206 0.2330984 0.27636507 0.24137513 -0.005187396 0.29002172 0.04243718 0.16833529 0.16080026 0.42400095 -0.36951664 0.1288551 0.025781784 -0.8561745 -0.5054327 0.24000135 -0.14306465 -0.29475057 -0.24801965 0.29078984 -0.39335337 -0.46117046 -0.15372343 0.16662812 -0.2991425 -0.03677478 0.013354398 -0.5172884 -0.22259615 0.24497731 0.6461697 0.330723 0.31789026 -0.39949897 -0.19741508 -0.23320971 -0.8865487
system.collections.generic.dictionary.containskey() -0.13452676 -0.22044832 0.33346474 -0.03757315 0.15187767 0.542791 0.0147074135 0.86714685 -0.22789907 -0.39746842 -0.41248038 0.12891355 -0.5254292 0.33554804 -0.32445738 0.63845927 0.44707507 0.09658039 0.04569278 0.43345308 0.50907683 -0.6881372 0.1077292 -0.9075184 -0.64056134 0.20482108 -0.41633555 -0.2140107 -0.13560082 0.0016805058 -0.5942951 -0.058520485 0.21002758 0.060255 -0.43790048 0.01684803 -0.06584107 0.20068423 0.362781 -0.025769813 -0.5479214 0.8670891 0.42700958 0.4732086 0.16055569 -0.34590486 0.23669791 -0.40391982 -0.62821645 -0.7328538
system.math.max() 0.004307148 -0.85931706 0.20699169 0.19579975 0.56436443 0.34545088 0.01723014 0.6053376 -0.4730083 -0.648255 -0.2842378 0.116535276 -0.77299285 0.37646848 0.8132555 0.35403425 0.18651634 -0.55272657 0.92724735 0.46302631 1.0886323 0.10560267 -0.5614291 -0.28278282 -0.46250126 0.30522123 -0.28467783 0.3220776 -0.2715828 0.04354099 -0.6007559 0.36809874 0.5954474 -0.66417557 -0.115339115 0.2366456 -0.06600961 -0.52356756 -0.015951633 -0.2323077 -0.018518638 0.37247044 0.6212894 0.46411842 -0.20826754 0.8662386 -0.06177475 0.1633924 -0.38809514 -0.49009758
system.math.min() 0.091514416 -0.96904707 0.17938565 0.32260692 0.41198704 0.37495935 -0.038028095 0.72558904 -0.25885856 -0.50653696 -0.4901183 0.03185759 -0.5096626 0.22688758 1.0420365 0.52958834 0.36600685 -0.71741027 0.6660681 0.106079035 0.9032417 0.026908847 -0.4112618 -0.4494103 -0.20298108 0.095585786 0.11578198 0.015418654 -0.6095558 0.35098645 -0.13285969 0.44248253 0.30425382 -0.36485142 -0.29554796 0.4700726 -0.1472544 -0.5073915 -0.4322042 -0.08054485 -0.25226396 0.21884339 1.0624124 0.33662537 -0.052544586 0.7047798 0.013762857 0.22247913 -0.47784188 0.010043941
system.math.abs() 0.5217818 -1.1470975 -0.6438862 -0.41545826 0.78046477 0.075963125 -0.18532322 0.42939168 -0.26455346 -0.40835217 -0.082910985 -0.04872068 -1.1571172 -0.105907336 0.83604276 0.11267801 0.52605945 -0.15200058 0.46088853 -0.0046632676 0.5169656 -0.17227028 -0.14148666 -0.7125677 -0.092791304 -0.29883623 -0.5485753 0.20170459 0.2935626 0.16441002 -0.96313125 -0.11473858 0.17768866 -0.32907555 -0.34218553 0.49968383 0.12806006 -0.40153998 -0.32880834 -0.28040734 0.17692092 0.038651776 0.8844161 0.123060174 -0.36376268 0.7278722 0.23902114 -0.5744055 -0.39517754 0.09436154
system.collections.generic.dictionary.trygetvalue() -0.75556976 -1.1002688 -0.05124315 -0.45264003 0.75331324 0.4558616 -0.5436406 0.38502353 0.41445583 -0.69157934 -0.31693816 0.20978166 0.115613334 -0.106582604 -0.29531434 0.2072242 0.037813764 0.38818452 0.21162881 0.26452982 0.21090388 -1.0334316 -0.28874916 -0.72758853 -0.24025558 0.21004607 -0.76141244 -0.32790005 0.5737514 0.4079924 -0.40230998 0.22220466 0.14467368 -0.08443077 -0.26892653 -0.25201628 0.36057514 0.7165611 0.36984327 0.4539553 -0.3515208 0.36488974 -0.30714896 0.8651037 0.257486 0.07518904 0.35445204 0.15012245 -0.28363428 -0.6887885
system.collections.arraylist.add() 0.10907107 0.12899652 -0.82361144 -0.25798938 0.63716084 0.56240666 0.3775416 1.274243 -0.01885899 -0.7854769 0.3793099 -0.7232022 -0.8247575 0.4622451 0.39366263 -0.17198984 0.3790954 -0.23026948 -0.25441548 0.37886488 0.3403379 -0.36416185 -0.14271219 -0.027156167 -0.27466875 -0.2412772 -0.91001195 0.3773429 -0.10859782 -0.148132 -0.023809088 -0.3870056 0.26658288 0.47653607 -0.31346595 -0.10882143 0.15080822 0.019418292 0.0575763 0.08509178 -0.92619073 -0.49333024 0.9504152 0.6725904 0.19540404 -0.119354606 -0.19523337 0.32505 0.2455678 -1.1845016
system.io.textwriter.writeline() -0.062871605 -1.0439785 -0.8076707 -0.07101835 0.14121938 -0.1365887 -0.23052712 0.92350584 -0.30510092 -0.58620375 -0.33223197 0.64920884 0.033813328 0.88193893 0.44796437 1.5625725 -0.68862695 -0.8962501 -0.23692922 -0.48988378 -0.06005837 -0.74743295 0.2915432 -0.21600825 0.0042403108 0.20038953 -1.4462407 -0.2000182 -0.08616129 -0.05138876 -0.45820442 0.75239134 0.84332347 -0.3413823 -0.5725239 1.0214878 0.1275753 0.985733 -0.15029527 -0.46770784 -1.1517928 -0.94574964 0.21458429 0.4905352 1.0073185 -0.68185604 0.043153524 -0.10106633 -0.7409446 -0.8849586
system.io.directory.exists() 0.46991116 -0.15855527 -0.291027 -0.3311917 -0.024833443 0.3851659 -0.5852454 1.1351625 0.40193036 0.62470526 0.5101747 -0.1636314 0.35824323 -0.16005695 0.9150022 0.07734518 0.5490352 -0.061758433 0.17081945 -0.74484175 0.3769134 -0.14763777 0.21265541 -0.62835073 -0.69325405 -0.41363356 -0.76181114 -0.04621106 -0.096052095 -0.4553829 -0.7734484 -0.07261331 -0.05648059 0.6369534 -0.4232562 1.0632908 0.11965302 0.7875947 0.09013687 -0.02627651 0.15142247 0.4044994 0.048148043 0.5910304 0.1411841 0.23515284 -0.581436 -0.087888055 -0.108928666 -0.9416568
system.collections.generic.list.toarray() 0.15030034 -0.87939423 -0.42233482 0.33419794 0.30268842 0.49747437 -0.010256463 0.6213906 0.060849834 -0.31813535 -0.47763273 0.4512407 -0.2980793 0.13185728 -0.06280782 -0.41603476 -0.015347137 0.56763524 -0.105761796 0.27546707 0.58903444 -0.22684562 0.10760982 -0.0055660917 -0.0029857843 0.421863 -0.42941803 -0.7033314 0.570528 -0.117802404 -0.5446889 -0.06461067 0.23230338 0.24246778 -0.23391108 0.31672797 0.2010226 0.5305957 -0.67888546 -0.6336237 -1.0270759 -0.27119336 0.13643791 1.4654933 -0.37429488 -0.25972226 -0.389922 -0.0420238 -0.8522659 -0.54379886
system.collections.generic.list.clear() 0.53731745 -0.44384655 0.024334181 0.22110339 -0.14695036 0.62224925 -0.36112857 0.7156246 0.35073525 -0.48677862 -0.08232647 0.19409387 -0.17133664 0.43397632 0.14153065 -0.536291 -0.1574669 0.045704417 0.063372545 0.3266916 0.54095 -0.05645493 -0.64088917 -0.39711353 -0.16793254 0.38237652 -0.7840981 -1.3605256 0.082902566 0.4481615 -0.44980535 0.0218808 0.5245994 -0.224845 0.38588783 0.66867936 0.4318449 0.48521975 -0.40283024 -0.64625186 0.029942168 0.5979833 0.31584197 1.4473357 -0.38052604 -0.30013254 -0.24939594 0.0102659175 -0.3048435 -0.64472234
system.io.textwriter.write() -0.16790582 -1.7123562 -0.1858999 -0.290563 0.17270267 0.30914956 0.29492098 0.6876873 -0.57409656 -0.3238109 -0.36808234 0.6677985 -0.4936205 0.59646523 0.8513562 0.9220703 -0.5749986 -0.14209168 -0.21925785 -0.5464686 -0.25263587 -1.0279467 -0.28293118 -0.27176002 -0.38408908 -0.086096406 -1.0181016 0.11640542 -0.7667657 -0.2643546 -0.534645 0.30378643 0.07039469 -0.7392601 -0.792971 0.59109545 0.8929002 0.7056284 -0.17534366 -0.24273136 -0.46638623 -1.5021352 0.97253644 -0.06373504 0.3759237 0.20271237 -0.19156645 -1.0488757 -0.6133666 -0.4422952
system.math.round() 0.45762134 -0.93274873 -0.28444284 0.055929847 0.11759708 0.41169146 -0.2691171 0.44246003 0.83432376 0.0027932702 -0.43101802 0.07887377 -0.77890563 0.09759965 0.683951 0.5420627 0.021634502 -0.12968689 0.007830277 1.0337859 0.21471961 -0.13319135 -0.087245815 -0.941044 -0.03019498 -0.45942324 0.059571244 -0.46948117 -0.08540495 0.6970989 -1.1449163 0.3310874 0.21251301 -0.11171267 -0.26999962 0.8650985 -0.5177341 -0.7215859 0.30471605 -0.18856722 0.04927416 -0.56975085 0.6527405 0.3825989 -0.5249589 0.32606444 0.05848283 0.5708067 -0.109097935 -1.1342566
system.collections.generic.list.contains() 0.17084523 -0.7182957 -0.23008417 0.21000732 -0.006646205 0.82475674 -0.07489348 0.559533 -0.09629085 -0.22487415 0.14895575 0.19759926 0.18923852 -0.07439439 0.050927814 -0.073894724 -0.284602 0.089038156 0.30634043 0.27541625 0.29828843 -0.52069324 -0.23707487 -0.70184994 -0.17553201 -0.168813 -0.97608036 -0.91043484 0.20459396 -0.79548734 -1.0686173 -0.35347483 -0.029798293 0.24727096 -0.29425797 0.5708369 -0.3121186 0.3825994 0.07888906 -0.6564169 -0.8636686 0.84468377 0.25250557 0.2864874 -0.36002368 0.31565574 0.26769105 -0.22555195 0.038506158 -0.77259755
system.io.directory.createdirectory() 0.2781616 -0.8027485 -0.13001418 0.06183528 0.04237223 0.4087403 -0.5351916 0.9151507 0.6347745 0.6798052 -0.25878033 0.15908514 0.4642594 -0.07304548 0.8593252 0.082577914 0.59040105 -0.2808995 0.1574081 -0.8179494 0.11833548 -0.141112 0.08549776 -0.4841338 -0.5491666 -0.34270695 -0.7456731 -0.050115407 -0.16952176 -0.2903021 -0.60273373 -0.21535534 -0.307493 0.32059526 -0.49890697 1.1976966 0.4509181 0.89183563 0.07930648 0.104630046 -0.1570711 0.00097579893 0.07175648 0.19547358 0.10791034 -0.101931706 -0.8082203 0.053569473 -0.026147129 -0.9095329
system.collections.generic.list.addrange() 0.07408419 -0.7487457 -0.15277989 0.42493552 0.073102616 0.77162963 0.0167203 0.6888696 0.2969939 -0.16699877 -0.25062904 -0.41677022 0.12409 0.24661255 -0.3831703 -0.14384142 0.072615445 0.15189295 -0.29950973 -0.40619558 0.6767169 -0.4935377 -0.28692314 0.022075532 -0.5103884 0.62918466 -0.28726298 -0.94336146 0.617431 -0.39301223 -0.57735074 0.44509825 0.4868437 0.014007935 0.5115573 1.0177027 -0.43778527 0.2138889 -0.6414695 -0.24422236 -0.6376969 0.11828685 0.31542426 1.3257215 -0.1752695 -0.08667016 -0.20628992 -0.25558314 -0.9281768 -0.56301594
system.string 0.16571307 -0.5520958 -0.1133091 -0.33390924 -0.16020194 0.68604285 0.14171404 0.9462115 0.025278412 -0.28561583 -0.15034692 0.15530175 -0.16668735 0.060684826 -2.5820384e-05 0.23113258 0.5947912 -0.24861194 0.083103314 0.00561808 -0.23427773 -0.1993013 0.298374 -0.39203727 -0.2757727 0.17291112 -0.24611008 0.0025824744 0.059607454 0.05908688 0.23716408 -0.27908015 0.41631234 0.21472138 -0.7387671 -0.08070837 -0.07865978 0.12653685 0.48790497 0.27628943 -0.20570157 -0.11053144 0.4819972 0.4240188 0.48582837 0.31858623 -0.49415082 0.33609766 -0.292732 -0.59618884
system.collections.generic.dictionary.remove() -0.15753882 -0.85703427 0.17014122 -0.22407255 0.60049963 0.54131085 -0.16125575 0.5759703 -0.23383212 -0.2711453 -0.28397137 0.51863515 -0.14728406 0.3564933 -0.27209064 0.5318045 -0.11418758 0.22113532 -0.1470719 0.16649458 0.7135794 -0.8848722 -0.399889 -0.7256009 -0.6992111 0.34931204 -1.0422523 -1.076273 0.31885237 0.5549138 -0.67644954 0.40843546 0.024553327 -0.4359491 -0.34683344 -0.24429283 0.11663665 0.65253514 0.0023817313 0.39329025 -0.3529615 0.8849326 0.079528645 0.7027754 -0.012878727 -0.50223696 0.8075747 0.118471324 -0.3153702 -0.98761195
system.string.equals() 0.034035645 -0.5938383 0.099398345 -0.550586 -0.28409696 0.45402712 -0.22114125 1.030612 -0.537083 -0.5604733 -0.26824835 0.24575223 -0.3196038 0.34670177 0.20423979 0.32737318 0.38661265 -0.019367853 0.2046751 -0.60470927 0.30337632 -0.58051646 0.60278577 -0.04348076 0.066395245 0.38910577 -0.8556699 0.3636051 0.17486426 -0.5856371 -0.3896921 -0.27383712 0.6362674 0.34919104 -0.58925647 0.3768017 0.05618366 -0.13229984 0.8055235 0.111922175 -0.9958987 -0.46136132 0.12907788 1.0865022 0.3746114 0.35998812 0.22601812 -0.18858299 0.21103272 -1.0804206
system.int32.parse() 0.6503634 -0.24864535 0.5333363 0.06654216 0.6253736 1.0023968 0.045041554 0.95742726 -0.5794119 0.24854968 0.67745817 0.092926934 -0.71195865 0.38414434 -0.2707021 0.16794468 0.56579196 -0.0037171345 0.15158054 0.4209174 0.071749344 0.061806913 0.40132308 0.043628942 -0.87341785 -0.22354639 0.03956257 -0.73926735 0.1428489 0.57078 0.06452156 -0.31676877 0.8174768 0.5140797 -0.5333977 0.06876191 0.26342654 -0.41739386 -0.17822237 -0.015856951 -0.9769616 -0.6498779 0.9875835 0.25244945 0.22926785 -0.027808812 -0.09472384 0.33147612 -0.33143008 -0.8743798
system.collections.generic.list.remove() 0.18883039 -0.77420694 -0.3321665 0.007447223 0.35683903 0.7558513 -0.11290595 0.30559272 -0.35294992 -0.49612662 -0.17078552 0.25934502 0.42815292 0.5286235 0.30960998 -0.27323145 -0.17506097 0.27504325 -0.13151759 0.026652165 0.5674384 -0.35805508 -0.36944866 -0.6959343 0.0039634374 0.3116157 -1.0797184 -1.3963697 0.35759115 -0.506623 -0.63272613 0.065234296 0.13575256 -0.25938207 -0.08520612 -0.010258849 0.039660286 0.5407458 -0.49284837 -0.09526911 -1.0592432 0.79871786 0.5060464 0.48540363 -0.6840287 -0.038212787 0.65543413 0.048032977 -0.0009910733 -0.6764574
system.collections.generic.hashset.add() 0.32055604 -0.35763395 -0.20173763 0.1343408 0.242576 0.84054536 -0.8156956 0.7085546 0.024353614 -0.6611841 0.031872265 -0.10092055 -0.1038574 0.014238038 0.10346139 0.0156915 0.30894953 0.00048206197 -0.49758437 0.15712507 0.8031798 -0.65384746 -0.23763597 -0.38282722 -0.32281032 0.56769675 -0.87248665 0.8541026 0.776162 -0.13763304 -0.21324217 0.2756576 0.43640327 -0.47092146 0.24525313 0.048797555 0.47395867 0.73984724 -0.31491238 0.123998255 -0.41309944 0.8109263 -0.1213563 0.6077328 0.14712103 0.3140863 0.44517264 -0.45231593 -0.14561771 -0.4307514
system.collections.generic.list.removeat() 0.4448347 -0.897817 0.038755476 0.119465485 0.23614034 0.8585848 -0.41870406 0.5396681 -0.80123913 -0.6436478 0.034980215 0.5111936 -0.40021166 0.6638207 0.5186572 -0.344121 -0.62004673 0.50146425 0.12219598 0.08005147 0.77587533 -0.36796525 -0.2054031 0.14654407 -0.4599947 0.34861335 -0.8224126 -0.6883906 0.57105154 0.36609283 -0.642245 -0.336065 0.3469158 -0.20964643 -0.14758098 0.011169062 0.19975212 0.9334646 -0.20181833 -0.06223021 -0.57400143 0.16619693 0.23706613 0.7682072 -0.6398363 0.42466798 0.17283936 0.063849896 -0.54996955 -0.14326811
system.collections.generic.dictionary.clear() -0.14877875 -0.05731044 -0.15941916 0.077205904 0.45361623 0.4076632 0.025946729 0.60291976 0.1487173 -0.48582777 0.127912 0.21568513 -0.071576685 0.26616016 -0.03237136 0.15731476 0.051348057 -0.15743706 -0.3106044 0.5128055 1.0892882 -0.44456786 -0.5029576 -1.1024199 -0.30546635 0.15076603 -1.3795376 -1.0966967 -0.5578322 0.6843544 -0.18937986 0.2635888 1.1408015 0.08807276 0.7524005 0.38606092 0.4922612 0.3593366 -0.069891155 -0.29799986 -0.072791256 0.78778726 0.7891206 1.011906 -0.2426043 -0.5482555 0.23344444 -0.07200842 0.07877403 -0.78123116
system.string.join() 0.5951048 -0.23498008 -0.57761157 -0.018856978 0.36969045 0.23778504 0.12006238 0.71180123 -0.30326593 -0.011013035 -0.6547624 0.53605497 0.42638773 0.40718967 0.8371864 -0.099983476 0.77987045 0.44562703 -0.54160035 0.45337704 0.33222365 0.100462824 0.44414216 -0.18203498 -0.028809596 0.32000935 -0.63851 -0.2684302 0.7293334 -0.37188017 -0.64820075 0.14828902 0.11177241 -0.26556957 -0.729392 0.15488729 -0.2105682 0.3339825 -0.26556006 -0.04694239 -0.8203594 -0.6177233 0.3920073 0.44540864 0.09431965 0.040476013 -0.9281173 -0.26057258 -0.8251632 -0.102582
system.io.directory.getfiles() 0.4828648 -0.2870289 -0.62898976 0.3968623 0.16680835 0.49008203 -0.6104922 0.8919207 0.47122055 0.14937934 0.09251138 -0.3361317 0.15034698 -0.029199138 0.44232538 0.44344068 0.7064454 -0.12603861 -0.38562 -0.34756798 0.47993666 -0.26815912 0.12376771 -0.20172276 -0.41857734 0.45415607 -0.87424695 -0.24687228 0.6543931 -0.31783372 -0.107776254 -0.09504833 0.38321096 0.77417016 0.033793032 0.8752938 -0.498908 0.82974315 0.009168288 -0.29092214 -0.3180302 0.017707057 0.09159095 0.6014276 0.04560505 0.26838487 -0.3076913 0.28849176 -0.37513837 -1.04457
system.string.compare() 0.97880584 -0.71558416 0.41949278 -0.2796054 -0.5572354 0.55539834 -0.1353626 0.98469025 -0.66978985 -0.21443805 0.46929833 -0.12894814 -0.52210367 0.5646211 0.022549948 0.9983479 -0.021198528 0.34386605 0.40518957 0.09112087 0.42971072 0.25658908 -0.30141014 -0.13477126 -0.40527785 0.58356744 -1.3428639 -0.8010156 0.39708364 -0.22002938 -0.37061813 -0.110641666 0.20449635 -0.050092854 0.010728456 -0.41378948 0.018859943 -0.105225764 0.34322062 -0.11342396 -0.3964913 -0.060853828 0.111695014 0.9512375 0.39869538 0.41278276 -0.780942 0.17652597 -0.7299464 -0.8292087
system.math.floor() 0.017214475 -1.8281374 -0.44545332 -0.0061541395 0.7553298 0.714355 -0.026517466 0.7982341 0.027467402 -0.006915175 -0.5298973 0.23999563 -1.0509897 -0.10248482 0.8873663 0.3130805 -0.44190118 -0.18602686 0.07276808 0.339599 0.072664976 -0.06546981 -0.37261117 0.21008235 -0.40965217 -0.48842824 -0.61521894 -0.09353918 0.3509082 0.062024005 -0.79638684 0.65767515 0.12322175 -0.7217936 -0.4451648 0.26372468 -0.28811812 -1.0682944 0.17840184 0.27565244 -0.35558763 -0.12792633 0.37958533 0.5852763 0.055498812 0.418686 -0.116676934 0.13518871 -0.0076191984 0.07244144
system.collections.generic.idictionary.add() 0.5895121 -0.68343586 0.8642684 0.37010172 0.64526826 1.0762495 0.016699724 0.034112066 -0.22861919 -0.36653176 0.08619726 0.3985795 0.254891 0.80155873 0.353024 0.2708895 0.100840144 -0.29288483 -0.06175215 0.12846878 0.136591 -0.2663011 -0.02653368 -0.30181533 -0.41153693 0.62701344 -2.435291 0.5161126 1.1046529 -1.1145008 -0.020588977 -0.035123035 0.5425628 -0.3978781 -0.7841568 0.32016066 0.037239347 0.029318238 -0.7378078 -0.33678222 -0.5317748 0.41290814 0.69789284 0.15225722 0.5419174 0.5859957 0.30084985 0.059589934 -0.3247659 -0.5319457
system.math.ceiling() 0.6325221 -1.537093 -0.6500165 0.16395637 0.5184998 0.79829216 -0.20723352 0.6758447 0.10072375 0.08047641 -0.17866609 0.0137398075 -0.6927285 -0.10721208 1.1525624 0.3172439 -0.25579724 -0.40485597 0.762433 0.6400815 0.011606489 0.24776946 -0.35304442 0.27359962 -0.49053204 0.13305372 -0.23634166 0.04242773 0.3823375 0.046382315 -0.3253944 0.27584118 0.060287382 -0.45557293 -0.16325723 0.23217581 -0.28959706 -0.64200085 0.08057734 0.4300643 0.051461786 0.17308892 0.42429602 0.4942403 0.02640067 0.27510378 0.21112363 0.53348553 -0.44659868 -0.6570731
system.collections.generic.hashset.contains() 0.18790309 -0.34524015 0.062814 0.019297311 0.07798272 0.7523679 -0.64310086 0.97070426 -0.05321863 -0.5335812 0.028983455 -0.27068433 -0.13261041 -0.3951045 0.5229985 0.020589927 0.310081 0.19307885 -0.29064754 -0.0021464368 0.8669724 -0.5796187 -0.34923464 -0.15297747 -0.14997843 0.73671526 -0.91952974 0.77570957 0.5351776 -0.12771887 -0.4515716 0.21988688 0.14131989 -0.55773634 -0.07700501 0.11976234 0.10201759 0.81453925 -0.042680122 -0.08627285 -0.7134569 1.2105772 -0.072213866 0.4077248 0.19419196 0.36100614 0.3917099 -0.48336676 -0.34344628 -0.4198931
system.collections.generic.idictionary.containskey() 0.38039955 -0.5196228 0.56959957 -0.418017 -0.4673481 0.94138604 -0.14667563 0.19428861 -0.015332214 0.38825926 0.13644235 -0.3922169 -0.1592528 0.5248312 0.004646289 0.55691123 0.6178879 0.520938 0.26025265 -0.1702501 0.05629909 -0.35786572 -0.61158663 -0.5331024 -0.7536904 0.31879136 -1.5081177 0.70474666 0.4756429 -0.6178952 -0.36756745 -0.13604288 0.6755972 -0.3314551 -0.45075673 -0.01407459 0.3827805 -0.32093897 -0.4898017 -0.27550843 -0.08619572 0.1727194 0.57962817 0.13609743 0.4351795 0.18483481 -0.10489538 0.14318416 -0.26285395 -0.1342212
system.string.isnullorwhitespace() -0.122280434 -0.43315667 0.10229006 -0.38209054 0.30582318 0.33198586 -0.011343742 1.1267346 -0.042881493 0.19478418 -0.15091845 0.14620341 0.48990247 -0.46041912 0.338118 1.0465914 0.75570744 0.9160473 0.49171528 0.16449231 0.26071635 -0.3242946 0.45550644 -0.15477903 0.09451851 0.7152877 -0.69834465 0.002329587 -0.10369406 -0.38947326 -0.77590024 -0.05038327 0.67555046 0.3452866 -0.17926194 0.22897872 0.6246427 0.00203968 -0.46272597 0.16308744 -0.53586245 -0.106102794 0.054713324 0.49704427 0.32777676 0.7376713 -0.17952718 -0.6089503 -0.63125527 -0.31934625
system.string.substring() 0.406199 -0.5374666 0.13087359 -0.6861167 0.43854928 0.27393028 -0.23716566 1.0761395 -0.24456647 -0.54535854 0.23655345 0.31973898 -0.59618574 0.2933649 0.07243986 0.5212616 0.5944558 0.024931565 0.15474907 0.31540018 0.069085196 -0.45315266 0.38939214 -0.43015903 -0.55675286 -0.1221415 -0.71113473 -0.5636402 0.039741274 -0.6547579 0.008776242 0.038335584 0.60554224 0.11472913 -1.2206218 0.14922048 -0.029984051 -0.11369162 -0.05829699 0.21131063 -0.46130902 -1.1282468 0.40918428 0.34929147 0.87948334 0.80825657 -0.2836269 0.9358332 -0.2995174 -0.100093715
system.collections.generic.list.sort() 0.41904435 -1.0221266 0.011871477 0.02728863 0.24220714 0.6409379 -0.2702977 0.8383949 0.13364978 -0.55378133 -0.015097243 0.026007045 0.054917656 0.39504623 -0.0071676825 -0.100350335 -0.35515302 -0.007945579 0.1512482 0.6127703 0.098796554 -0.7492008 -0.46969727 -0.28224432 -0.5017217 0.45715505 -0.7738847 -0.3099773 0.79250085 -0.05239966 -0.214057 0.306443 0.06610852 0.19399124 0.16769257 0.39655474 -0.14631204 0.24444297 -0.088348724 -0.7951905 -0.66796553 -0.23760335 0.5355278 0.7424843 -0.6869324 0.07159081 -0.24608293 -0.0060742814 -0.503401 -0.41621268
system.io.directory.delete() 0.4527289 0.028878195 -0.7528301 -0.534487 0.22828925 0.0974481 -0.6820833 0.83924437 0.3424909 0.6752482 0.28102663 0.00959544 0.16861661 0.1521633 1.4341847 -0.09864367 0.7002771 -0.11521184 -0.46862832 -0.61940235 1.12665 -0.0812809 -0.17159297 -0.40071818 -1.5719436 -0.41901726 -0.94642967 -0.5060006 0.13020591 -0.07206201 -0.31728476 0.20354351 0.1905713 0.53188896 -0.09237469 0.59865576 0.18041754 1.0780005 -0.6205454 0.19360402 -0.012520616 0.008656083 0.42647403 0.27600402 -0.31657946 -0.23075879 -0.06204452 -0.14020857 -0.5198076 -1.3568321
system.int32.tryparse() -0.013693652 -0.4544836 0.406528 -0.63318515 0.88255185 0.57680136 -0.18735932 0.46655002 -0.19969107 0.3903761 0.12675962 0.2740315 -0.6758599 -0.1864134 -0.22763081 0.495556 0.29609844 0.43196312 0.09810025 0.5039214 -0.11322303 -0.79949206 0.354521 -0.5006259 -0.78038305 0.2018212 -0.38158792 -0.36611748 -0.062465627 0.67970884 -1.0307956 -0.0738374 0.7513022 0.34549704 -0.23042592 -0.4055208 0.3418899 -0.45799744 -0.4217806 0.34963033 -0.64752 0.3835795 0.5047414 0.26839536 0.26493344 0.5780771 -0.5959446 0.13759369 -0.9561906 -0.583402
system.collections.generic.idictionary.trygetvalue() -0.34100726 -0.86443233 0.2822052 -0.55876124 0.3883661 0.98078686 -0.43476582 0.05189511 -0.14014907 -0.20733121 -0.025786076 0.24371174 0.40175658 0.18518725 -0.27740872 0.27670532 0.3020299 0.044222772 0.038883485 0.16919114 0.3336713 -0.22681715 -0.62247735 -0.28764734 -0.5248634 0.4321945 -1.258838 0.7465482 0.25375244 -0.27264738 0.038297173 -0.24868359 0.71031123 -0.03575816 -0.4103297 0.33525413 0.25014535 0.09785245 -0.26342732 0.14108352 -0.14032434 0.33387977 0.38359538 0.3298943 0.54521924 0.7130258 0.36970004 -0.08938857 -0.29943785 -0.06773487
system.math.log() 0.8129494 -1.5165712 -0.9120185 -0.23763812 0.5909694 0.58257616 -0.6597101 0.77241427 0.45032224 -0.21015987 -0.3812326 0.05194847 -0.92994565 0.37395164 0.4982179 0.012306065 0.19739707 -0.2409389 0.38428053 0.3512119 1.0075513 -0.06304625 -0.29218724 0.17043689 -0.63909584 -0.23966672 -0.118435994 0.04510689 0.53815013 -0.4040039 -0.68512285 0.40299368 0.2975711 -0.80201805 -0.15791018 1.1374468 -0.013604838 -0.3016039 -0.009549336 -0.054085556 0.256916 -0.59055936 0.22083327 0.7634284 0.0470031 0.5295387 0.34504002 0.4730721 -0.14795874 -0.033943884
system.string.concat() 0.100080945 -0.86030227 -0.04324534 0.005618588 0.04299176 0.35673198 0.24599063 0.5048943 0.06496037 0.113627255 -0.08350875 0.33689988 0.51179594 0.37532145 0.1016416 -0.039802164 0.07153857 0.13273863 -0.21644358 0.044864092 0.38507494 -0.5689573 0.18073449 -0.2664523 -0.559487 0.017131511 -0.67064744 0.13660173 0.8249297 0.1225112 -0.44494736 -0.14574389 -0.13482605 0.5721074 -1.3855574 -0.48496842 0.16517846 -0.023329154 0.15912274 -0.26549196 -0.5502547 0.14575906 0.09189074 0.034466524 0.93570966 0.30688822 -0.44931534 -0.33988166 -0.23053932 -0.7762035
system.collections.generic.list.insert() 0.05027898 -0.6968774 -0.080350585 -0.32592306 0.6283144 0.5294961 -0.3957999 0.40447307 -0.1367541 -0.40253624 -0.36973232 0.29169834 -0.12639277 0.74553585 0.116963126 -0.38974503 -0.2929739 -0.030260969 0.1640533 -0.054060593 1.0710651 -0.24600148 0.2873993 -0.32421368 -0.5777857 0.13499284 -1.0359032 -0.8920693 0.7278082 -0.5309042 -0.21069045 -0.5746391 0.10572938 0.05388078 -0.20629022 0.3668712 0.50251836 0.5871786 -0.33832723 -0.43553716 -1.1572119 -0.24461898 0.47379908 0.95450777 -0.689161 0.76061636 0.41755876 0.14789374 -0.41112468 0.03354818
system.collections.generic.list.indexof() 0.14732899 -0.88563615 0.75903505 0.1140103 0.5739685 0.97138906 -0.41986084 0.24466279 -0.42881906 -0.31919736 0.01460897 0.63493466 0.19078591 0.5374582 0.13084665 0.15390415 -0.4920638 -0.029064555 -0.0071484256 0.57534325 0.5250195 0.25306958 -0.062148347 -0.37511897 -0.29890487 0.5252926 -1.3543967 -0.9555714 1.3359712 -0.21170633 -0.12820011 -0.4599182 0.44713682 -0.1839102 -0.6893644 0.06226009 -0.2815817 0.4776307 -0.07658627 -0.41957015 -0.6356798 0.19133383 0.37450272 0.035091836 -0.42078584 0.7044603 0.45233157 0.027196357 -0.6094749 -0.58676684
system.io.directory.getcurrentdirectory() 0.73772234 0.50999016 -0.5308286 0.4521462 0.22346094 0.9667138 -0.48216876 0.85238224 -0.04498764 0.7563297 0.33651337 0.1745018 0.4620395 0.14277308 0.43540487 -0.019741317 0.502211 0.07815458 0.84805894 -0.30253756 0.22961314 -0.33424956 0.45274308 -0.17839544 -0.7069161 -0.12876312 -1.0685039 0.1575944 0.70476997 -0.26464328 -0.33725333 0.35868454 0.31468675 0.5696259 -0.16127746 0.8912666 -0.42287228 0.35628867 -0.19558361 0.01610355 -0.6604904 -0.2656926 0.6396586 -0.10576828 0.5333172 -0.24327746 -1.293769 -0.16640751 0.053091917 -0.8629287
system.collections.generic.list.foreach() 0.076717325 -0.1416141 0.09533652 -0.50905883 0.42395282 0.703933 -0.0029355986 0.24862859 -0.0054185037 -0.41887867 0.20376173 -0.5284393 0.8038971 0.32816353 0.2305091 -0.12988487 -0.053861212 0.23532206 0.25894472 0.29157105 -0.050685395 -0.42098862 -0.047890622 -0.8043851 -0.3378243 0.4128077 -0.69655997 -0.6116864 0.7018837 0.7354913 -1.0121793 0.04249931 0.40139633 -0.54196054 0.3390066 0.8684018 -0.39307356 0.5752419 -0.6809833 -0.5621401 -0.6142779 0.15134202 0.57145107 0.78215027 -0.4994341 -0.15665488 -0.33310685 -0.6609274 0.13740714 -0.32928872
system.io.streamreader.readline() 0.64682424 0.17369977 0.2333619 0.08691614 0.01655044 0.6486808 -0.07501488 1.2337852 -0.15059307 -0.41281274 0.3079826 -0.17335549 -0.4388668 -0.05116535 0.75520813 0.4528816 0.41252655 -0.21602365 0.58919406 0.2244265 -0.24507329 -0.8128592 0.28235325 -0.63563156 0.03210194 0.6974528 -0.5343225 -0.85021865 -0.046053268 0.47962302 0.30236354 -0.13639282 0.23148167 -0.018159041 -0.34221014 -0.2874489 0.83083993 0.35592 -0.021131318 -0.040117014 -0.44887403 -0.1902423 0.23394231 0.5503139 0.0706614 0.34586272 -0.22714885 1.2716148 0.15699267 -1.0560907
system.data.datatable 0.19608492 -0.36852908 -0.14042808 -0.351997 -0.23185422 0.62495553 0.39668033 0.5075164 0.08850288 -0.31615436 0.29602277 -0.08868196 -0.32021165 0.26786992 0.39141724 0.05712613 0.502077 0.05035965 0.5037667 0.58224523 -0.5805208 0.06383859 0.0018867131 -0.1725058 0.089070685 0.0070536514 -0.36463767 -0.68600786 0.1037861 0.32751146 -0.39460352 0.10363017 -0.015702313 0.49957108 -0.1834819 0.09317186 0.11006316 0.75348306 0.5263797 -0.26658094 -0.15744254 -0.017916713 1.035682 -0.031220432 0.20056063 0.18887803 -0.4281716 0.30563408 -0.4061651 -0.8609923
system.string.indexof() 0.56167626 -0.6191682 0.20849004 -0.7904938 0.32244864 0.072266296 -0.018771904 1.1491109 -0.7340259 -0.9271964 0.3125595 0.25022486 -0.9119236 -0.050096493 0.4202461 1.2516853 0.4255404 -0.013836892 0.5052766 0.26573923 0.092257366 -0.5938801 0.36921963 -0.5854836 -0.3187079 -0.08739645 -0.44722164 -0.3258394 -0.017980209 -0.31674105 0.2791247 -0.17871633 0.18862125 0.05078004 -0.8433426 0.049076583 -0.07842679 0.2241852 -0.24070926 0.3689006 -0.43110225 -0.49204817 0.61739755 0.29042155 1.2793508 0.9101993 -0.77363193 1.2512071 -0.3283719 -0.5023902
system.collections.arraylist.toarray() -0.059409674 -0.05245199 -0.77395654 -0.18445434 0.5522037 0.24276051 0.21857406 1.1595968 -0.3748969 -1.0050977 0.17891379 -0.60600364 -0.61717445 0.49418524 0.38508442 -0.35060346 0.23913448 0.08131645 0.012380945 0.7274546 0.74096155 -0.45829973 -0.19115625 0.44030952 -0.42478296 -0.022249993 -1.1513171 0.48353982 -0.14301085 -0.041891083 -0.2765122 0.056455523 0.22305346 0.4070119 -0.44505996 -0.4654865 -0.06672728 0.22301084 -0.262358 -0.12809452 -0.45281544 -0.46366224 0.54206795 0.8100015 0.1853132 -0.39066586 -0.57219625 0.2593938 -0.64604545 -1.0763854
system.io.streamreader.close() 0.4762216 0.1748755 0.37487066 0.11949417 0.527193 0.20186828 -0.19911107 1.062483 0.13323177 -0.44661018 0.011684033 0.28330684 -0.23938444 0.03529637 0.60855985 0.6220099 0.64474237 -0.4761421 0.24435578 0.27721015 -0.23020904 -0.99802035 0.34658068 -0.58580667 0.22864266 0.5163627 -1.0803574 -0.81820816 -0.18955794 0.77571064 0.2785731 -0.22290747 0.25659445 0.0059422576 -0.97252953 -0.27990225 0.22681943 0.7417393 -0.3670085 -0.09264694 -0.5383234 0.077745646 0.7782086 0.62236714 -0.11301729 -0.40559906 0.022592066 0.6226654 0.0325954 -1.1269983
system.data.datatable.newrow() 0.40919545 -0.71687686 0.022293884 -0.0173437 -0.53277636 0.26202893 0.5921226 0.5164125 -0.30318138 -0.76409084 0.26045206 -0.44130516 -0.74988115 1.1063063 0.45445022 0.0665079 0.73450494 0.35000172 0.7336753 0.51234525 -0.39182717 0.25878212 0.13982473 0.22046335 -0.12026583 0.44679555 -0.7225442 -1.0384846 -0.03131179 0.53282416 -0.7602038 0.056371376 -0.522586 0.34459287 -0.20114154 0.09083561 0.22743262 0.5561902 0.31141105 -0.413669 -0.026987342 0.17755416 0.7850327 0.31989166 0.80162996 0.53586596 -0.21403232 -0.0014126214 -0.52005404 -1.229561
system.io.directory.getdirectories() 0.5134852 -0.33203533 -0.716038 -0.18789223 0.26324984 0.361886 -0.59129655 1.0396134 0.43966812 0.13342555 0.3287386 -0.75551 0.04594827 -0.19459502 0.31301442 0.02264734 0.48200098 -0.06633218 -0.33368054 -0.3432972 0.65150195 -0.25040135 0.31369272 0.016066957 -0.9688811 0.33431444 -1.1556842 -0.3954495 0.4280249 0.08712974 0.03094839 -0.08607323 0.28110278 0.6742667 -0.28278768 1.0347557 -0.26086444 1.2049606 -0.0009892837 -0.6636667 -0.60631216 -0.10437383 0.2564136 0.2569405 -0.084790446 0.17344578 -0.023759672 0.1218521 -0.14090165 -0.98466456
system.io.streamreader.readtoend() 0.53275466 0.23847692 0.2343911 0.30491138 0.64452356 0.03466135 -0.019870484 0.3605138 -0.0021331892 0.07941992 -0.2516693 0.56866276 -0.028434943 -0.17214447 0.7186723 0.87823504 0.63869625 -0.49579555 -0.14828084 0.02561202 -0.2203756 -1.1273603 0.23527044 -1.2237529 0.49343434 0.16809094 -0.9390327 -0.3812209 0.07878111 0.9712665 0.011511772 -0.040928625 0.37682477 0.11064965 -0.6677623 0.046969052 0.5798057 0.6474263 -0.0039559384 0.23082907 -0.15514225 -0.12766877 0.8561768 0.8199846 0.3631332 -0.28445703 -0.44943464 0.70927054 0.16537485 -0.72506136
system.math.sign() 0.8854855 -1.0104179 -0.4156766 -0.21058062 0.68875104 0.8449961 -0.01699477 0.07627938 0.023371883 -0.46994242 0.08120798 -0.4082781 -0.5045978 -0.8243448 0.6846749 1.0756695 0.344112 -0.2703219 0.47568774 0.02857354 0.9725475 0.24451385 -0.090867326 -0.64688826 0.4506822 -0.010545482 -0.3645997 0.3236197 0.6960931 -0.23989625 -0.4305119 0.3437628 0.5472204 -0.7707942 0.19625737 0.8923749 -0.12238085 -0.6291773 -0.29712108 -0.080576815 0.022211604 0.12447673 0.87411445 0.534324 -0.45486853 0.28912434 0.47308323 -0.28389695 -0.6018905 -0.23282675
system.collections.generic.hashset.remove() 0.2710639 -0.47365656 0.11638365 -0.22731851 0.34766608 0.7887307 -0.6182364 0.7195497 -0.17794895 -0.5821878 -0.024209779 -0.08258446 0.26368558 0.33834344 0.38479838 -0.051139925 -0.067874886 0.22451821 -0.96008754 0.046164244 0.8203864 -0.5998067 -0.41941777 -0.33052102 -0.18286803 0.55969805 -1.1732633 -0.0133467745 0.52822876 0.33543208 -0.29101247 0.654302 0.27442715 -0.7038617 -0.40191463 -0.4303486 0.20368023 0.7906478 -0.72927153 0.45447436 -0.6240339 0.92777246 0.03794857 0.27475888 0.19591194 0.32885593 0.69607705 -0.0033206977 -0.085858464 -0.2768158
system.double.isnan() 0.19846869 -1.2470075 0.00015577611 -0.5732318 0.09632114 0.17447186 -0.5476124 1.3151362 0.07185466 -0.12933852 0.13761741 -0.9957459 -0.6107127 -0.045831386 0.7956631 0.7801151 0.8493061 0.12472338 0.37489584 0.69450444 0.9724941 -0.5415696 -0.96362555 -0.19146846 0.121322215 -0.40429372 -0.16044167 0.15188669 0.17754388 0.02991089 -0.8008966 -0.31901246 0.10877447 -0.26674724 -0.122144304 1.3890266 -0.15631182 -0.89655745 0.20034117 0.6966936 0.5969481 -0.43391284 0.12646005 0.9542364 -0.23656641 0.559237 0.41925013 -0.28608185 0.017335007 -0.7399619
system.io.directory.enumeratefiles() 0.45031738 -0.021270176 -0.16483784 0.44844222 0.24902697 0.31438836 -0.48813313 0.85337365 0.03005623 0.15665339 0.20398404 -0.2485131 0.7990506 -0.7069157 0.99207 0.2103549 0.22685994 -0.50900626 0.28719002 0.2724597 0.3952888 -0.21273431 0.17382216 -0.4803327 -0.96460205 0.3377592 -0.9308732 -0.059719674 0.84436756 0.22573332 -0.18827006 -0.07912512 0.26165757 0.61631966 0.38950545 1.2603593 -0.37983885 0.7507689 -0.20142269 -0.26390174 -0.16987528 0.31986105 -0.33530685 0.6725007 -0.08328067 0.6517686 -0.5325649 -0.36739615 -0.32378003 -1.319571
system.double.parse() 0.8070904 -0.7912268 -0.20738702 -0.09333313 0.3943954 0.3107827 -0.009867763 0.89210916 0.16406025 0.009376101 0.75271904 0.35075375 -0.5546264 0.31631958 -0.22846945 0.39706707 1.2491394 0.47007075 0.31021303 0.8845538 0.36056504 -0.3028073 -0.013712512 0.16205536 -0.037480038 -0.35911128 0.014133707 -0.14192738 0.4885105 0.7669554 -0.05889362 -0.51528054 1.4881914 0.11732472 -0.45583954 0.3214102 0.33210564 -0.9148394 0.027982544 -0.030139651 -0.53721386 -1.1900909 0.44642472 0.74617636 0.2620866 0.41439968 0.30509087 0.5983476 -0.32741994 -0.88063675
system.data.common.dbconnectionstringbuilder.appendkeyvaluepair() 0.862007 0.13388552 1.0794907 0.18608357 0.3753121 -0.09078907 -0.03632742 0.359529 -0.18253273 -0.58696663 0.09583108 0.16053519 -0.32951516 -0.2593403 1.4761592 -0.04008098 -0.07610296 -0.0500189 0.28750214 1.3073673 -0.66148704 -1.450491 -0.422985 0.18460341 -1.3760127 -0.05756207 -1.5947094 -0.7406433 -0.5863713 0.11532978 -0.37103796 2.2941632 0.91455877 -0.098202564 -0.8202604 0.61436254 0.5443774 0.23563845 -1.867687 0.6775776 -1.0773377 0.39034396 1.1715955 0.57601887 1.4176071 -0.05650684 -1.5886893 -0.055894602 0.008685336 -1.9782238
system.collections.generic.list.getenumerator() -0.06385566 -1.0556386 -0.274766 0.2864156 -0.21235357 0.67184836 -0.1395218 0.98293096 -0.20969512 -0.5464959 0.42648938 -0.48605758 -0.310394 -0.15685149 0.5141157 -0.011794144 -0.06286321 1.000614 0.4671638 0.45206532 0.42328373 -0.81674933 0.15048577 -0.3150055 -0.42789978 0.7904175 -1.0351678 -0.49280778 0.26899627 -0.8978035 0.72995484 0.5968178 0.734765 -0.3725061 0.12326966 1.0197607 0.40331134 0.792442 0.411828 -0.21594433 -0.9206808 0.38169834 0.95228344 0.8252479 -0.055447698 0.40836638 0.38232148 0.111435786 -0.25511903 -0.20797811
system.int32 -0.09428665 -0.43233752 -0.09709885 0.25635773 0.513496 0.75805795 0.2168694 0.57479227 -0.21022652 -0.14548744 -0.14825839 0.028141158 -0.6883504 -0.56758785 0.47909522 -0.08980694 0.3954386 0.2720377 0.0010307959 -0.5458174 0.15710406 0.14275743 -0.24454865 -0.32107905 0.12848817 0.065968126 0.08593098 -0.5814376 -0.01311816 0.16528389 -0.107753925 0.033571165 0.36009467 -0.02746949 -0.854611 -0.2572111 -0.12960696 0.21402472 0.39724782 0.16952495 0.20306298 -0.22619282 0.6796843 0.61435634 0.20389363 0.5255498 -0.1050038 0.30706677 -0.60956174 -0.28792602
system.data.idatareader.read() 0.20167398 -0.2912362 1.021461 -0.104727596 0.069235705 1.8537838 0.77158874 0.22659236 -0.2787066 -0.78094995 0.13684966 0.29305696 -0.46421614 0.22118697 0.84152836 0.5700028 0.91449684 0.8282244 0.22517683 1.2463446 0.3140315 -0.5122258 0.20586723 0.12202178 0.35417977 0.38709196 -0.020229489 -0.0124478 -0.37454703 -0.2389273 -1.3920956 0.9104993 0.04938828 0.038421836 -0.39664888 -0.08031433 0.71729213 0.48429322 0.10125226 -1.0606642 0.16551052 0.55869824 1.0895402 0.3731838 0.8204977 -0.1591238 0.06563624 1.2724314 -0.21185642 -0.6257516
system.string.startswith() 0.32909504 -0.5617087 0.17280675 -0.81182045 0.2204072 0.5670085 -0.5672681 1.3118739 -0.60599995 -0.52545923 0.51868737 0.027246313 -0.49735713 -0.013170914 0.057390813 0.66143274 0.45062846 0.057984147 0.1665672 -0.21629167 0.2593584 -0.5933045 0.64427435 -0.9240433 0.12673834 -0.18267153 -0.5257463 0.0067444406 0.19054326 -0.629112 0.15456246 -0.25743747 0.48754022 0.027311802 -1.108623 0.49069545 0.117443666 0.049731676 0.26547778 0.3869683 -0.56083953 -0.20319824 0.14968175 0.6190615 0.29272923 0.5907047 -0.48575535 0.85630274 -0.09598795 -0.79475874
system.collections.arraylist.contains() 0.46308395 0.5019236 -0.3849752 -0.22083399 -0.1303892 0.49246743 -0.030324094 1.4482393 -0.09495664 -0.83083797 0.31388584 -0.7828666 -0.040501617 0.43904313 0.575266 0.059778158 -0.15212068 -0.65397215 -0.02932176 0.46457243 0.6640036 -0.61158675 -0.39041615 0.19794042 -0.05286535 -0.34549707 -1.2782271 0.15695295 -0.17254256 -0.06746856 -0.91401017 -0.6484434 -0.5071179 0.40995473 -0.63411885 -0.14757511 0.24291612 -0.22170575 0.4293723 -0.05652877 -0.55174667 0.48101997 0.37984878 0.3236922 0.325514 0.53771037 -0.48516458 0.08534112 0.31094673 -0.88566166
system.collections.generic.hashset.clear() 0.3044214 -0.04799071 0.06878549 0.29708317 0.139007 0.75609064 -0.70986444 0.8540379 -0.078757875 -1.1997285 0.29518348 -0.46016055 -0.20031272 -0.07422776 0.40353474 0.05179377 -0.0059099738 0.059577297 -0.7546812 0.3600972 1.1019586 -0.6794882 -0.36966613 -0.4780583 -0.2847355 0.47604513 -1.1263523 0.110491045 0.13519797 0.7371615 -0.024091966 -0.013148379 0.93663734 -0.762317 0.6924825 0.2919574 0.7366923 0.9948456 -0.5824804 -0.32101035 -0.06926116 1.0464866 0.17242819 0.8657041 -0.2407253 -0.092189044 0.41196784 -0.050766878 0.05010277 -0.77393603
system.collections.arraylist.clear() -0.083949305 0.1273613 -0.7299096 -0.20779054 0.30233526 0.11087602 0.11042593 1.2559854 0.16105887 -0.6260432 0.7996922 -0.521333 -0.55962414 0.5295418 0.8476471 0.20836547 -0.07395964 -0.70446986 0.04741883 0.5609457 0.5661176 -0.43717113 -0.27716133 -0.3033273 -0.5219577 -0.29946625 -1.582066 -0.50845927 -0.6296874 0.44654122 -0.28501043 -0.21152891 0.27484265 -0.076778546 0.120413765 -0.15562487 0.2942579 -0.05886804 0.48210794 0.00892552 0.19265172 -0.2243057 0.9756821 0.57768625 0.041733507 -0.37560505 -0.17921253 -0.022101697 -0.089185886 -0.5860952
system.data.common.utils.treenode 0.13013022 -0.10925813 -0.5528151 -0.6446772 0.3139249 0.9376205 0.5125365 0.19885862 -0.031757884 -0.12170728 0.5831503 -0.17324935 0.06801606 -0.024195451 -0.056210488 -0.12164431 -0.12970698 -0.47159284 0.14847851 0.004196751 0.26685116 -0.07211181 0.082786195 0.026590664 -0.67294586 -0.023369182 -0.50733685 -0.34064615 0.5308945 0.17949429 0.15178914 -0.28048903 0.4063932 0.25251028 -0.3048956 0.20569971 0.2124638 0.47137445 0.91658026 0.11186389 -0.65310985 0.39384696 0.68275154 0.38437372 -0.05928795 -0.35242474 -0.7603812 -0.41936478 -0.66302633 -0.7244798
system.data.common.entitysql.ast.node 0.26924092 -0.0154823745 -0.32742426 -0.27966303 0.077866405 1.0334044 -0.57752544 0.16333821 -0.3684546 -0.5426001 0.16505156 -0.061883904 -0.15178692 0.056923505 0.23904255 -0.3204967 0.090485275 0.121115714 0.38318264 -0.4244489 0.1293245 -0.65696895 0.12963364 -0.33149794 -0.23212856 -0.031617533 -0.5962588 0.11670198 -0.021317031 0.35834083 -0.25130287 -0.56462675 -0.043516036 -0.2142705 -0.086775295 -0.032883216 0.23971517 0.14205846 0.41563472 0.064376645 -0.60856974 0.31285125 0.65410507 0.2589619 0.17465875 0.11503396 0.24169284 0.21177952 -0.029293539 0.3414922
system.collections.generic.list.find() 0.24294052 -0.05804271 0.027447779 -0.49045268 0.23028128 0.9274376 -0.49572828 0.34533748 -0.33348 -0.37183574 0.08056033 0.122356325 0.14521465 0.38326192 -0.37654755 -0.44574672 0.24079506 0.5703499 0.031870384 0.29133716 -0.059267323 -0.0513198 -0.18971404 -0.57809937 0.3732572 0.18478549 -0.9161103 -1.1578442 0.7252784 0.16651979 -0.6018026 -0.2136642 0.17113501 -0.47912425 0.20595719 0.47490832 -0.043519545 -0.10107433 0.29594404 -0.4737521 -1.4477718 -0.20455016 0.22826438 0.9871247 -0.39847696 0.519267 -0.025953664 0.026428442 0.49189773 -0.7102354
system.char.isdigit() 0.54094255 -0.2584414 0.35242113 -0.55333316 0.0168154 0.9752086 -0.21771558 1.531964 -0.8124621 -0.09467455 0.20316786 0.28844705 -1.0582669 0.028663512 0.1812261 0.25921896 -0.08178616 0.90414715 -0.095531896 0.69644654 0.27031088 0.03528456 0.23659652 -0.5890212 -0.23543574 -0.06636271 -0.29978213 -0.41958252 -0.0328699 0.08055807 -0.3980936 -0.08101991 0.84471124 0.13443026 -0.60017854 0.23664777 1.1287425 -0.4642771 -0.19717562 0.22183613 -0.8334091 0.0342142 0.6926541 -0.115247056 0.8516105 0.9416977 -0.28245518 -0.13999459 0.009673077 0.028679693
system.char.iswhitespace() 0.44178882 -0.06294476 0.46460503 -0.17652799 -0.074859284 0.9163211 -0.22411956 1.4905845 -1.2709639 -0.5790482 -0.0037809275 0.29807347 -0.7061241 0.20441778 0.763549 0.37143847 -0.3785482 0.19802918 0.5827565 0.45308334 0.14342934 -0.41055933 -0.017601417 -0.3451274 -0.23336142 0.4561776 -0.25125045 0.16954653 -0.3473369 0.33690384 -0.6251934 -0.18341553 0.34118178 -0.047901254 -0.6027106 0.09112605 0.953557 -0.18847965 -0.675794 -0.27605855 -0.4628719 0.02931284 0.34363016 -0.09890554 0.99123394 0.81072724 -0.24277914 0.10052936 -0.79619217 -0.16660638
system.collections.generic.linkedlist.addlast() -0.51836604 -0.9431141 -0.43609354 -0.4717508 0.08212029 0.61410034 -0.10699665 0.43438968 0.39020666 -0.27336797 0.17669936 0.84635854 -0.823644 0.88931763 0.22880256 0.27891514 -0.0343184 -0.13309953 -0.34629077 -0.2331393 1.4155287 -1.1933872 0.121550925 -0.8645776 -0.9980322 0.14148058 -0.75566924 0.33248258 0.06788462 0.19022843 -0.111778095 0.17314841 0.16816582 -0.14992487 -0.07333355 0.266359 0.5993651 0.75549775 -0.6392024 0.36941352 -0.24280196 0.76131266 0.30486587 0.42843068 0.3917441 0.025161773 0.48073554 0.49958783 0.29596195 -0.108855344
system.collections.generic.idictionary.remove() 0.28999054 -0.87117916 0.83449405 -0.5191302 0.21536654 1.0972046 -0.111724965 0.36519277 -0.3786 -0.07958141 0.32055542 0.06144006 0.17605928 0.68458885 0.24383262 0.59041363 -0.042264655 0.16996236 -0.10549371 -0.05328679 0.34556442 -0.65176004 -0.9612433 -0.12038462 -0.7446634 0.48850247 -1.8928509 -0.09956486 0.20550147 -0.2166319 -0.19309123 -0.02176488 0.42094195 -0.80896264 -0.49325997 0.25699145 -0.06303441 0.4558553 -0.48867014 0.011842405 0.18143949 0.26854634 0.69331884 -0.15226623 0.040843148 0.34505677 0.8604238 0.1419671 0.51479447 -0.4569831
system.data.datarow 0.14470375 -0.4406578 -0.11540345 -0.34799054 -0.24441189 0.47796053 0.47032195 0.35060063 0.061883457 -0.40991005 0.3374961 -0.35811 -0.4269834 0.5819102 0.542996 -0.085220076 0.7328674 -0.006584185 0.39732793 0.6448959 -0.48817685 -0.077764444 -0.13440207 -0.0973255 -0.018103763 -0.00261002 -0.38873905 -0.74955934 0.10631149 0.4449327 -0.5827317 -0.03766318 -0.42682737 0.3545235 -0.40358987 -0.1215686 0.10571611 0.74933565 0.5403198 -0.28902018 -0.2791078 -0.008811438 1.1929082 0.092880554 0.37713626 0.19703455 -0.40078163 0.14762548 -0.47301185 -0.75417954
system.collections.generic.list.removeall() 0.08648116 -0.56040454 -0.16722284 -0.21960227 0.37512726 0.8558654 -0.98372537 0.6677918 -0.27881756 -0.09309493 0.045755263 0.23035187 0.09290382 -0.05592148 -0.117756665 -0.13438328 -0.13424854 0.6515266 -0.17912932 0.51838946 0.7368036 -0.19843698 -0.7395118 -0.6102172 -0.31633112 0.53327876 -0.65350413 -0.38212708 0.2271204 -0.3389672 -0.61842245 -0.2307277 0.54455143 -0.22785793 0.5147351 0.9448342 -0.2228681 0.1584963 -0.020441351 -0.27151844 -1.1478242 0.02569557 0.56085545 0.9747917 -0.6812411 0.34359464 -0.21211885 -0.28950265 -0.46565306 -0.45221463
system.string.replace() 0.39459062 -0.52415425 -0.44454008 -0.5688469 0.13715594 0.01955168 0.019316666 1.3046812 0.12857883 0.021600887 0.06844236 0.46644804 -0.42675176 0.5774881 -0.07658004 0.5996951 0.9736573 0.5626292 -0.15903893 0.014724793 0.026306614 -0.22275668 0.45489207 -0.73026395 -0.44781396 0.11778781 -0.66412175 -0.21869408 -0.05723943 0.019815937 0.2938593 0.06338265 0.43391013 -0.11986894 -1.1271958 0.24271555 0.57360816 0.359988 0.25984877 0.17864047 -0.2935627 -0.5869813 0.27310944 0.102273874 0.93136644 0.6885561 -0.7592169 0.43007413 -0.1912927 -0.6525297
system.string.contains() 0.9662258 -0.53649014 0.29154074 -0.8166584 -0.32706827 -0.13763487 -0.25637788 1.1527361 -0.556225 0.015561963 0.0048731095 0.2175107 -0.45377368 0.45859483 0.37457055 0.87302685 1.330069 -0.23316261 -0.28131536 -0.33870545 -0.03874259 -0.5143792 0.13576761 -1.1001831 -0.048315004 0.14405155 -0.60303336 -0.4936055 0.010937164 -0.24874792 0.27702683 -0.49209163 0.25593027 0.17888077 -0.9434919 0.97716564 0.20391715 0.17687795 0.45783663 -0.046252858 0.13635898 -0.009065287 0.66284025 0.5119807 0.61579525 0.41524902 -0.6207767 0.44968015 -0.053118907 -0.8435445
system.data.idatareader.close() 0.50353837 -0.08574988 1.6839991 -0.5184648 -0.14541145 2.2068825 0.6827539 0.11133856 -0.25376832 -1.5439006 -0.013525914 0.77841336 0.15185328 0.09183389 0.6630776 0.2845315 0.5402137 0.63319474 0.31274548 1.1514125 0.79617304 -0.5727764 0.10434584 0.5713832 0.18179539 0.5296479 -0.5647967 -0.6874803 -0.68842596 -0.2521684 -1.140993 1.1624863 0.07764313 -0.12588945 -0.60374326 0.21045695 0.10082219 0.18816358 -0.46295476 -1.2517397 -0.37912983 0.4651027 1.5995712 0.053177718 0.5427697 -0.88519365 -0.044676706 1.0535846 -0.3522808 -1.0550705
system.io.directory.setcurrentdirectory() 0.25998014 0.46243328 -0.584466 0.0040781596 -0.41397554 0.89281726 -0.48374206 0.3035763 -0.042734817 0.51265293 0.14205617 0.67526525 -0.012504367 0.3154965 0.55882007 -0.15096106 0.76123226 0.03961773 0.80783516 -0.51626015 0.6574782 -0.6071059 0.35574493 -0.96244276 -0.71949613 -0.41946843 -0.8558213 0.17878199 0.013563884 -0.8035309 -0.21573627 0.24882542 -0.18600088 0.2875934 -0.31775966 0.73574126 0.33517224 0.8894678 -0.5461185 -0.5753391 -0.35309198 -0.035932697 0.9847121 0.11888007 0.13292092 -0.25225088 -1.651886 0.3037029 -0.22811183 -1.2529099
system.data.dataset 0.12263629 -0.15163355 -0.13898723 -0.2782081 -0.27861756 0.59396833 0.44921812 0.14607935 -0.015113352 -0.19168873 0.083699614 -0.0058918432 0.006987856 0.061268743 0.74730366 -0.19869098 0.47309893 0.18276143 0.25329757 0.45575717 -0.39976823 -0.10963647 -0.07431575 -0.38458243 0.1755801 -0.44827762 -0.25664502 -0.74783003 -0.10098847 0.5653808 -0.27279863 0.30103946 -0.15425232 0.7626172 -0.5261461 0.06665709 0.271852 0.79739517 0.3074499 -0.26307166 -0.17878057 0.06886746 1.1663297 0.22975296 0.29391372 -0.1563428 -0.64009154 0.14561483 -0.09498386 -0.63891107
system.collections.arraylist.addrange() 0.23563628 0.32772285 -0.85617876 -0.41337407 0.5726476 0.63708156 0.42841405 0.95723283 -0.15703988 -1.0584958 0.41225287 -1.1096272 -0.19197226 0.46859327 0.7393745 -0.26143044 -0.03413852 -0.23224874 -0.14845912 0.06994104 0.36956936 -0.36296156 -0.4372615 0.6176803 -0.43425146 0.31570756 -1.3284534 0.20851874 0.021636736 -0.5874472 -0.34288463 -0.5951117 0.09948178 0.18786053 -0.32899758 -0.03791583 0.09154815 0.3365771 -0.017767284 -0.2613303 -0.3225068 -0.19493634 0.15057865 1.1714703 0.3593845 -0.18218349 -0.45240626 0.31205815 -0.16512908 -0.7644631
system.double.tryparse() 0.17419831 -1.5485531 0.32679006 -0.8395705 0.21741456 0.5477184 -0.24738054 0.933744 0.1770267 0.8363829 0.40929618 -0.19914366 -0.9376579 0.36516872 -0.2602612 0.6702673 0.83816046 0.699047 0.5401238 0.6760535 -0.110470705 -0.41784027 -0.04310996 0.04481498 0.0015872681 -0.5463136 -0.94615924 0.024216872 -0.020852773 0.03975944 -0.40584728 -0.34518424 0.7543155 -0.42467737 -0.1487008 0.34172282 0.9395456 -1.1410705 0.46186242 0.8048319 0.27272946 0.28582713 0.18751961 0.469803 0.04916228 0.8882307 -0.24505673 0.09698602 -0.6399186 -1.0419289
system.string.split() -0.07210644 -0.5768918 0.12524068 -0.3210445 0.29299766 0.45060095 0.3861193 1.4765263 -0.22161636 -0.42271453 0.39710912 -0.03675288 -0.37253425 0.17295866 0.27171287 0.18850164 0.8024607 0.3135739 0.04748947 0.31441015 -0.23933832 -0.41720188 0.5889675 -0.42886442 -0.26221606 0.26523182 -0.52265865 -0.84707457 0.3514472 -0.19664975 0.32455605 -0.1606953 0.71505666 0.3280966 -0.675423 -0.058902893 0.42201376 0.24779661 0.387833 0.23848286 -0.22078283 -0.25698626 0.23926999 0.84857845 0.48035562 0.81069964 -0.40030128 0.44539186 -0.49777946 -0.6731382
system.data.datatable.select() 0.3002749 -0.912952 -0.66292256 -0.6120065 -0.15492278 0.5801377 0.39149487 0.3507074 0.18916324 -0.5326663 0.60191876 -0.037890892 -0.3874296 0.73828864 0.3831548 0.083912425 1.0900723 -0.28213856 0.52688396 1.258463 -0.3504494 0.35764888 -0.039186325 -0.040969294 -0.56965053 0.13637182 -1.0663496 -0.75357455 0.2768202 -0.08554484 -0.68143433 0.48777014 0.06660039 0.44058365 -0.41145062 0.16024895 0.108302616 1.2042173 0.751212 -0.45875502 -0.02555235 -0.40035284 1.3381066 0.11226132 0.054386426 -0.1059889 -0.6300614 -0.102916986 -0.6361681 -0.79282343
system.data.datatable.columns() 1.1865696 -0.16418138 -0.6442431 -0.03890639 -0.046825726 0.89513296 0.13607894 -0.31897426 -0.188249 -0.9040066 -0.071709014 0.31275848 -0.77490914 1.4936777 0.5622931 0.7057556 0.37857917 0.611562 1.8115675 0.56174177 -0.7301501 -0.07220145 0.4001447 -0.5445426 0.450602 -0.7279102 -0.30289015 -1.4179419 0.4616663 0.046888378 -1.4048778 -0.3785084 -0.5504009 0.41360995 0.80894214 0.828972 1.1656415 1.235442 -0.39790496 0.4102444 -0.056947485 -0.29214987 2.4337885 0.6874519 0.985842 -0.17591906 0.45459992 0.13115162 -1.4745103 -2.1963446
system.io.textreader.readline() 0.19190158 -0.42206463 0.10475807 -0.1523265 0.029695675 0.38923416 0.097184405 0.83557934 -0.38786614 -0.112873964 0.119644605 0.16314037 -0.33036008 -0.114826545 0.40891457 0.561664 -0.20577694 0.54448366 0.6729839 -0.24198529 -0.20415144 -1.3797147 0.44543156 -0.17031153 -0.216384 0.35054198 -0.668983 -0.27750865 -0.020715568 0.52723885 -0.021767218 0.029743344 0.95833516 -0.3035534 -0.6762649 0.58294463 0.31785163 1.2784702 -0.21797429 -0.6071764 -0.28379828 -0.62482405 0.47649598 0.29542428 0.62201685 0.3572485 -0.23782903 0.7875669 -0.51629907 -0.123728365
system.data.datacolumn -0.094853915 -0.06474929 -0.112713076 -0.5304038 -0.15936115 0.31613374 0.24701992 0.33145675 0.13166225 -0.57465094 0.118331134 -0.5795864 -0.23623589 0.6378137 0.42842117 -0.3203412 0.4654583 0.34969246 0.7070734 1.0744674 -0.44176602 0.02471489 -0.23076877 -0.039057877 0.47982162 -0.41687688 -0.35695568 -0.84696776 0.03906502 0.13747343 -0.21564288 -0.20823559 -0.7667282 0.32921183 -0.337471 0.13602939 0.46987668 0.7918346 0.41449007 0.3456868 -0.5011295 -0.1619244 1.5765783 0.11158337 0.7288524 0.31552845 -0.4758045 0.13101251 -0.45689645 -0.62617105
system.data.sqlclient.sqlcommand.executenonquery() 0.25112697 -0.10080497 -0.20495668 -0.058274936 0.6826929 1.1605712 0.3742755 0.12461327 -0.34067768 -0.015288813 0.14980704 0.37927264 -0.10402086 0.1663797 1.5795382 -0.00014360221 0.4510011 0.4504475 -0.38454652 0.19415507 -0.36284563 0.058171168 -0.15371141 0.19249573 0.0075589158 -0.18499756 -0.5657828 -1.0542572 0.37762532 0.6982396 -1.7963367 1.264045 -0.19905542 0.68082726 -0.46024364 0.48973146 -0.257538 0.4050771 -0.7213451 0.50947624 0.55943507 -0.44256786 0.43314365 -0.21284094 0.8547298 -0.6580929 -0.5334408 0.24536459 0.0059820623 -1.2927673
system.data.sqlclient.sqlconnection.open() 0.30342087 0.13075663 0.23240554 -0.17361595 0.28825185 1.3558079 0.74248224 0.16978972 -0.17079945 -0.031889517 0.7398798 -0.08724936 0.34134215 0.13628894 1.0738933 0.38581896 0.5417652 0.583332 -0.3903486 0.05287231 -0.65873367 -0.15427852 0.02981167 -0.3789171 0.052895814 -0.35137045 -0.46048975 -1.1644754 0.34026074 0.17074215 -1.0681878 0.82665294 0.26662737 0.7439304 -0.77557653 0.2953132 -0.34127423 0.7333589 -0.51882404 0.5199921 0.42752412 0.08094644 0.79319066 -0.008627767 0.82908076 -0.27340254 -0.8230224 0.2941826 -0.67144907 -1.0106858
system.collections.generic.list.reverse() 0.40953824 -1.1712863 -0.25725874 0.47314548 -0.10938911 0.8525458 -0.49181035 0.6864484 0.5523657 -0.42198372 0.3024385 -0.32014778 0.043154694 0.4584607 -0.35983258 -0.32430458 -0.25419366 -0.13217789 -0.097818315 0.13735202 0.53727686 -0.63050306 0.19895907 -0.18110378 -0.57157826 0.36187702 -0.8234116 -0.30085126 0.70737267 -0.106575854 -0.071283326 0.28728262 0.17138389 -0.39984867 0.059550762 0.40612298 0.31209746 0.011403873 0.16179548 -0.51314014 -1.1782749 -0.4957387 0.74902105 1.1617763 -0.7667741 -0.104011185 -0.14709973 0.212304 -0.24955557 0.09556797
system.io.streamreader 0.34894758 0.35722026 -0.057225578 0.39392325 0.4734182 0.44404545 -0.20243697 0.5798225 0.036022045 0.07715537 0.009398821 0.25929052 -0.011873 -0.17936574 0.7678577 0.546515 0.4486814 -0.50385356 0.31262016 -0.2574822 -0.2969674 -0.8707078 0.1363482 -0.8802153 0.40932664 0.30326322 -0.8618753 -0.34052557 0.112137906 0.6662417 0.20523368 -0.026739812 0.21520269 0.32732123 -0.48575902 0.040766172 0.50433594 0.60833067 0.06897646 0.12706661 -0.5348811 -0.033352464 0.55859095 0.8769393 0.25972596 0.22965619 -0.4156955 1.046825 0.19028676 -0.5009069
system.string.trim() -0.16294074 -0.61246336 0.38305813 -0.6470127 0.2747064 0.569925 -0.2743284 1.3340576 -0.50091815 -0.06375963 0.5963188 0.5264564 -0.35195932 0.06264548 0.11226243 0.5525578 0.42064157 0.22260463 0.48969343 0.36581832 -0.13249521 -0.4844957 0.4703457 -0.5973065 -0.52467966 0.078007825 -0.084159575 -0.14038622 0.16268273 0.21442838 0.16873686 -0.25124732 0.44299778 0.0617327 -0.9656641 0.22576556 0.6851486 0.7765039 0.6694863 0.09105826 -0.7503492 -0.31513897 0.40259928 0.43565267 0.31946594 0.6373964 -0.49781308 0.3987921 -0.16929205 -0.72074366
system.io.textreader.read() -0.10794482 -0.79650295 0.03861237 -0.7469822 0.046613075 0.6077608 0.3210761 0.8799074 -0.64947796 -1.0299889 0.048766445 -0.35547346 -0.8115889 0.58924437 0.6607545 0.3392907 -0.6152228 0.65256023 0.3384782 0.4372541 0.31655464 -0.55414736 -0.23163466 -0.07483613 0.4297458 -0.07991173 -0.63694173 -0.71889836 -0.5315292 1.0468452 -0.097483456 0.8381613 0.4455578 0.18108843 -0.5820072 0.9480375 0.51999325 0.3059418 -0.94220084 -0.19478637 -0.73986334 -0.98225623 0.48150158 0.21452422 0.9245595 0.5253753 0.24879996 0.4660347 -0.2536392 0.34261018
system.collections.arraylist.removeat() 0.42421398 -0.276445 -0.60400265 -0.5225711 0.16879883 0.7732571 0.3893408 0.93874824 -0.34147006 -0.79597443 0.20496352 -0.43474314 -1.0084614 0.57512397 0.3308315 0.050076857 -0.019457845 -0.056200385 -0.07157705 0.3310513 0.91329265 -0.3741965 -0.69705224 0.19208056 -0.9408878 0.37752372 -1.4370172 -0.2681642 -0.34977338 -0.17663924 -0.22368571 -0.8789299 0.2137157 0.3960973 0.023427853 0.102282435 -0.0752335 0.18400426 0.12683193 -0.054447424 -0.38655454 -0.41698068 0.77589375 0.4365361 0.07266811 -0.21097232 0.36350784 0.63430357 0.068004385 -0.45768225
system.io.directory.getparent() 0.74724305 0.15387292 -0.47129434 -0.19830555 0.07338154 0.54103994 -0.7538299 0.38358065 -0.04677106 -0.0022818022 -0.04782679 -0.3433868 0.61940634 -0.3208936 0.31265193 -0.04665355 0.10828628 -0.73640823 0.81405747 -0.7140762 0.42345998 0.3545349 0.5396642 -0.6657422 -0.7443097 -0.36047998 -1.3435842 0.075956024 0.4427352 -0.26868516 -0.057674192 0.28161332 0.4118684 0.26462892 0.34553757 0.97371686 0.38189748 0.31005186 -0.14952107 -0.1273928 -0.96090907 0.11003721 0.13509516 0.6112741 0.30242676 -0.12474049 -1.0589811 0.45125884 -0.24613698 -0.9645842
system.collections.generic.list.copyto() -0.016332207 -0.9223465 0.06089567 0.040040385 0.49312997 0.69897616 0.40263125 0.68257475 -0.41384923 -0.87908876 0.70855105 -0.25832897 -0.24108428 0.027635818 0.09699766 -0.76070935 0.35144958 0.21989252 0.45137224 0.40754676 1.4021373 0.09644038 0.27526173 -0.20370807 -0.3786748 -0.22720964 -0.5067231 -0.7753679 0.57870823 -0.5532191 0.036548585 0.13433327 -0.008190446 0.088381074 0.31129757 0.25728762 0.17072427 0.5731929 -0.57198983 0.09699351 -0.35141456 0.46243447 0.34856445 1.169336 0.13317876 0.22592789 -0.098783985 0.59334254 -1.5799823 -0.5793438
system.collections.arraylist.remove() 0.3749699 0.24777885 -0.12273922 -0.26083845 0.030249937 0.87276 0.10001264 1.3304365 -0.5836146 -1.2621533 0.58131075 -0.24210633 -0.03944948 0.769559 0.31198844 0.0031844452 -0.24117023 -0.81263334 0.04911034 0.23360434 0.9995238 -0.0056910454 -0.7587399 0.19114123 -0.61463016 -0.109626 -1.2734543 0.003079715 -0.45882624 0.052770466 -0.38483977 -0.00787729 0.012211215 0.66848236 0.18985653 -0.07304038 0.5272397 -0.12718806 -0.4930316 -0.032677144 -0.74990875 0.38334465 1.0131392 0.5280962 -0.11265186 0.043381296 -0.032145962 0.90520275 0.051776312 -0.75152135
system.io.textwriter.close() 0.37604293 -0.74615973 -0.48783693 0.111287 -0.09092646 0.27900618 -0.6360417 0.52213526 -0.0036789405 -0.31272724 -0.07945919 0.66412395 0.61627436 0.14490004 0.5877675 0.654586 -0.2733487 -0.65585 0.372713 -0.4223131 -0.09141171 -0.92872167 0.03607776 -0.3913109 -0.19228499 -0.60582054 -1.3312091 0.075104214 -0.47338137 0.39691824 -0.3749513 0.5205023 0.197924 -0.08265339 -0.6196849 0.5968211 0.17981385 1.003817 -0.31680143 -0.1372446 -0.19591461 -1.3189371 0.9273044 0.43577942 -0.0088710245 -0.9673404 -0.6806489 0.061331086 -0.28882304 -1.1154994
system.data.sqlclient.sqlcommand.executereader() 0.38457826 -0.13314936 -0.055217683 0.09415139 0.3668339 1.797085 0.2711312 -0.04726783 -0.26458368 -0.2791356 1.5389918 -0.6074229 -0.27701837 0.35463488 1.0229763 0.6239134 0.57936597 0.68732846 0.023554264 0.19429567 -0.46617055 -0.24319589 0.6827863 -0.053915467 0.33357713 -0.08004282 -0.238984 -1.0027952 0.40783736 0.2162031 -1.281203 1.5474925 -0.016707612 0.8702462 -0.49547964 0.39878324 -0.07201045 1.1365641 -0.2992477 0.025589274 0.054910176 0.03322972 1.2651829 0.33867723 1.1086152 -0.26450762 -0.19218746 1.0406026 -0.58520395 -0.8663358
system.collections.generic.list.removerange() 0.24516992 -0.78133017 0.21859848 0.18647482 0.16342482 0.64882255 -0.2516881 1.1536211 -0.47225404 -0.71644586 -0.24738048 -0.16550906 -0.029275104 0.36798 0.71312255 -0.28791267 -0.23021837 -0.24112335 -0.105034225 0.17989476 0.8285036 0.13149717 -0.30943123 -0.11662181 -0.48816463 0.36816284 -0.43923974 -0.6967391 0.5581012 -0.055810906 -0.06237465 0.14412908 0.13294517 -0.51032484 0.035740793 0.6064688 0.30197284 0.32654116 -0.531837 -0.44241995 -0.7338115 -0.10092607 0.6063976 0.82928497 -0.7408057 0.47742176 0.23981684 0.41195244 -0.82668453 0.2020025
system.collections.arraylist.sort() 0.12578085 0.018006094 -0.5484629 -0.03183107 0.82963794 0.6881568 -0.039907787 1.232928 0.009364286 -0.69189423 0.40920994 -0.4327598 -0.5214623 0.5777469 0.91154474 -0.12564452 0.05081674 -0.6274625 -0.2948191 0.74640167 0.065492585 -0.49124873 -0.31068268 0.21906094 -0.9523098 0.11920878 -1.1316057 0.7782571 -0.051939964 -0.6988906 -0.31373823 -0.035740763 0.14997356 0.048971437 -0.20166965 -0.1189404 0.28853095 -0.42265156 0.5836686 -0.32844916 -0.23186389 -0.53235364 0.99100614 0.83805346 0.19134149 -0.26099738 -0.91646445 0.02238116 0.03150781 -0.4014185
system.math.truncate() 0.6866224 -1.5454 0.29313797 -0.16428235 0.45699495 0.69858557 -0.011325591 0.41777202 0.1451085 0.5226209 0.41224533 -0.3781182 -1.3851366 -0.10179972 0.8986749 0.4293099 0.32978842 -0.72184175 0.115600936 0.3181464 -0.1395708 -0.058630727 -0.24635829 -0.24272476 -0.5055589 -0.38640386 -0.30090734 0.18338329 0.369318 -0.2869732 -0.9414712 0.5388492 0.76107115 -0.88665354 -0.24113469 0.5586812 -0.06130977 -0.9588721 -0.72393286 -0.31799912 0.15522145 -0.17674756 0.6277035 0.4978038 -0.19875559 0.4564511 -0.29058155 -0.058364015 -0.2238701 -0.5634706
system.collections.generic.list.findindex() -0.11700781 -0.5350353 0.10074537 -0.34608856 0.8033357 1.0585619 -0.60727805 0.596987 -0.24171332 -0.31676507 0.030459026 0.5634816 -0.42173216 0.22303776 0.08260493 -0.14714569 -0.71930254 0.6709931 0.378954 0.15136428 1.0161141 0.011793738 0.18976577 -0.07570013 -0.9284222 0.21324241 -0.42119774 -0.6778972 1.211569 0.36640105 -0.568258 -0.6444999 0.16986111 -0.024799794 0.13599221 0.10323363 0.4280076 0.39500484 -0.32722598 -0.034307126 -1.3396405 -0.13169912 -0.20473197 0.58798295 -0.58689266 0.8333548 0.16894639 0.41385856 -0.5843408 -0.5094789
system.data.idbconnection.createcommand() 0.5169799 -0.20863819 0.32243207 0.48395213 0.45874378 1.3969718 0.6051884 -0.15761288 -0.65960896 -1.1971366 -0.1641586 0.7446253 0.0067198025 0.031880695 0.5337667 0.8747453 0.7043613 0.6454174 -0.21232018 1.1242318 -0.07776072 0.10997727 0.6116553 -0.30346853 0.011623268 0.13075708 -0.089757554 0.24208018 -1.0114408 0.43913618 -0.29443073 0.40109995 1.25184 0.45503217 -0.8991573 -0.04637588 -0.21546167 0.8342605 -0.3980431 0.2408573 -0.27706882 0.65829796 0.9118214 0.06557015 1.2239535 0.20312019 -0.057796314 1.5065562 -0.31190422 -1.0624583
system.string.tolower() 0.24908315 -1.0902292 0.061483733 -0.64942724 0.052414916 0.40385097 -0.1735108 1.123202 -0.18267775 -0.5530715 0.16019353 0.2804837 -0.5333224 0.25853378 0.03934638 0.92081934 0.25364524 -0.12256038 -0.101333894 0.36045733 -0.39953318 -0.3184534 0.014139704 -0.9701707 -0.5562389 0.063706554 -0.8618779 -0.4167815 0.40728906 -0.2651507 0.17866765 -0.55785984 0.34143323 0.4627627 -0.6907824 -0.1358196 0.42802906 0.28654736 0.6372718 0.2389555 -0.19387144 -0.7402699 -0.20225284 0.32784528 0.6550128 0.74542224 -0.09764566 0.34192535 0.10476109 -0.6696066
system.int64 0.31032124 -0.8017358 0.04914648 0.4975586 0.58573276 0.86611587 -0.08160559 0.65386677 0.03852137 0.2504993 -0.4700043 -0.4324022 -1.058097 -0.7646256 0.13872992 0.002012123 1.0785838 0.5137965 0.043693475 -0.7049015 0.28094438 0.479338 -0.0014278245 -0.4192006 0.3520537 -0.325256 -0.49676117 -0.9346613 0.13237554 0.64244604 -0.07524312 0.66937923 0.31832883 -0.37027127 -0.32481864 0.20775177 -0.34512565 0.3620254 0.6096429 0.11189179 0.48484978 -0.40191746 0.78472346 0.19151291 0.19191886 0.78196836 -0.015595487 0.5188234 0.11571764 -0.39651984
system.int64.parse() 0.6746908 -0.88037056 0.52749914 -0.22740793 -0.1143292 0.5556707 0.2621114 0.7112941 -0.053715415 0.9624396 0.20318651 0.027283717 -0.70109093 0.102410346 0.03533857 0.86238587 0.9448177 0.58713096 -0.08389163 0.22505495 0.22485553 0.039809257 -0.13311148 0.12879652 -0.40353194 0.008256011 -0.42687973 -0.84154975 -0.08162571 0.27887493 -0.5033888 0.16687526 1.0480489 0.40070173 -0.29890358 0.3941681 -0.03841125 0.36632785 0.22666688 -0.19101885 -0.22767349 -1.7962729 0.853985 0.9141643 -0.019143922 0.21776056 -0.18007676 0.6820726 0.11057452 -0.9512831
system.string.compareordinal() 0.3095004 -0.47687322 -0.10352332 -1.1292613 0.13568662 0.3095742 0.09307076 1.3010297 -0.20846966 0.012838716 0.54637486 0.007834224 -1.0354078 -0.022371598 0.26433176 0.50000113 0.082167774 -0.020363878 0.17674643 0.007194245 0.3407855 -0.33032316 -0.067520246 0.051241282 -0.42084673 -0.37915865 -0.49678788 0.055769 0.8357762 -0.3694242 -0.17168875 -0.16457178 0.02470793 -0.27267873 0.04056484 0.14955933 0.63370836 0.066410504 0.07462725 -0.4337132 -1.0601791 -0.2807653 0.11893733 0.98067915 -0.08629291 0.94709104 -0.45916247 0.03960771 -1.1844829 -0.48512706
system.io.textwriter.flush() 0.31688914 -1.2138585 -0.18508324 -0.15973853 0.14428045 -0.18688497 -0.147063 0.46927968 -0.39244586 -0.2929596 -0.1881597 0.8854774 0.26647556 0.631865 0.6952693 0.82375395 0.13631085 -0.74387246 0.42667624 -0.5416457 -0.47243038 -0.7792524 -0.12578568 -0.6397755 0.015739886 -0.5024762 -1.5663542 -0.06995363 -0.5953927 0.7123648 -0.50284207 0.7595916 0.12582138 -0.25937968 -0.30620787 0.8507837 0.7492312 0.8130893 -0.14422733 -0.45704427 -0.7930903 -1.7449385 0.7183565 0.46625495 0.9600338 -0.6722289 -0.12537931 0.046297513 0.43977836 -0.81307065
system.data.sqlclient.sqlconnection.close() 0.39801335 -0.16499977 0.441248 -0.40733278 0.27751282 1.4564099 0.4990594 0.117441356 -0.7404483 -0.54250556 0.90486616 -0.22701313 0.15128772 -0.052835155 0.8251304 -0.074661545 0.48079568 0.47091213 -0.037505243 0.25148627 0.058582753 -0.6116563 -0.7015023 0.09315873 0.14589556 -0.5964878 -0.77535707 -1.3244276 0.5467928 0.37716955 -1.2027866 1.466229 0.032147672 0.74026346 -1.3153253 0.28341553 -0.75182736 0.31247285 -0.4970607 0.48618284 0.36911586 0.101469114 0.9566346 -0.35449365 -0.09202389 -0.8695384 -0.4171914 0.19467945 -1.1262047 -1.5926063
system.char.isletterordigit() 0.584781 0.024859022 0.4862839 -0.4597528 -0.47738296 0.57926804 -0.6562766 2.0740461 -0.69614875 -1.1220587 0.050373543 -0.14347297 -1.0491964 0.038486604 0.40555587 0.38095173 -0.18469372 0.24953058 0.14710312 0.83290094 0.52572817 -0.24938254 -0.17744002 -0.976526 -0.35670257 -0.20050648 0.01744279 -0.085376576 -0.068961896 -0.12016201 -0.3601321 -0.12798494 0.016986428 0.4574422 -0.6971236 0.30062988 0.9110114 0.13002384 -0.3599774 -0.07071375 -0.43472734 -0.15839896 -0.05944338 0.24448137 0.76241225 0.86450464 -0.44111738 -0.28627327 -0.2652466 -0.26217377
system.collections.generic.ilist.removeat() 0.23002182 -0.6628547 -0.13124822 -0.8142176 -0.0785859 1.125196 0.13759977 0.31130606 -1.283215 -1.0175565 -0.07502251 0.054967478 -0.20750554 0.8230437 0.8203877 -0.26886624 0.28076577 0.023460837 -0.1897554 0.47096166 0.19656865 0.0735172 -0.13543856 -0.4216311 -0.882613 0.87567186 -0.8347283 0.43632254 0.57510185 -0.20882647 -0.4111629 -0.6498224 0.55585515 -0.5771825 -0.743082 0.20736396 0.49563795 0.638375 -0.27310112 0.27693823 -0.04750338 0.20545311 0.7193542 0.4957047 0.3911641 0.43088114 1.387509 0.44016996 -0.17699857 -0.070314944
system.data.sqlclient.sqldatareader.read() 0.7767871 -0.44345546 0.70144 0.30087465 0.25091803 1.8195931 0.21514806 0.68683684 -0.5550874 -0.49555716 1.4138494 -0.78875524 -0.10076277 -0.12517413 0.50322706 0.40604317 0.43751597 0.658096 0.5930592 0.046220776 -0.40443873 -0.40900064 0.91709995 0.023490714 -0.3925771 -0.14949062 -0.08321632 -0.5480924 0.21051313 0.5475121 -0.82798636 1.4779477 -0.24383232 0.8656727 -0.33310854 0.3981845 0.35900155 1.159327 -0.083821975 -0.07291847 -0.273325 0.03500358 1.4086872 0.22902614 0.85457575 -0.5258305 0.104160324 0.68359303 -0.454388 -0.94037116
system.char.tolower() 0.68070483 0.046913564 -0.27263132 -0.62903756 0.61025184 1.1501955 0.78709966 1.0777587 -1.0413243 0.16993462 0.6900202 0.59792393 -1.1907235 0.081866525 -0.24051622 -0.14058484 -0.56729144 0.46386984 0.007105977 1.0504386 1.067057 -0.6311209 0.3475467 -0.29695806 -0.54112995 -0.13634922 -0.10678886 0.3714222 0.064785615 -0.3100344 -1.4611357 0.13172238 0.52989024 0.66141236 -0.55344117 -0.11258331 0.5102107 0.15545572 -0.7012653 -0.2183069 -0.7537407 -0.048199292 1.3018178 -0.79900753 1.5243741 0.9550203 -0.36147526 -0.3634115 -0.35051417 -0.33955777
system.collections.generic.list.getrange() 0.49259797 -0.59843314 0.003799883 0.33955976 0.04218756 0.59005004 0.30163547 0.8994477 -0.43897325 -0.78895354 0.03987604 -0.6890278 -0.51039916 0.14622112 0.15822344 -0.13525121 -0.17205901 -0.37320608 0.07934934 -0.026732966 0.9263256 0.12879449 0.4043516 -0.062252704 -0.43940654 0.32269418 -0.29123956 -1.1254731 1.1624027 -0.31984326 0.0020071627 0.32537726 0.6657646 -0.01551183 0.46877638 0.9564418 -0.13502474 -0.016536707 0.19181217 -0.13262872 -0.540058 0.111690305 0.20590115 1.602611 -0.25696614 0.9040706 0.118920326 0.78042525 -1.2800919 -0.4923057
system.collections.arraylist.copyto() 0.026129317 0.2964139 -0.3666283 -0.184829 0.464965 0.45709145 0.4830382 1.0507569 -0.45599222 -1.0941902 0.3149669 -0.79833674 -0.90253675 0.59893113 0.38947284 -0.05257427 -0.073864534 -0.44331402 0.07443406 0.7792118 0.29658926 -0.17379685 -0.34896716 -0.07555825 -0.43781772 -0.49898422 -1.4217509 0.1272416 0.20382847 -0.53727365 0.32433617 0.21717231 0.036418207 0.37022603 -0.28452122 -0.21724787 -0.04721487 0.13019693 -0.26531157 0.59309506 -0.303016 -0.4243036 0.51433927 0.98051906 0.39356413 -0.56406885 -0.14721334 1.0070488 -0.65840805 -0.870912
system.data.idatarecord.getordinal() 0.9073215 -0.6952624 1.6439159 0.72522664 0.8210821 1.6068436 -0.2701463 0.2741289 0.4234099 -0.32170203 -0.17483446 -0.82654256 -0.3928066 -0.7012371 0.24248753 1.5012813 0.98503375 0.63591117 0.8009846 -0.66631407 0.172199 0.84710306 1.1577133 0.08154945 -1.0880343 -0.6233993 -0.69643784 -1.976348 1.7010614 -0.5578211 -0.07256992 0.74582756 -0.7220785 -1.5037904 0.18077269 1.4755768 0.7900281 0.5646605 -0.20274837 1.4586401 -0.01572159 -1.2316968 1.687213 0.5140088 1.3128288 0.34480563 -1.2401491 -1.4866333 1.3122025 -2.1547902
system.collections.generic.ilist.indexof() 0.26828188 -0.9117004 0.23388875 -0.3263364 -0.37184405 1.3495784 0.44909197 -0.051237587 -0.9003098 -0.6494438 -0.09825212 0.12881903 -0.09345704 0.6231104 0.3948666 0.32397386 0.4396319 -0.028890459 -0.35423815 0.749127 0.28876257 0.12730344 0.026693752 -0.2231924 -0.89734143 1.1404525 -0.25091907 -0.012658917 1.3969709 0.12840743 -0.66447246 -0.23132835 0.21611553 -0.35535532 -0.54128337 0.25539893 -0.07983519 0.8076871 -0.6194745 -0.42888093 0.5326889 -0.53749 1.3056167 0.477222 0.07144865 0.24572527 0.558222 0.025644675 -0.6075519 -0.48486552
system.collections.generic.linkedlist.remove() -0.44810033 -0.88164395 -0.29614246 -0.8889719 0.23701063 1.1127511 -0.20478539 0.22445327 -0.19389123 -0.66716945 0.21415272 0.64747477 -0.37689903 0.8783728 -0.1403584 0.64737993 -0.22431014 0.22651826 -0.07991514 -0.10198465 1.2276874 -1.6100059 -0.5011195 -0.22038181 -0.9691451 0.21162923 -0.6726904 0.05147273 0.117157035 0.35537952 -0.70344627 -0.038669106 0.021304213 -0.74986875 0.009272823 -0.07575436 0.87444407 0.9965249 -0.37048838 0.17107807 -0.33709842 1.0356025 0.58392584 0.8291401 0.22714126 0.21401979 1.0899911 0.19986619 0.43796545 -0.15501405
system.string.endswith() 0.8067099 -0.4503681 0.3261779 -0.77560514 0.2128151 0.15736958 -0.26875436 1.3968784 -0.52909935 -0.54362065 0.061093718 0.16094436 -0.07286566 -0.035042282 0.23775001 0.42091876 0.6707354 0.11365842 0.10710753 0.1589631 0.23164852 -0.020543106 0.51664317 -0.9279204 -0.04919512 -0.25739932 -0.65033084 -0.05894735 0.26874965 -0.4260982 0.11077905 -0.60524 0.772844 0.34023547 -0.92703366 0.25803423 -0.3050445 -0.07300655 0.17119955 0.34384355 -0.2564652 -0.20897147 0.050770126 0.44151476 0.51505345 0.6987586 -0.78722143 0.32094604 -0.09228284 -0.88781005
system.collections.generic.list.asreadonly() -0.29856715 -0.8356107 0.093159996 0.20284751 0.6889034 1.5879567 -0.07819889 0.69943213 0.20839874 -0.87003905 0.091475084 0.005986378 -0.04861807 -0.36565208 0.3593511 -0.25430986 0.4631045 0.91055137 0.21176912 -0.2635024 0.52936196 -0.78277695 -0.13794228 0.48079684 0.25381756 0.5878036 -0.8178714 -0.80304074 1.0672971 -0.9119146 -0.43037912 0.242268 -0.53288937 0.0351806 0.51910245 0.75801295 0.89786965 0.40863433 -0.26214972 -0.8187388 -0.3198036 0.5464018 0.46938488 0.75760335 -0.52587736 0.26527736 -0.0296016 -0.29978305 -0.97011507 -0.7223772
system.collections.generic.dictionary.containsvalue() 0.4874423 -0.90424013 0.255523 -0.37529713 0.74766093 0.63780284 -0.3338913 0.27363634 0.36300677 0.0942597 0.15025409 -0.108790785 -0.3460341 0.3693263 0.35357124 0.49501255 0.4722945 0.22058778 0.107832335 0.25773728 0.6285315 -0.7154576 -0.33649498 -1.1356108 -0.29951778 0.41928914 -0.98309696 -0.4374318 -0.18028535 -0.58298284 -1.0229503 0.7383658 -0.43153483 0.13232476 -0.83471435 -0.5925152 -0.5907158 1.095291 0.035384227 0.262301 -0.30727744 1.139515 0.88756514 0.55990106 0.60799766 -0.84607553 0.92434585 -0.78310573 -0.2029272 -0.95082885
system.char.isletter() 0.43503585 0.15044758 0.58715737 -0.32768717 -0.13783918 0.7999722 -0.3689441 1.7002547 -1.0381409 -0.26337385 0.17813621 -0.06850979 -1.2295384 0.20014277 0.49754903 0.43565056 -0.20104495 0.80521315 0.011033944 0.35518748 0.36172417 0.05078375 -0.31861952 -0.84786934 -0.55927944 -0.06436058 -0.19948094 -0.26804104 0.16552949 -0.07643617 -0.513969 -0.24887797 0.25188679 0.22903965 -0.7358995 0.24031375 1.0033393 -0.052538287 -0.0768645 -0.06609585 -0.5653638 -0.14389807 0.48015934 -0.3064638 0.68044484 0.80718863 -0.6063217 -0.36102116 -0.12006625 -0.36722904
system.collections.arraylist.insert() 0.078227215 -0.34321976 -0.66996044 -0.44609573 -0.0971357 0.13469711 0.46301836 1.0893668 -0.4471178 -0.6444941 0.50263697 -0.4628963 -1.1090537 0.59949493 0.41819334 0.34023026 -0.04504964 -0.22922659 0.12300909 0.50422597 1.1376625 -0.58380264 -0.74923486 0.46077543 -0.29922578 -0.31152496 -1.341395 0.21332571 -0.7313223 -0.18569762 0.10148676 -0.34072256 0.5750274 0.48076335 0.18932064 0.049209725 0.47192523 -0.3142638 0.2745603 0.015210806 -0.57652706 -0.19331153 0.66210806 0.8415332 0.18687664 0.45638037 -0.35278144 0.6704717 0.16609971 -0.8051498
system.collections.arraylist.getenumerator() 0.45234355 0.0044944086 -0.38095176 0.10618275 -0.50337344 0.81010276 -0.19762571 0.73648536 0.07128724 -1.537571 0.54476887 -1.0168033 0.09827839 0.018458987 1.6674179 -0.27315953 -0.2616382 0.23017913 0.3193909 0.39154288 0.8579558 -0.17094629 0.08271068 0.20530403 -0.4296298 0.36677665 -1.1953087 0.6383496 -0.841696 -0.1355209 0.26642796 0.114579454 0.15557669 -0.025335886 -0.5242366 0.1348289 0.51339924 0.30377474 1.0021129 0.15173191 -0.5635101 -0.48709753 1.0597146 0.7689885 0.6924403 0.062940545 0.5973051 0.77901536 0.24757701 -0.735421
system.data.sqlclient.sqlparametercollection.add() 0.40547928 -0.6629704 0.7528239 -0.28581497 1.788644 2.324525 0.30500257 -1.4890043 0.32422665 -0.7219722 -0.46115452 0.31617406 1.5137553 -0.20494254 0.24937573 0.69692653 -0.7490592 0.08769308 -0.8261589 0.23447756 -0.65777725 0.3327134 1.0396925 0.13679104 0.040415965 2.090062 -0.9258641 -0.22369805 0.6392107 0.4081865 -1.5094332 2.3390453 0.29373175 -0.24042097 -0.27139893 1.2480044 -0.030988721 0.61357796 -0.3204517 0.26437593 -0.27597123 -1.0566576 0.8536604 0.25322136 1.370755 -0.9806626 -0.68622506 -0.050798588 -0.9459762 -0.36718464
system.int64.tryparse() 0.14948322 -1.0434333 0.55573577 -0.893111 0.5798525 0.3077542 -0.0821806 0.594351 -0.015141995 0.98939997 -0.13539521 -0.306292 -0.81122017 -0.1011244 -0.10505975 0.88782865 0.7639644 0.8512119 0.40506265 -0.022118889 -0.18917264 -0.097905524 -0.1265207 -0.83759326 -0.39764357 -0.27488706 -0.82176703 -0.53321165 -0.5612173 0.56881195 -1.055073 0.008757295 0.7728737 -0.45821118 0.35308662 -0.39839125 1.0258565 0.20277496 -0.6484453 0.45008704 0.05861536 -0.8972823 0.7246004 0.47402495 0.2407378 0.7164771 -0.48964602 0.11002858 -0.49311236 -0.41815275
system.char.toupper() 0.83238 -0.058210053 0.3792377 0.01661153 0.33930072 0.9168653 -0.33750996 1.22281 -0.8810387 -0.07463351 -0.3729017 -0.086171314 -0.83603805 0.032908246 0.20060407 0.09809803 -0.30954015 0.701583 -0.32335952 0.7849298 0.33880207 0.14626415 0.5971358 -0.8910927 -0.013545976 0.22755058 -0.03236356 0.17988387 0.5751752 -0.9809746 -0.96398443 0.097555 0.5641705 0.2213664 -0.26942843 -0.016516786 0.34584144 0.4543713 -0.20821665 -0.09782597 -0.5685054 -0.3023809 0.9094798 -0.44901267 1.447287 1.0647985 -1.1078285 -0.18160605 -0.43157843 -0.12154397
system.collections.generic.dictionary.getenumerator() 0.08099023 -0.38518488 -0.00521059 0.13105015 -0.28960195 0.6836039 -0.21966338 0.9340844 -0.13668312 -0.5972056 0.07970431 -0.118730426 -0.43708944 -0.3311162 0.26153153 0.8809551 -0.23617846 0.39467025 0.17477512 0.9033832 0.08523374 -1.1084368 0.131181 -0.7392376 -1.174705 1.0814605 -1.4354894 -0.95796686 -0.41016805 -0.027497081 -0.24363948 0.7585318 0.47838247 0.216829 0.40336555 0.3302572 0.49143794 0.66548 0.5284724 -0.26380906 -0.106451906 0.9408456 1.265816 0.41917264 0.36972973 0.1466353 0.60256577 0.5485393 -0.21821041 0.05642279
system.data.sqlclient.sqldatareader.close() 0.96772283 -0.18766053 0.2949807 -0.10439938 0.18522595 1.9102288 0.23639011 1.0193164 -0.49975714 -0.7464419 1.7392775 -0.8081859 -0.11374242 -0.4342629 0.5959112 0.15745343 0.3741031 0.9223589 0.68075925 0.25360307 -0.024786243 -0.3313623 0.57306755 0.5262684 -0.24455312 0.1463297 -0.37274802 -0.6388242 0.10896771 0.50859314 -1.2837082 1.1952726 -0.26675814 0.83904654 -0.60983557 0.22643767 0.5031512 0.8589352 -0.54519963 0.063284546 0.049364388 -0.61290973 1.6198579 -0.26034665 0.14742976 -0.72408247 -0.18974365 0.28761733 -0.7457582 -1.31041
system.io.directory.enumeratedirectories() 0.47804558 0.07772464 -0.71661824 -0.38369423 0.19996037 0.7721598 -0.7933391 0.4217215 -0.28958917 0.19198033 0.23531805 -0.35880235 0.6890017 -0.671495 0.85804135 0.32344314 0.38791034 -0.057978477 0.22928949 -0.58178014 0.85416013 0.055389512 0.67952263 -0.013936393 -1.5188483 0.017574353 -1.2021483 -0.8547954 1.2175213 0.019313129 -0.51677644 -0.110246524 0.06806364 0.26057076 0.3796597 1.3166922 0.22053601 0.9269166 -0.22149974 -0.15935692 -0.5293014 0.56015766 -0.46553215 0.52875024 0.1120648 0.3397783 0.088720106 -0.1362617 -0.7932011 -1.1463746
system.data.common.utils.boolean.vertex 0.25493324 -0.656801 -0.41218957 -0.35828924 0.28860423 0.21713105 -0.7463103 0.34661236 0.528156 -0.50588006 -0.27860674 -0.57114416 -0.24136303 -0.0051394594 0.14538842 -0.3529232 0.1256112 -0.048480768 0.98913103 0.18395165 -0.0015130247 -0.696993 0.27188045 -0.46244946 -0.3887897 -0.05351416 -0.15559526 -0.32475296 -0.29029974 0.2803096 -0.2451093 0.17660664 0.51142156 0.041478015 0.12474955 0.561461 0.6092456 0.3073326 0.50521606 0.09272012 -0.015277736 0.16061474 0.8778294 0.44849658 0.0047494876 0.4571382 -0.347564 0.16955501 -0.064204276 0.1505291
system.collections.generic.list.findall() -0.09661743 -0.22676475 -0.39023614 -0.017697813 -0.4935881 0.93435526 -0.16509457 0.4847523 -0.1299903 -0.6110502 0.01260781 0.18979307 0.117073886 0.041294165 -0.1212654 0.10272421 0.014464928 0.22729793 -0.58215326 0.5391499 0.4651103 -0.064583555 -0.24281022 -0.37940785 -0.13271156 0.4825083 -0.62508833 -0.80245763 0.91461134 0.034307543 -0.99307686 -0.23189119 0.5641782 0.13913272 0.27894318 0.9852496 -0.47449896 0.34049872 0.3162748 -0.38650474 -1.3977886 0.087726526 0.6007855 0.910687 -0.3424117 0.41002405 -0.51350826 -0.5740881 0.026635151 -0.0078826705
system.string.lastindexof() 0.405128 -0.7940601 6.6232315e-05 -0.38173947 0.38868874 0.5355168 -0.30986664 1.0540737 -0.38936558 -0.5575673 0.7902251 0.56075704 -0.6651707 0.16498035 0.048171893 0.9599638 0.2341704 -0.59496456 0.48216233 -0.03290093 0.122191936 -0.059433684 0.7729963 -0.78181314 -0.1968754 -0.10471642 -0.60859483 -0.2096105 0.06012307 -0.14104708 0.30487788 0.25240454 0.111941874 0.08344031 -1.0604465 0.21317881 -0.0045538493 0.21180896 -0.10068472 0.6124952 -0.38014743 -0.76035607 0.582 0.23246522 0.9669925 1.1641617 -0.7385284 1.34738 -0.6439434 -0.4362946
system.data.common.dbcommand.executereader() -6.484083e-05 -0.51562417 0.47474334 0.19173066 0.26636425 1.4070245 0.56388706 0.6652815 0.07294995 -0.20347472 -0.15498962 -0.2701569 -0.123851925 -0.13957366 0.5232024 0.797666 0.41919702 0.5296728 0.63432616 1.4905635 -0.48601654 -0.0690882 0.3707344 0.056534767 0.44792518 0.120256856 -1.3326317 -0.7517174 0.50900054 -0.30691287 -0.8481661 1.2064894 -0.32473618 0.21609122 0.80686504 0.69305634 0.51754475 0.9168562 0.29178116 -1.0199383 -0.46878114 -0.78558874 0.74697626 -0.19799271 0.026291888 -0.42191592 0.08126394 1.0867008 -0.4292825 -0.9113269
system.collections.generic.hashset.unionwith() 0.22786687 -0.16540274 0.054874368 0.06776882 0.2107722 0.85569733 -0.4500916 0.8648849 -0.024560729 -0.4356371 0.3772852 0.09665676 -0.3254169 -0.6743814 0.119934335 0.2566578 -0.12368961 -0.052885566 -0.884048 0.7178144 1.0972903 -0.8197885 -0.28304103 -0.60281396 -0.35913435 0.9525334 -1.3308063 0.7041022 1.173441 -0.26539636 0.32399258 0.2709232 0.6070498 -0.6213357 0.3883232 0.65121174 0.3307854 0.8989403 -0.26175377 -0.44349328 -0.4166378 0.5112342 -0.041559216 0.80742025 0.18773575 0.27072084 -0.15086621 -0.40387422 -0.2799257 -0.39786658
system.data.datatable.acceptchanges() 1.0337367 -0.98397666 0.061839107 -0.44769636 -0.75952786 0.2783801 0.42766532 -0.56489635 0.19891313 -0.20181486 0.7117418 -0.37462097 -1.0459728 0.85498315 0.117219865 -0.07017242 0.7245562 0.64005494 0.5629778 0.68427914 -0.19594944 -0.24781121 -0.48032632 -0.30230635 0.66204554 -0.1574735 -1.0868956 -1.6965537 -0.4524534 0.33643454 -1.1185147 0.18615422 -0.27867955 0.5872514 -0.14762054 0.23953255 0.8565861 0.9211102 0.20722058 -0.4823835 0.1499305 0.22769941 1.4789612 0.5384324 0.40169698 0.29952168 -0.5496752 0.38531578 -0.17732403 -1.454861
system.io.directory.move() 0.5917336 -0.14410979 -1.1393744 -0.6737037 -0.6619191 0.47713628 -0.63304126 1.0986757 0.31561393 0.4456256 0.1808928 0.3183407 0.7006734 -0.21518554 1.4804456 -0.5195246 0.20650457 -0.2753417 0.49102476 -0.55389845 0.9768192 0.28004792 0.22607961 0.24760722 -1.2148991 -0.5722937 -1.1313171 -0.592187 0.25351393 -0.23076154 -0.27496254 -0.08575486 -0.2012512 0.61766005 -0.975013 1.2495004 0.22328766 0.776724 -0.049765356 0.5106466 -0.07996912 -0.23546576 0.2505001 0.064581126 0.33227295 -0.13629626 -0.23966856 -0.06293415 0.016040156 -1.6184607
system.collections.generic.list.binarysearch() 0.084954284 -0.112384856 0.15361035 -1.1609764 0.68877244 0.7071545 -0.4728498 0.56871027 -0.40429372 0.18630597 0.22384208 0.06179264 -0.7730701 0.7772829 0.5359835 -0.050724935 -0.7323245 -0.012518585 0.33008617 -0.024348473 1.0316749 -0.18162385 0.23960602 -1.0506028 -1.1373856 -0.1546109 -0.55789286 -0.51686615 0.90298635 -0.80071986 -0.53448045 -0.4227474 0.022822846 -0.21524625 0.05952409 0.5436406 0.0823513 0.497177 -0.2702572 -0.58894974 -0.87862843 -0.2711701 0.6753759 0.6727543 -0.62109137 0.96051556 0.2528019 0.73550093 -0.6738293 -0.03854925
system.data.objects.span -0.29569337 0.08847238 -0.050163537 0.07261445 -0.27641758 0.88904023 -0.46894377 -0.1217305 0.23084651 0.15353554 -0.31838062 -0.005080965 -0.67899716 0.63342214 1.2678454 0.25437713 0.14530385 0.20495576 0.07985468 0.4096608 0.34018216 -0.28816047 -0.08183326 -0.22562277 -0.3795287 0.112086914 0.19200231 -0.32609442 0.37532157 -0.4973849 -0.12428685 0.08261604 0.40138543 -0.37769827 0.3388077 0.31746298 1.061509 0.59248984 -0.3595983 0.28448647 0.038171582 -0.08917559 0.23583622 0.41202402 0.43342727 0.37565428 0.18701573 0.24173822 -0.28598228 0.22676808
system.int16.parse() 0.84465706 0.105730146 0.45479044 -0.29618075 0.37915665 1.0037831 -0.18207447 1.2701089 -0.39290914 0.08610879 0.04273832 -0.91287285 -1.0489205 0.27122578 0.011200392 0.3724377 1.3795842 1.0162412 0.08160844 0.17187037 -0.6540825 -0.49495244 0.13620335 0.3662056 -0.20402707 -1.5501928 0.9697253 -0.7216994 0.0071673803 -0.08437822 -1.325634 0.08135411 1.0281452 0.02186958 -0.17182796 0.6471622 0.51940686 -0.18251579 0.62715364 0.78746814 -1.1378106 -1.9107072 0.82615614 0.94848764 0.34076753 0.08569948 0.03787977 -0.29829615 -0.6703664 -1.6206992
system.double.isinfinity() 0.43352717 -1.0046794 0.026081095 -0.7881219 -0.22612092 0.28224966 -0.69567215 0.7289149 -0.22831585 0.05447717 0.26638934 -0.7144281 -0.4259242 0.22970313 0.9096676 0.33756617 1.101708 -0.10516212 0.3964392 0.7871321 0.9296717 -0.13818777 -1.154046 -0.71971345 -0.097183175 -0.49539483 -0.018695865 -0.105405696 0.04391085 0.13958856 -0.5823562 -0.2862256 0.73897463 -0.45359614 -0.197913 1.4123927 0.18380211 -1.2892898 -0.39527214 0.33651552 0.5602362 -0.17083718 0.18226627 1.3088083 0.0397255 0.7808031 0.4485538 -0.08134547 0.07185653 -0.974021
system.collections.generic.ilist.insert() 0.2986253 -0.6681733 0.4548957 -1.4860425 -0.44093627 1.1478131 0.37689304 0.31331605 -1.1574148 -0.978949 -0.30904454 0.57502216 -0.30463204 0.8795042 1.0958304 -0.053441744 0.52613366 -0.17707486 -0.22106212 0.8311749 -0.003561928 -0.088844664 -0.7462019 -0.074208185 -0.17602181 0.84362674 -1.0953209 0.48749492 0.764977 0.10116437 -0.37824696 -0.2084499 -0.08890674 -0.4172494 -0.42156443 0.63636076 0.3928609 0.6382212 -0.9177277 0.24267974 0.35691366 0.019603524 1.159313 0.025747256 0.41211596 0.68857837 1.1196274 0.22042975 -0.30227724 -0.20140585
system.io.textreader.close() 0.21690926 -0.3699747 0.18289058 -0.026706273 0.48037335 0.43732557 -0.25103018 0.47985438 -0.5630383 -0.348551 0.5622177 0.8091088 0.48031354 -0.11822449 -0.14772238 -0.2676058 -0.08314943 -0.2670674 0.64885706 -0.57548696 0.18802229 -1.142849 0.1966563 -0.52701217 0.18466094 -0.13993149 -1.5592186 -0.517029 -0.079959385 0.5427074 0.21450749 0.09627592 1.0443553 0.55145985 -0.6886337 0.908617 0.16436434 1.1468682 -0.42170233 -0.29325008 -0.14918359 -0.889592 0.8964206 0.10825185 0.4406987 -0.014146865 0.0075392337 0.515616 -0.34644777 -0.6129016
system.data.idbcommand.executereader() 0.38624758 -0.113397084 0.09465358 0.44158888 -0.27189744 1.647551 0.6156585 0.22008623 -0.0682314 -0.60578597 -0.061045524 0.541669 0.111557394 0.028347058 0.47913384 0.6470447 0.9138514 0.84339035 -0.23731014 1.0250233 -0.03958715 0.06430367 0.002110457 0.03367452 -0.2242592 0.09932111 -0.12598021 0.11242573 -0.1555647 0.2700589 -1.1047466 0.7801634 0.7395554 0.535549 -0.343355 0.03639467 0.10888347 0.5424324 0.030460773 -0.49769062 0.13693833 -0.059958484 1.1613597 0.40940452 1.0001796 0.14480026 0.30878285 1.2610418 0.028275609 -0.7502497
system.data.datarow.isnull() 0.020795263 0.066307016 0.99177104 -0.7712382 0.6102003 1.3005764 0.06072125 0.21035926 0.65650934 -0.864801 0.9813329 -1.1978956 -1.6055192 -0.20455709 1.068344 -0.48064438 1.0760833 0.4809539 -0.23744154 1.8593291 -0.29566512 -0.53565043 0.3874135 0.17242715 0.63003415 -0.5108528 -0.16762355 -1.7625706 -0.7731905 -0.35239574 -1.2716031 -0.7790523 -0.51199484 -0.072397664 -1.186083 -0.22531448 0.68470573 0.8154352 0.49234885 0.67945075 -0.04093776 -0.28841305 1.3201731 0.23362023 0.2758158 -0.6555758 -0.20537208 -1.3689935 0.06072389 -0.97400755
system.collections.generic.list.insertrange() -0.03095579 -0.99934185 -0.22909875 0.2268671 0.37300223 0.90753514 -0.4412617 0.1679813 -0.35332316 -0.75481826 -0.24850856 -0.18077177 0.36161733 0.6659109 0.4599717 -0.64759636 -0.83382756 -0.022807933 -0.55647326 0.06773725 1.5519971 -0.15960477 0.063475244 0.15611567 -0.40139 0.49446976 -0.5084557 -0.8508458 0.91633004 -0.74738795 -0.09576558 -0.19041233 0.4223109 -0.4516693 0.08339287 1.2247248 0.3274847 0.3237925 -0.5906761 0.07110899 -1.0551517 -0.4622261 0.36322403 1.7017792 -0.5323162 0.37752277 -0.14342238 0.48066124 -1.0205317 -0.009289517
system.io.textreader.readtoend() 0.42035344 -0.054578096 0.006328423 -0.26376 0.41385877 0.13850002 -0.2737829 0.16654344 -0.41867787 0.22748643 0.033837426 0.47979397 -0.1547152 -0.016995337 0.10457532 -0.018313402 0.12587525 0.13524352 0.27494603 -0.10715513 -0.26558018 -1.477007 0.23527558 -0.6034324 -0.19101131 0.0006899389 -1.1759182 -0.8498229 0.32767498 0.9164405 -0.11678955 -0.37181053 0.8164917 0.5441069 -0.73171496 0.8676084 0.11193189 1.1078036 -0.46440566 -0.35711622 -0.10466904 -0.6531244 0.09186001 0.92589307 1.0541582 0.100749835 0.023777848 0.7030695 -0.002192072 -0.50446665
system.data.sqlclient.sqlparameter 0.07557701 -0.090940975 0.440457 -0.12764378 0.34435248 1.3286095 0.68145734 0.110949025 -0.30022612 -0.38875243 0.40992242 -0.44798023 0.28569543 -0.05044032 0.8258318 0.29468703 0.52084064 0.16614135 -0.32023445 0.5969526 -0.28743494 0.07319282 -0.13279076 -0.098009214 -0.02381802 0.024654118 0.2436461 -0.8608753 0.44935417 0.2858442 -0.817887 1.114224 -0.38059223 0.4909566 -0.3999238 -0.16161835 -0.077148646 0.76166344 -0.06659699 0.007760171 0.13762651 -0.6495708 0.8823814 0.13625152 0.6925294 -0.20469597 -0.3412642 0.29911995 -0.28641158 -0.65058535
system.io.streamreader.read() 0.5990276 0.0660795 0.29926798 -0.48531738 -0.14869021 0.6749734 -0.21777576 1.26155 0.022932688 -0.41479304 0.47191557 0.29440358 -1.0710258 -0.31065977 0.88429064 0.086642146 -0.5655968 -0.20576046 0.44402605 0.09633047 -0.5931527 -0.9221056 0.14134988 -1.3469146 0.28415224 0.051904064 -0.7483857 -0.8625803 -0.20664583 0.7775195 0.28143233 0.4171415 0.005916996 0.32750472 -0.29638535 0.11913276 1.0010724 0.44870964 -0.8527514 0.024583802 -0.7001125 -0.23730807 0.6801255 0.011816177 0.8819637 0.16199279 -0.29672992 0.67037165 0.043217238 -0.51747394
system.data.common.dbcommand -0.26329106 -0.29280713 0.5453561 -0.10807222 -0.13781485 1.2227128 0.18556836 0.1409222 -0.077204466 -0.32357123 0.13028423 0.18609379 0.29471037 -0.1785053 0.6417322 0.23701811 0.6734457 0.28303134 0.43342024 0.8472404 -0.5279376 0.315342 -0.18705212 -0.026380401 0.115921624 0.5993607 -0.6515034 -0.49417177 0.27978566 0.15959127 -0.54432786 0.9065405 0.08823895 0.2788903 -0.30420756 0.40078807 0.50993675 0.5949673 0.41799623 -0.7313024 -0.29679295 -0.38387182 1.0051935 -0.0618871 0.4541526 -0.15169403 -0.11094536 0.23557366 -0.02195235 -0.29388407
system.collections.generic.linkedlist.addfirst() -0.7240706 -0.62357426 -0.48328042 -0.31301704 0.15046996 0.7501791 0.25663114 0.3365347 -0.24012744 -0.5350007 -0.06428191 0.539427 -0.74535596 1.026328 -0.21089523 0.68376523 -0.33928362 -0.26089737 -0.43055537 0.2139554 1.6474694 -1.5904453 -0.5372786 -0.6601376 -1.0415118 0.6337185 -1.1564119 0.25437865 0.42116982 0.26013178 -0.5126435 -0.036282968 -0.11198375 -0.70553046 -0.09763117 0.36852503 0.6893237 0.60976326 -0.34183177 0.5679697 -0.34287295 0.5308598 0.38727245 0.53730494 0.58299196 0.21389697 0.6368286 0.29133132 1.0763452 0.115711175
system.data.oledb.oledbconnection.close() 0.63368684 -0.5154298 -0.92540425 0.07544289 -0.6381567 1.3127904 0.09336 0.35436174 -0.4240026 -1.2082813 0.19417894 -0.08216022 -0.6552175 -0.69780415 1.0949136 0.5581613 0.6433781 0.44409764 0.86378014 0.48013324 -0.26278633 0.0508157 -0.17324011 0.14952953 -0.26716852 0.12707365 -1.168051 -1.2178286 -0.09937353 -0.021144789 -0.85994244 -0.61208516 0.15450875 0.09881683 0.3813995 0.54866123 0.78129536 1.2202183 0.77517563 0.19633624 -0.63322836 -1.1992402 0.08773633 -0.3381698 -0.983501 -0.9406636 -0.5524078 -0.8858884 -0.6328411 -2.6060812
system.collections.arraylist.indexof() 0.4105875 0.40339252 -0.4573802 -0.55874604 0.09789732 0.5519937 0.48218602 1.1907688 -0.40624598 -0.67957294 0.17409551 -0.26493558 -0.5114676 0.25602427 0.90134287 0.089044616 -0.06161169 -0.51890934 -0.094971776 0.69934165 0.32912317 -0.10925721 -0.60266507 -0.14174877 -0.5410343 0.17646614 -1.4255332 0.06452337 -0.17547831 -0.059040524 -0.59774363 -0.62528414 -0.24167942 0.3790774 -0.39414397 -0.12251811 -0.20661975 -0.20748071 0.3973856 -0.533439 -0.20179111 -0.3703917 0.87220037 0.22098704 0.102826186 0.34992123 0.12277624 0.45164415 0.22655806 -0.8908646
system.io.textreader.peek() 0.0023522293 -0.83157134 0.014845739 -0.6823988 0.17161575 0.53480285 0.051443573 1.1124456 -0.7383149 -1.0210456 0.6533786 -0.5327213 -0.824311 0.062879905 0.5139201 0.8213052 -0.8775945 1.0618539 0.38607332 0.2395607 0.16781896 -0.92981946 0.21677974 -0.2516204 0.5173557 0.055820566 -0.1316722 -1.0931125 -0.1435729 0.7912602 -0.06307688 0.57313496 0.9654122 0.42710468 -0.64370036 1.1816503 0.75834537 0.41355005 -0.79561484 -0.28576347 -1.0106256 -0.6631459 0.28655282 0.60010326 1.4546329 0.8357632 0.36733803 0.09590342 0.10705427 -0.05741807
system.collections.generic.list.exists() 0.36734387 -0.15745127 -0.15586385 -0.62382865 -0.38612002 1.1019412 -0.5979556 1.0476655 0.20567845 -0.3297983 -0.06441633 0.15478146 0.28899708 -0.35537273 -0.09178821 -0.11658665 -0.06438767 0.9302387 0.057495378 -0.03618839 0.09022977 -0.80726194 -0.036284346 -0.3643485 -0.53967893 0.4860269 -0.75760084 -0.37428084 0.7070826 -0.3580168 -0.9336875 -0.121612854 0.16910918 0.2926822 0.19877851 0.73790395 0.06940699 -0.4365526 0.20480943 -0.15402861 -0.93522215 0.36988655 0.26851818 0.75189406 -0.7053408 0.66416883 0.107770465 -0.014265689 -0.082226954 -0.64213836
system.string.tochararray() 0.03592692 -0.8067173 0.74110836 -0.039991293 0.259353 0.17994343 0.020459903 1.5219327 0.073095545 -0.83319265 -0.3608578 -0.26468056 -0.95079106 -0.22459139 0.42680782 0.53906316 0.07533214 0.39310074 -0.09380191 0.3048602 0.49603885 -0.36748707 -0.17111155 -0.5657583 -0.16691482 0.24222024 -0.26901004 -0.64643914 0.16811486 0.0176308 0.23180516 -0.42777753 0.4199404 0.3797182 -0.70025915 -0.03459289 0.035591308 0.43110856 0.8260497 0.6367609 -0.03662073 -0.8127219 0.47726393 0.34059733 1.0042535 0.83071524 -0.7580847 0.19372287 0.10833859 -0.07725164
system.string.toupper() -0.31981108 -0.87812465 -0.28037474 -0.4358283 0.03368175 0.75678116 0.26761064 1.3629373 -0.8684476 -0.9230643 0.6221884 -0.24010077 -0.9570875 0.34992757 -0.0057656537 0.6227055 0.62864363 -0.11556511 0.0026040487 -0.5412256 0.18655878 -0.14130533 0.31958064 -0.45001465 -0.04309128 0.16299091 -0.8043931 -0.7090229 0.0008138974 -0.8476697 0.16677363 0.7356245 0.47023767 -0.051037192 -0.92399573 0.17685305 0.10828888 0.11439531 0.76442605 0.40623727 -0.7509626 -1.0468405 0.12342202 0.5875692 0.53209 0.494608 -0.11975118 0.03812151 0.31498206 -0.98500776
system.data.mapping.update.internal.graph 0.360763 -0.2779102 -0.5518445 0.41984317 -0.07619189 0.6818491 -0.3614992 0.23924208 -0.28200057 -0.34239385 0.074927874 0.73425746 -0.096228115 0.11281905 0.076217584 -0.4249445 0.89275974 -0.1690703 0.5941293 -0.004102001 -0.52224076 -1.1966494 0.28989828 -0.65385866 -0.18096012 -0.2407821 -0.19380294 -0.06430455 -0.09012211 -0.059999995 -0.007507556 -0.02278863 0.16236977 0.11329799 -0.27146685 0.55496454 0.48919362 0.6238458 0.077136636 0.5774422 -0.4909786 -0.50532234 0.5229001 0.58426464 0.0770843 -0.01835788 -0.12578112 0.35588712 0.09179326 -0.5402039
system.data.common.adp.isempty() -0.1887335 -1.0821785 0.30044284 0.093161516 0.21643905 0.10996146 -0.82193595 -0.024883088 -0.45933682 0.21962789 0.3066668 -0.5143309 -0.441356 -0.01264046 1.0371552 0.33322832 0.6730048 0.6118444 0.12774803 1.1652037 1.0088998 0.6375188 -0.3175854 -0.0431156 0.24686481 0.58377707 -0.9520171 -0.70196867 -0.49880648 0.087742314 -0.14308277 0.5216885 0.035357468 -0.5531005 0.38960224 -0.1906745 1.0240138 1.5531688 1.192503 0.6465723 -0.43259582 -0.6345236 0.87630457 -0.1469366 1.6390457 -0.11200347 -0.34429178 -1.048879 -0.3596289 -1.2215964
system.data.metadata.edm.edmprovidermanifestfunctionbuilder.addfunction() 2.030982 -0.0969975 0.9093696 -1.5451901 0.5556252 0.654355 -1.0159123 -0.39820418 -0.26072922 -1.7958964 -0.15147421 0.59817827 -0.26903483 0.22519317 1.7239865 0.072804585 0.2641929 -0.38389677 0.2519506 -0.17128155 0.44842222 -0.14695148 1.9366276 -0.85951686 -0.6140207 -0.79446936 -2.0621638 -0.010390222 0.78651345 -1.1838958 -1.9604774 0.003692982 0.9201679 0.11192147 -0.06983726 1.9022943 1.5631576 0.43967333 -1.3102599 1.7511208 -1.021881 -0.47822875 1.7370434 0.6454909 1.6391217 -0.085821934 -0.6837612 -1.1877422 1.0188135 -3.032689
system.data.idbcommand.executenonquery() 0.06838595 -0.47592726 0.31136557 -0.23948808 0.00035589063 1.1956179 0.6726581 -0.031749777 -0.3089769 -0.7460762 -0.29729337 0.85269654 0.5456827 -0.389055 0.77661127 0.81009114 0.8264567 0.5820773 -0.6488379 0.5141983 0.14978674 0.17946017 0.020026818 0.14701906 -0.18616447 0.69057596 -0.47639585 0.07483631 -0.15038249 0.63739103 -1.0326447 0.6311295 1.1649392 -0.091418125 -0.93847406 0.1122601 -0.29029655 1.0852747 -0.18826316 -0.12579533 0.48442104 -0.21540278 0.7966463 -0.19235606 0.48972052 0.15998949 0.3025654 0.85444903 -0.035245087 -0.86980987
system.data.oledb.oledbconnection.open() 0.3707903 -0.2641521 -0.97957176 0.16440132 -0.3668049 1.6064107 0.40349117 0.6211033 0.18476649 -0.58058983 0.14742775 0.35639834 -0.2434558 -0.40763167 1.0362866 0.29140624 0.78487724 0.68073106 1.0200768 0.13459243 -0.48102897 0.10272542 -0.15401499 0.20626868 -0.36089954 -0.22016221 -0.6882521 -0.94883317 0.34337 0.35198045 0.029221227 -0.32165638 -0.20695579 0.36511037 0.43588132 0.76055914 0.97078747 1.2029335 0.5333681 0.21698701 -0.5829284 -0.7277291 0.24615079 -0.3983772 -0.009759052 -0.23501587 -0.5647613 -0.40293756 -0.2250314 -1.7180808
system.data.datatable.rows() 1.7858636 -0.7934243 -0.56845695 -0.031184321 -0.5916581 0.65342647 0.4592453 -0.48823333 -0.10943907 -1.6158677 0.75267494 -0.06091021 -1.2060655 1.2369798 0.9229245 -0.24241336 0.6395762 0.38406006 1.1386949 0.39568195 -0.5699528 -0.8152763 0.40094423 -0.48646748 0.82037723 -0.8000315 -0.8209393 -2.308155 1.2752737 -0.072686344 -1.5257959 -0.0630677 -0.7602351 0.56343526 0.40904468 0.4484581 1.6064779 1.2308431 -0.08784199 0.7099418 -0.32064953 0.09582002 1.1895736 0.007632013 1.0554328 -1.0959013 0.5005283 -1.293908 -1.5208342 -1.6087468
system.data.sqlclient.sqlcommand -0.008913012 -0.13400675 -0.0152558135 -0.13290128 0.34275004 1.2706002 0.58290935 0.18622805 -0.18067518 -0.008017968 0.50167245 -0.06580812 0.03505704 0.25011724 1.1334889 0.05472951 0.5439399 0.39158538 -0.3117255 0.30347925 -0.5877687 -0.213966 -0.12031318 -0.05415127 0.077067226 -0.21175587 -0.20556486 -0.78966385 0.26689523 0.48441568 -0.8276553 0.8747815 -0.4301569 0.4384076 -0.56036407 0.1617246 -0.13264307 0.8184952 -0.08250545 0.19103257 0.22806627 -0.12989166 0.6170811 -0.081153534 0.8747728 -0.17524585 -0.6072791 0.33737108 -0.25063518 -0.8600584
system.data.dataset.readxml() 0.42188013 -0.26771414 -0.3206379 -0.07950546 -0.33876324 -0.110771455 0.81759137 0.58263123 -0.14797413 -0.37413326 0.4535973 0.7083058 -0.16768856 -0.533216 0.7463069 0.40676683 0.61123496 -0.6357938 1.1233163 0.31807658 0.06862148 -0.8643716 0.12383869 -0.7314543 0.48693964 -0.50633997 -0.68435496 -0.580814 -0.08754036 0.8618402 -0.39147758 0.054047223 -0.30470446 0.91261107 -0.5154095 -0.028900653 0.33780065 1.4062747 -0.14949271 0.04685026 -0.72247946 0.29877847 1.1783923 0.40512523 -0.0659858 -0.12223937 -1.2543631 0.37995782 0.07128262 -1.2594024
