1570 50
java.util.list.add() -0.10150575 0.041535627 -0.35789895 -0.2867712 -0.03768154 0.15117225 -0.12000269 0.33961347 0.08302252 0.7864744 -0.14206834 0.73070705 1.0290021 -0.329904 0.06531588 0.17126106 0.80438334 -0.091863096 0.123980075 -0.14167362 -0.14732099 -0.103833824 -0.18891524 -0.20052186 0.40075937 -0.5580419 0.17141758 -0.24261482 0.42737228 0.43859208 -0.41466254 0.12477233 -0.05774973 -0.11550136 0.031419292 0.09584454 -0.84463584 -0.05320311 -0.19178095 0.42933923 0.023542 0.07497586 0.728134 -0.23955913 -0.26632193 0.8241507 -0.19836326 0.016242525 0.27364567 -0.1078097
java.lang.string -0.24017629 -0.44255477 -0.20869535 -0.1792124 0.03459901 0.44091928 -0.058696378 -0.10681284 -0.02553176 -0.08507156 0.0069929943 0.13332698 0.44399607 -0.35255468 -0.041312702 0.018470818 -0.08562912 -0.12054474 -0.02355037 0.018749941 0.06678895 -0.561756 0.272752 0.3859714 -0.038440794 -0.16446345 -0.1911012 -0.31764606 -0.13605823 -0.039666686 -0.37987372 -0.019802125 -0.3519865 0.07599116 -0.20126154 -0.10212098 -0.442076 -0.2537652 -0.13241373 0.63574827 -0.04372544 -0.1852545 0.11310554 -0.59155047 -0.15355277 0.19242454 0.08397573 0.09465761 -0.2329292 0.055881802
java.util.linkedlist.add() -0.03230332 0.37665766 -0.28600487 -0.96547294 -0.6399961 0.59743434 -0.30400127 0.15683542 0.26183498 0.20153353 0.14607249 0.045977797 0.14009038 -0.4594958 -0.16712189 0.20848808 0.16773099 -0.12272887 0.11319658 0.031735756 0.13448143 0.026860816 -0.08593474 0.3893347 0.500165 -0.3774446 0.03337645 0.23430075 0.4322615 -0.007563158 0.23797289 -0.02253505 -1.4318159 1.4282992 0.008559046 0.12234062 -0.5960386 -0.53035736 -0.4377161 -0.027100371 -0.1483063 -0.09404333 0.7803491 -0.245203 -0.6494742 0.9669239 1.7212248 -0.6137037 0.40266785 0.51026016
java.util.map.put() 0.015193702 -0.050738417 0.4719073 -0.052027375 -0.063330024 -0.13604672 -0.8213501 0.2838763 -0.15086745 0.54070824 -0.63876885 0.56294245 0.6995982 -0.7158877 -0.5598413 0.06897401 0.0020768817 -0.21790929 -0.06280165 -0.25190195 0.53800213 -0.19577426 -0.31728882 -0.30203456 -0.07128603 -0.5639378 -0.27568245 -0.22216058 0.7007406 -0.46271786 -0.49617475 0.3630665 -0.30684415 0.6026512 -0.35487056 -0.1935927 -0.67338634 -0.17404348 -0.58738035 0.19368225 -0.24118407 -0.3973126 0.23776202 -0.24187364 -0.63016343 0.40409172 -0.2594175 -0.5448002 -0.014185694 0.29425886
java.util.list.size() 0.3411292 -0.47989896 -0.23182137 -0.64311713 -0.3494063 -0.16129291 0.04173236 0.32658756 0.27205923 0.29886645 -0.29615274 0.2816361 0.110973515 -0.27650654 0.21744974 0.009015117 0.6878241 -0.397813 -0.22424714 -0.07635602 0.2735369 -0.39094916 -0.452428 -0.3814703 0.049646836 0.30006444 0.122088745 -0.13242091 0.3094142 0.111864485 -0.15515079 -0.5724131 0.16176146 -0.023468364 0.3934235 0.01996176 -1.3064435 0.23824452 -0.23605128 0.2588846 0.25570104 -0.055921033 0.45811245 -0.61338085 -0.4180036 0.8125937 -0.087337084 -0.377441 0.17947333 0.30487964
java.util.map.get() 0.14678444 -0.2625836 0.24637602 -0.31004316 0.00018032627 0.04048786 -0.3435396 0.26484942 -0.13417871 0.43093523 -0.7122778 0.140451 0.80315864 -0.68393695 -0.3253902 -0.14218488 -0.09850323 -0.21321239 -0.038600035 -0.12799017 0.42070383 -0.39983612 0.016322548 -0.19366768 -0.10420764 0.022214178 -0.14662136 -0.03582352 0.20557569 0.2703117 -0.3307477 -0.12107403 -0.46548855 -0.03309075 -0.61869574 0.39284107 -0.87749153 0.3933808 -1.0367291 -0.19057244 -0.28346848 0.081786186 0.15529352 -0.38769144 -0.39205697 0.14116226 -0.2605287 -0.38586086 -0.540456 0.67277884
java.util.list.get() 0.59496367 -0.56991386 -0.15792668 -0.81792897 -0.05826442 -0.023979431 0.29512253 0.184809 -0.25667495 0.21051656 -0.5541367 0.47115436 0.08835474 -0.2486944 0.23382285 -0.18562257 0.7083361 -0.36966693 -0.0063947383 0.036904514 0.26407453 -0.18573673 -0.47868344 0.057535402 -0.39062652 0.0198467 0.029893575 0.12785923 0.6258512 0.10737849 0.48893014 -0.41539225 -0.089387245 -0.043170985 0.19731183 0.1509347 -1.4238839 0.029050836 -0.1964262 0.28364244 0.37030143 -0.2660882 0.14973573 -0.71435225 -0.3792463 0.87972236 0.055023972 -0.5069848 0.30768818 0.33835432
java.util.arraylist.add() -0.32561737 0.58424807 0.14674903 -0.48255533 -0.6636276 0.61597115 0.21596509 0.08133404 0.33283526 0.418136 -0.21348894 -0.2484548 0.42092538 -0.7075804 0.08686599 0.565505 -0.019911855 -1.2230179 0.19992365 -0.6318166 -0.011351982 -0.1542158 0.25972834 0.28565264 0.1370768 -0.15704067 -0.5689796 0.30674714 0.42400774 -0.31967804 0.32598045 -0.44220653 -0.1943875 0.8474468 0.3574324 0.14149071 -0.34118003 -0.45508957 -0.42457163 0.1928143 -0.06758533 0.15428528 0.59922725 -0.84273905 0.017296677 0.8522762 -0.11920206 -0.41629097 -0.25926644 0.24629538
java.lang.stringbuffer.append() -0.12565956 1.1095583 0.44512525 -0.11582122 0.7980057 0.41319558 1.9811902 0.14950104 -0.74411184 -1.4028484 -0.40512875 0.6928441 1.9071468 0.25534022 1.594571 0.45677766 -0.46568435 -0.22336708 0.29704875 -1.3128701 0.45283982 -1.3447078 0.5704097 0.12574993 0.19206832 1.2813126 -0.37638912 0.34093416 1.2470733 0.5558481 -0.69086653 -0.5023645 -0.20698945 1.4749566 -1.367848 -1.2920486 -0.6923741 1.1947098 0.46685824 -0.099607706 1.0957271 0.7280359 0.24374355 -0.03340105 -0.1367457 0.29088098 -0.76064044 0.842141 0.31669015 0.5387217
java.util.set.add() -0.18195175 0.09588715 0.3310435 -0.8568301 -0.4597408 -0.03321473 -1.1030521 0.07733173 0.20857973 0.40560666 -0.37442198 0.43610117 0.81613094 -0.7884263 0.21537764 0.4064483 0.121539705 0.014322178 0.09929806 -0.9989978 0.18948781 0.0015381478 0.6165708 0.116612025 -0.10907893 -0.31818962 -0.17024298 -1.3659805 0.36626992 -0.16242601 0.39509013 0.21603502 -0.72759163 0.012554285 -0.5366477 -0.007858344 -0.64157623 -0.011433115 -0.4717982 -0.32925734 -0.050344888 0.39870697 0.4953919 -0.35481778 0.03436679 0.68200743 -0.14548956 -0.3395791 0.16507114 0.09574123
java.util.hashmap.put() -0.3582543 0.21267775 0.36651114 -0.27542365 -0.9438601 0.8441105 0.20803425 -0.52498025 0.1863609 0.06646026 -0.06572725 0.3172541 0.7813159 -1.2273012 0.62521267 -0.29603308 -0.13353749 -0.40384978 0.04647502 -0.31678924 -0.63142943 0.21446909 0.28732613 0.8492515 -0.47164306 -0.6545338 0.2834473 -0.30342668 0.9384754 -0.66388494 0.0010887091 -0.5917232 0.2744196 0.7168074 -0.2711749 0.28169736 -0.7521796 -0.24795523 -0.26768202 0.49898064 -0.41659606 0.62433046 0.20974399 -0.29994303 -0.6273276 0.97674084 -0.13905217 -0.45403242 0.111942545 0.56063294
java.util.arraylist.size() -0.27257806 0.14796667 -0.15610835 -0.37459737 -0.75878656 0.16863225 0.15591942 0.4563955 0.8689539 -0.5194938 0.0025064754 -0.37332204 0.39378175 -0.72178054 0.20031759 0.22786105 0.37448096 -1.1106871 -0.119513296 -0.026775118 0.15857574 -0.5536714 0.27298036 0.7575046 0.062325265 0.17837226 -1.070931 0.13281055 0.4999799 -0.15016913 0.20433792 -0.38254836 -0.33305573 0.645477 0.22911228 -0.25972244 0.061220862 -0.024042763 0.04442418 -0.16447644 -0.26820946 0.28311014 0.5523365 -0.71957606 0.095548674 1.0784559 -0.39292574 -0.199768 0.18211205 1.0747558
java.util.arraylist.get() -0.15640947 0.25097147 -0.055652592 -0.44600824 -0.38382646 0.5245592 0.3027361 0.60117644 0.5308874 -0.24885516 0.24663904 -0.059600886 0.5250454 -0.60622287 0.17955911 -0.017466882 0.28520966 -0.8671009 0.04334825 0.39073506 0.23232526 -0.44337025 0.18211007 0.7977071 -0.2891865 0.20354839 -1.3784075 0.18555751 0.6760294 -0.3655451 0.5152259 -0.10697818 -0.30955988 0.6413486 0.2267331 -0.29054913 0.033594538 -0.07470783 0.00781373 -0.20305315 -0.45050517 0.22200158 0.20943153 -0.68180645 -0.29411054 1.1533965 -0.2652471 -0.411559 0.36135718 0.9178669
java.io.printwriter.println() -0.35080522 -0.30619016 0.36155578 -1.3475986 -0.42393917 0.37415653 0.36603346 0.30168608 0.4366639 -0.61041284 -0.51214576 0.3994775 1.1066763 -1.3981146 0.36446935 -0.34056765 0.9026342 0.3745626 -0.9618655 -0.45862144 0.3065148 -0.988102 -0.17077927 0.1982483 0.4622654 -0.07830962 -1.4813949 0.12552348 -0.21816118 0.36121407 0.36164314 0.8040288 1.3636487 0.95677996 -0.083315395 0.7394386 -0.6046649 -0.19858542 -0.84953094 -0.23387554 0.2523899 0.14223218 0.17014387 -0.18772964 -0.7527568 1.2177496 -0.53194433 0.7349516 -0.25609747 0.029669294
java.lang.stringbuilder.append() -0.47614005 1.193132 1.1528568 -0.50426924 -0.05928577 0.39301303 1.3727969 -0.15010269 -1.2827528 -1.0347284 -0.043587726 0.41293526 1.6898742 -0.5640793 1.2753152 0.76451725 -0.26827914 -0.23917879 0.39186528 -0.8278857 1.3597137 -0.42521513 -0.28882357 0.08317439 -0.14983232 -0.12865584 -0.7529179 -0.32392558 -0.0016286774 0.42310107 -0.66161084 -0.2613062 1.2726034 1.4063959 0.20797582 -2.106281 -0.93818897 -0.3926086 0.17884558 0.44594333 1.2926152 0.82570326 0.36167437 -0.7038805 -0.88506776 0.64092124 -0.24936542 1.182646 -0.9123552 0.2668847
java.io.file.exists() -0.26682845 -0.34106424 0.034506865 -0.5589844 -0.6834143 0.9712332 0.22952573 0.6120333 -0.6181469 0.61031765 0.28984585 -0.048172884 0.26364845 -0.7143392 -0.28362358 -0.373933 -0.51151365 0.38491932 -0.28738752 -0.21946682 0.6984603 -0.8094173 0.38421023 -0.015549913 0.27182844 -0.13695228 -0.52605265 -0.3704151 0.006152966 0.7391756 -0.1376401 -0.2648089 -0.06590574 0.51631504 -0.44914454 0.21327412 -0.78631544 -0.5977298 0.34891084 0.27945995 -0.04114217 0.3347011 -0.10297383 0.044777576 0.27394938 1.1423961 0.12522696 -0.30496618 0.1607473 -0.16402113
java.lang.string.equals() -0.29146138 0.35692936 0.3746309 -0.87914056 0.88575727 0.93149966 0.6290157 0.4103489 -1.7805451 -0.49596488 0.36546335 -0.5766744 2.01106 0.37404898 1.0737954 -0.12805012 -0.062478807 -0.31195727 0.4389887 0.05367965 0.3663795 -1.5459337 -0.39844683 1.3682458 0.6733984 -0.7230014 -0.83792096 -0.011898043 0.26337448 -0.16633439 -0.23805007 0.17379227 -0.05076481 0.5681958 -0.80208594 -0.9573827 -0.6153927 0.50362796 0.4124071 -0.24385686 1.2709061 1.0704687 -0.46957266 -1.0565689 0.3620997 0.1429078 -0.2466488 0.3244636 0.4276442 0.08534144
java.util.hashmap.get() -0.2254375 -0.21266575 -0.13953678 -0.11282295 -0.21878016 0.44391674 0.35045123 -0.12251113 0.3395246 -0.013926708 -0.23569855 -0.033271022 0.549271 -0.8530169 0.49319082 -0.3681896 -0.015639698 -0.24908078 -0.27393037 -0.00208686 -0.75258 -0.47093835 0.10287686 1.1209818 -0.68946564 -0.13448451 -0.10013203 0.109631896 0.7312857 0.00292182 0.30392262 -0.56300265 0.1493164 0.43769786 -0.21678376 0.521174 -0.7984899 0.19221278 -0.36727723 -0.020281892 -0.57663256 0.77733624 0.4970759 -0.6416335 -0.42621908 0.82977915 0.4197867 -0.22213227 -0.35601845 0.093951985
java.util.list.isempty() 0.15184015 -0.52273995 -0.38390526 -0.70208365 0.473155 0.06057833 0.4367971 0.3795554 0.03140074 0.8264321 -0.15235452 0.45364338 -0.040969815 -0.5257962 0.21798685 -0.060727537 0.67188907 -0.11457548 -0.4879582 0.18683064 0.41275382 -0.35202286 -0.2578485 -0.045666467 0.031132491 -0.46322727 -0.23982067 -0.531579 0.3050116 0.36439466 -0.17267393 -0.4538671 -0.3778817 0.46353555 0.37092605 -0.092946075 -1.2839857 -0.009345972 0.04467852 -0.62128717 0.42214245 -0.2916194 0.40506634 -0.3276507 -0.40427825 1.0562329 -0.045321003 -0.023945577 -0.07548434 0.035896964
java.util.map.containskey() 0.46354523 -0.48347616 0.32921168 -0.4901458 -0.118869245 -0.098585784 -0.25681546 0.21685769 -0.3508928 1.0183957 -1.2394239 0.4480254 1.0033456 -0.8895508 -0.046103958 -0.2108206 -0.14949751 -0.2118248 0.06521493 -0.02200009 0.8697097 -0.16908976 -0.048374087 0.048853837 0.3176321 -0.52006817 -0.409292 -0.34200388 -0.10874068 0.19630045 -0.275273 -0.11784114 -0.49940157 0.4211695 -0.24400567 0.19945903 -0.69625616 0.3232679 -0.511794 -0.21970327 -0.2921193 0.22180888 0.12299452 -0.27477175 -0.19735931 0.089626975 -0.1505971 -0.5823804 -0.38220397 0.5795246
java.util.vector.add() 0.33566064 0.8907483 -0.30412206 -0.6465578 -0.8921568 0.34553805 -0.61060035 0.15336251 0.7288227 -0.08240684 -0.63600034 0.2955396 1.1990776 -0.54865056 0.105158016 0.1894438 -0.2745623 0.011927175 -0.07841912 -0.38843185 -0.20226659 -0.42161044 -0.34677187 0.6111193 0.29034704 -0.20270886 -0.055464987 0.07118419 -0.1744239 -0.7006452 0.26723734 0.11230121 -0.3673473 0.9436436 -0.5125252 0.87755567 -0.779549 0.24365516 -0.65206784 0.52395475 -0.63946587 0.8634992 0.19081904 -0.05019759 0.066707976 1.0692638 0.0017806328 0.19638959 0.8026049 0.1052275
java.io.file.getabsolutepath() 0.19042459 -0.6813338 0.055529796 -0.009859897 -0.86487174 0.87059754 0.08850057 0.114244215 -0.6743613 -0.12810716 0.5411692 -0.0842745 0.62988794 -0.71264136 -0.40675002 -0.061330337 -0.4331098 0.10669602 -0.17768006 -0.4988641 0.12143085 -0.56865454 0.08708342 -0.63432133 0.16431248 0.0025508124 -0.28689885 -0.12994158 -0.07210565 0.42188618 -0.1778745 -0.072781585 -0.32375032 0.69253314 -0.5245907 0.40571234 -0.75690335 -0.27125198 0.30257708 0.12031198 -0.025989093 0.060053144 -0.07284009 -0.200462 0.06868532 0.8890611 -0.26153904 -0.4338483 0.38995957 0.32683527
java.util.list.iterator() 0.41612908 0.19573405 -0.39385733 -0.20524576 0.11053394 -0.06723706 -0.120686136 0.03764246 0.17060794 0.6624431 -0.37756565 0.08837887 0.20043111 -0.7039349 -0.14165826 0.67303765 0.79936963 -0.38241294 -0.52099663 0.47980934 -0.3835398 -0.61086196 0.098606616 -0.113829084 0.17073306 0.27029264 -0.3287003 -0.23332374 0.6085536 0.8462893 -0.16471742 0.2292099 -0.31901947 0.5370533 0.1792422 0.037968818 -1.2610329 0.38707745 -0.59519595 -0.19855377 0.5682388 -0.3826291 0.7672385 -0.45171693 0.11426143 1.1244 0.07596714 -0.03130694 -0.43154436 0.26183814
java.util.list.contains() -0.5093743 -0.50436646 -0.26007503 -1.022933 -0.14055072 0.14948101 -0.061848916 0.39366138 -0.041637175 1.1441555 -0.07227738 0.5054978 0.42802894 -0.56853473 0.812023 0.2428714 0.6806614 -0.27896938 0.31847033 0.41220972 -0.14622222 -0.302888 0.17016399 -0.53569794 -0.12721033 -0.32125247 -0.25253537 0.01888246 0.26465616 0.1476855 -0.8388557 -0.07520462 0.2588493 0.36076707 0.13648601 -0.01253238 -1.4446362 0.36125508 -0.14093861 0.25207007 -0.15166001 0.80645543 0.33408752 -0.100224465 -0.073488936 0.830667 -0.10202872 -0.5373199 -0.3634782 0.34268078
java.util.set.contains() -0.22817534 -0.15874714 0.020523546 -1.0560902 0.2576949 -0.002773613 -0.77060753 0.6152712 -0.1724393 0.713498 -0.28851622 -0.00079419225 0.775567 -0.78833973 0.47825482 -0.23559575 0.2990019 -0.04454902 0.09984866 -0.18732966 0.08542679 -0.12490476 0.23674904 -0.09189769 -0.11738901 -0.048952386 -0.6481623 -1.1352262 0.08635235 -0.17500027 0.30866614 0.29570562 -0.12834828 -0.05911882 -0.40770835 -0.1423516 -0.58985645 0.12366033 -0.045395724 -0.026829928 -0.51553327 0.44031113 0.74441475 -0.4443456 0.10386876 0.9932899 0.10222338 -0.5685666 -0.08783238 0.6934821
java.util.list.toarray() 0.18926153 -0.107516885 -0.7598449 -0.3870808 -0.47182804 -0.03264787 -0.022652077 0.43885013 0.47281867 0.47392967 -0.31106642 0.6718866 0.61964405 -0.944475 -0.003983262 -0.32162136 0.8319953 -0.38457668 -0.26316383 -0.67987204 -0.01282428 -0.21139535 -0.35049537 -0.40892738 0.76363915 0.15507594 0.2568608 -0.31510338 0.5155195 -0.3137559 -0.9036881 -0.3507495 0.21026574 -0.030033361 0.2135682 0.28811482 -1.0084198 0.39516816 0.20282117 0.131304 0.3960912 -0.023034021 1.2008352 -0.4669783 -0.020015264 0.95725304 0.1957668 -0.0983485 -0.122514114 0.14799206
java.util.map.keyset() -0.031196268 -0.37536705 0.47695094 -0.22440398 -0.28372636 -0.43431112 -0.2704316 0.7512558 0.31923392 0.47201097 -0.8856029 -0.056937534 0.42544484 -0.8889098 -0.31612527 0.09962442 -0.29918888 0.003889194 -0.46404105 -0.5142052 0.585053 -0.20035717 0.34656182 -0.0016796214 -0.5994527 0.28151274 -0.35907602 -0.07808506 0.0961588 0.8873714 -0.4720962 -0.07888017 -0.5091951 0.34027392 -0.5648588 0.051775195 -0.8141184 0.36611196 -0.7581118 -0.15748915 0.10648555 0.13601995 0.9259681 -0.43272945 -0.32788408 0.45934716 -0.060363837 0.24358208 -0.27088466 0.796356
java.io.printwriter.print() -0.23056963 0.10902887 0.5801784 -0.99118793 -0.3380194 0.24593563 1.0039364 0.5788935 0.38516077 -0.7482947 -0.40548795 0.37332276 1.5290562 -1.3081149 -0.2886295 -0.48932397 1.2307925 0.21004184 -0.97524714 -0.38608676 1.2510028 -0.72314215 -0.10313675 1.0466584 0.8291468 0.21302113 -1.3741449 0.20251091 -0.021602262 -0.37563798 0.49487552 0.31633654 1.0937965 1.0417222 -0.4571906 0.5260465 -1.3012708 -0.4790868 -0.8666688 -0.12447918 0.964523 -0.055429213 0.42405003 -0.14131197 -0.47213155 1.3616638 -0.33947998 0.45343676 -1.0264707 0.20785789
java.util.list.addall() 0.14664984 0.25690114 -0.04375191 -0.5596196 -0.5414596 -0.3349627 0.34568077 0.51589614 0.20985845 0.9461606 0.14321484 0.33278912 0.842093 -0.8130801 0.08865835 0.14757426 0.5013018 -0.011924947 -0.18462963 -0.66962206 -0.44704458 -0.44252476 0.10645636 0.12535052 -0.012242622 -0.13439362 0.26492506 -0.28712094 0.47849616 0.23152271 -0.9453837 -0.7049525 -0.005390563 0.17837936 0.001939788 0.51787204 -1.0501868 0.35271743 -0.2209742 -0.61830884 0.21759106 -0.24339503 0.8382437 0.034151748 -0.56436706 0.8527902 0.40938163 -0.24923906 -0.110183 0.5839609
java.lang.string.length() -0.58183897 0.01574822 0.23112439 -0.14250332 -0.14856324 0.3502144 0.67189044 0.2646856 -0.72562766 -0.6899653 -0.16183425 0.18454598 1.0022794 0.46548772 1.0536785 0.33993518 -0.24607323 -0.16404916 0.23441325 -0.27121451 0.9460208 -0.9149122 -0.05603288 0.74565 0.20464194 0.31681943 -0.537842 -0.4631832 0.0042514224 0.63589823 -0.2594263 -0.2621711 -0.109758794 0.1910003 -1.0026067 -1.9275252 -0.34679884 0.44883436 0.36754692 0.3648017 0.96157354 0.5708318 0.08009734 -0.58886033 0.043781046 0.33679092 0.20755932 0.42863905 0.04068624 0.7733584
java.util.map.entryset() -0.052847832 -0.23432568 0.31017545 0.12722203 -0.38206244 -0.17104533 -0.4439025 0.36339 -0.1713195 0.3585703 -0.55064136 0.39207548 0.39990047 -1.0111179 0.24528527 0.2527895 0.22140448 0.35916528 -0.410236 0.12299378 0.35830578 -0.24109505 0.6150688 -0.027365059 -0.48433223 0.1676182 -0.2073209 -0.33804685 -0.07213709 0.6194425 -0.4571881 -0.025894318 0.012553704 0.6239937 -0.2938145 -0.3828091 -0.42977405 0.43375778 -0.35653782 -0.051801533 0.2889228 0.06548708 0.6491512 -1.183955 -0.50991094 0.2902678 -0.19685976 -0.75198984 0.08707408 0.2933389
java.io.outputstream.write() 0.10491294 -0.31764647 0.81934017 0.06711924 -0.64306146 -0.10344644 -0.1883159 0.59965605 0.5100976 -0.50128394 -0.71982205 0.007986908 0.53053606 -0.7632628 -0.1013123 0.16210932 0.09555879 0.24246688 0.9974497 -0.27352342 0.7053121 -1.3178635 0.14562601 0.2242268 0.52683556 -0.034662504 -0.47448733 0.15221898 0.6715403 0.15056486 0.86871296 0.5429305 -0.06995333 -0.22115535 -1.12406 -0.42603782 -1.182794 0.05853142 0.3127964 -0.0744556 0.3765048 -0.37217483 -0.09136404 -0.2647219 0.007786039 1.0861834 -0.85278666 -0.073395245 0.13734302 -0.37353542
java.io.bufferedreader.readline() -0.5358558 -0.0782448 0.27399233 0.057147913 -0.49243504 0.08525027 0.11355281 0.38080448 0.28013188 -0.025566347 0.0023837022 0.19848298 0.2896385 -0.25234756 -0.3392895 -0.3168903 -0.75273 -0.2531932 -0.08147134 -0.2835268 -0.90011805 -0.97664505 -0.2055912 -0.20875005 0.28388003 -0.0743366 -0.87372446 -0.011898881 0.15192631 -0.034638047 -0.09690098 -0.3333288 -0.68968046 -0.026360532 -0.8111256 -0.34555846 -0.77276075 0.005215548 0.030042058 0.7917445 0.49861798 0.008119143 -0.260492 -1.1632633 -0.2141323 1.1635975 0.3762991 0.47814706 0.64620054 -0.6154624
java.util.vector.size() -0.048881393 0.1612773 0.09299437 -0.3421203 -0.48826957 0.32861584 -0.20018451 0.3740255 0.49464807 -0.6782798 -0.60251075 0.50694895 0.5527172 -0.16061111 0.05479033 0.17356284 0.005748179 0.021006113 -0.75805295 -0.12536833 0.5635978 -0.65536463 -0.18354994 1.081841 0.15736638 0.24180163 -0.18085201 0.83052415 0.09408956 -0.41718057 -0.11249827 -0.22931983 -0.43673137 0.64968896 -0.06975427 -0.044955917 -0.97571456 0.68193597 -0.27128002 0.06430706 -0.4104496 0.61967844 0.5166371 -0.24661367 0.27177343 0.84914494 0.15215607 -0.06465182 1.0805118 0.27847132
java.util.set.size() -0.26072365 -0.24689433 0.42583853 -1.0568701 -0.46996093 -0.14089829 -0.75475216 -0.08377681 0.34869087 0.5058426 -0.6418126 -0.2825236 0.34726235 -0.61924905 0.33823374 -0.3616149 0.2846719 0.001779282 -0.4829123 -0.5503563 0.42358345 -0.17730103 0.33785647 0.22632138 -0.1970644 0.71503735 -0.3340281 -1.0732611 0.15370955 0.043971404 0.07064616 0.16619156 -0.053284664 -0.31740496 -0.37271103 -0.24411778 -0.45855206 0.20395812 -0.28884113 -0.19353358 -0.13158496 0.42159277 0.9621351 -0.30480474 -0.74349016 1.0153693 -0.026392587 0.0023951756 0.12580688 0.8480593
java.util.list.remove() 0.08520164 -1.0285373 -0.32124698 -0.55952317 -0.14854449 -0.3724678 0.41845503 0.09036232 0.027643962 0.47771308 -0.59292454 0.53003526 0.17734304 -0.571626 0.65817374 0.24647258 0.4799285 -0.63724047 0.5284891 0.08269129 0.24834064 -0.36367536 -0.089699805 -0.1669079 0.35499153 0.0328452 -0.05926397 -0.22543977 1.1894165 0.56498426 -0.30479553 -0.15913026 -0.2875412 0.1072761 0.43899712 0.3607333 -1.3149353 0.20781277 -0.08178459 -0.645613 -0.16456512 0.28682134 0.48736396 0.12443034 -0.22726186 0.87142736 -0.25502345 -0.43374506 0.072539315 0.17146611
java.util.map.size() 0.1966989 -0.28561297 0.7642995 -0.19473135 -0.727524 -0.6099047 0.11338379 0.30037925 0.26881242 0.2651457 -0.7452543 -0.059406683 0.54374623 -1.1238577 -0.08958434 -0.19128136 0.07821589 0.113332875 -0.49054357 0.034461126 0.92151237 -0.30926764 0.27765858 -0.36957315 -0.1174654 0.2881464 0.112933874 -0.44037703 -0.033395156 0.3921828 -0.35208142 -0.39085934 -0.0073626665 0.40839258 -0.45926216 0.15072933 -0.22106838 0.37751597 -0.3710357 -0.011063675 -0.050921604 0.08190512 0.4748425 -0.51077974 -0.62695944 0.60901725 -0.5588826 -0.54732305 -0.17781785 0.7619907
java.util.map.remove() -0.026337815 -1.0002642 0.24824561 -0.4528383 -0.3906241 -0.14878064 0.20296712 0.13493727 -0.26355153 0.090844914 -1.0000576 0.36254117 0.44172347 -1.1331874 -0.047854323 0.010717367 -0.086396776 -0.14085412 0.44983166 -0.29479322 0.5881207 -0.109507464 0.20800143 -0.22964397 0.20159979 0.18133298 -0.13921922 -0.64662015 0.42540812 0.08124851 -0.5065007 0.43831247 -0.6030558 0.7884225 0.31690416 0.04860135 -0.5604596 0.34965956 -0.41083592 -0.9267251 -0.43782005 0.0796468 0.23599912 -0.2000026 -0.8523346 0.58846843 -0.15885568 -0.6851698 -0.38826227 0.38413164
java.io.printstream.println() -0.013872483 -0.08098831 0.058220368 0.32363412 0.07801734 0.975714 0.5779548 -0.50189376 0.9896772 0.37350023 -0.47921756 -0.16030139 0.24193904 -1.1742059 0.0853969 0.5217894 0.5719129 0.44724545 0.011072868 -1.4251893 0.16865228 -1.3702195 -0.2222462 0.37894437 0.4119989 0.6430516 -0.9987657 -0.67904097 0.09102382 0.057746775 0.28501087 0.24808462 0.10098402 0.38167855 -0.29994538 0.1340483 -1.0117664 0.75373036 0.14351067 0.3220011 -0.21305975 0.46313447 0.05671234 -0.051576085 -0.27316725 0.75550735 -0.25716895 0.057228047 0.20763499 -0.17608666
java.util.map.values() 0.37347656 0.012965572 0.64523923 -0.40096465 -0.76456594 -0.96055067 -0.058189016 0.7107404 0.47235718 0.6025673 -0.7167063 -0.21731582 0.75828105 -0.9851264 -0.5714778 0.43122202 0.18321571 -0.30784857 -0.4114217 -0.08908544 0.60339123 -0.18116789 0.20594376 -0.14118175 -0.25010374 0.24487402 -0.06287793 -0.25567573 -0.32465598 0.531571 -0.72058374 0.21633597 -0.30349708 0.6988004 -0.09586306 0.09660919 -0.47102478 -0.06098713 -0.55590254 -0.46135122 0.5364135 0.22746949 0.9306887 -0.4269835 -0.019838821 0.9394729 -0.019793369 -0.0061529656 -0.03851241 0.27606425
java.sql.resultset.getstring() -0.4611379 -0.48900226 0.5996632 -1.1518248 -0.64416164 0.75940734 0.23924814 -0.15176958 0.53579104 0.2374617 -0.5976977 0.28305352 1.6167896 -0.13492867 -0.30659992 -0.5667218 0.002302165 -0.8655303 0.56638426 0.40546796 -0.9252606 -0.21551682 -0.74007946 -0.7903255 -0.21592675 0.5289702 -1.0009181 -0.2434728 0.4832172 -0.17446552 -0.77351636 -0.53169644 -0.9917436 0.362902 -0.8953439 -0.07778558 0.1294493 -0.0394002 -0.6330917 0.97926587 0.8234316 1.1615779 0.3468023 0.29312146 -0.015411577 1.4707223 0.56405777 -1.2507364 -0.59352124 -0.35535315
java.sql.resultset.next() -0.23178594 -0.6222917 0.8749263 -0.81234443 -0.60436606 0.7928877 0.507101 0.16803038 0.3407438 0.15703166 -1.2858782 0.2108379 0.7539249 0.2009579 -0.058550548 0.037692152 0.64100146 -0.41406676 0.06759253 0.52819246 -0.9130328 -0.2799168 -0.60250914 -1.0256475 -0.26187605 0.29835767 -0.7404456 -0.46131855 0.6222971 0.17823027 -0.29308534 -0.38361505 -0.9241765 0.6888905 -0.8517855 -0.27625704 0.36331615 -0.17843045 -0.3728166 0.5286966 1.0905018 0.87867093 0.42793876 0.001814428 -0.17802246 1.4650705 0.58273363 -1.2457821 -0.52479607 -0.5060983
java.io.file.getname() 0.31462768 -0.41103444 -0.07281002 -0.2847038 -0.83474195 0.72122914 0.06624025 0.13575372 -0.43613073 0.076609746 0.41090098 0.2471368 0.6337812 -0.5485673 -0.1678832 -0.4269661 -0.8396916 0.040191703 0.43648708 -0.17325513 0.09456707 -0.50980496 0.5358319 -0.122304074 0.5379218 0.235341 -0.39498603 -0.18253824 0.02640871 0.3321111 -0.22662194 -0.021965839 0.086484484 0.28888446 -0.28522927 0.50461423 -0.7101455 -0.37978566 0.023184802 0.40673387 -0.39021704 -0.03522349 0.48045102 -0.6654743 0.22468811 1.1366194 -0.20309526 -0.5364319 0.20440581 -0.010814608
java.io.file.delete() -0.19130768 -0.544685 0.4079104 -0.7915581 -0.91477615 1.0400493 0.48478022 0.7599156 -0.5580384 0.23793225 0.4126788 0.040489748 -0.018177338 -1.1124202 -0.55404603 -0.2558217 -0.12375899 0.227222 0.21834837 -0.19003198 0.58449095 -0.7399803 -0.04026093 -0.26278344 0.11036363 0.3176321 -0.6641833 -0.06572118 0.18731384 0.6194004 0.1641543 -0.10954903 0.016845211 0.43370506 -0.51500314 0.20125988 -0.8106199 -0.30303788 0.4725534 -0.24905549 -0.20697853 -0.015120174 0.35699043 -0.040168334 0.28037068 1.3312709 -0.081367016 -0.47401667 0.30736274 -0.20435049
java.sql.preparedstatement.setstring() 0.023137871 -0.24210453 0.576511 -1.0584296 0.04829391 0.8547666 0.5967856 0.40622228 -0.19489725 -1.0250928 -1.6318078 -0.2781206 1.3182762 -0.45975897 0.04752966 -0.73950475 0.9873335 0.6689323 0.82367593 0.23716007 0.12467922 -0.4834683 -0.89314073 -0.6010196 -1.2373629 0.76217085 -0.9304387 0.0070006796 0.092473984 -0.07733228 0.3974516 -0.40993273 -0.217686 0.5826074 -0.7301504 0.02584762 -0.3904004 -0.24191354 0.19779898 0.07561152 1.4729569 0.64323276 0.62825036 0.04038524 -1.1284246 1.7567561 0.7438033 -0.56180406 -1.1565846 -0.057516273
java.util.list.clear() 0.483003 -0.03282356 -0.00065308786 -0.70137393 -0.5516714 -0.23436299 0.60789025 -0.2229195 0.23092425 0.79608196 0.06109726 0.5722652 0.5295514 -1.2374953 -0.17352723 0.7420119 0.5288173 -0.16519572 0.13749307 0.08888431 -0.3915781 -0.6654889 -0.46184027 -0.10619891 -0.18373123 -0.4360696 0.25786507 -0.23819287 0.13529147 0.5026475 -0.30287385 -0.060523786 0.092650406 0.15343547 0.18206003 0.31280053 -0.98309284 0.74874514 0.21097341 -0.045701493 0.22755735 0.12833758 0.6465957 -0.22158231 -0.7260659 1.1643208 -0.13791654 -0.19449106 0.74053967 -0.12961502
java.lang.stringbuilder -0.3770301 0.13547412 0.16454098 -0.09678807 0.2810943 -0.08186416 0.059861545 -0.040421665 -0.035364684 -0.20254816 -0.15644468 0.31251428 0.30494 -0.3600918 0.16034608 0.13871148 0.23174055 0.07890236 -0.09164391 -0.32974043 0.31917506 -0.58852667 0.06340555 -0.13883446 0.03079041 -0.106196366 -0.1524427 -0.34537178 -0.026227986 0.15633869 -0.010804975 -0.2661238 0.0071219974 0.39222825 0.058600187 -0.29423946 -0.36835 -0.35160634 0.19949849 0.48468578 0.3278065 -0.15174234 0.40755156 -0.6868227 -0.31977415 0.45098332 -0.053211246 0.36494324 -0.3816385 -0.1017917
java.lang.stringbuffer.tostring() 0.5258944 0.84439516 0.252867 0.20658116 0.5115664 0.51271725 2.1750197 0.98067397 -0.7203065 -1.4694957 -0.12023265 0.8993879 2.1455066 0.6867487 1.4748886 0.07116795 -0.5388069 -0.5703125 1.0473449 -0.81155086 0.17864397 -1.1842581 -0.3093844 0.64165527 0.28793576 0.8967857 -0.4831118 0.12793285 0.9389362 0.9478301 -0.9225712 0.2954646 0.12410176 1.4586606 -1.6398882 -1.5723758 -0.83964795 1.42692 1.2913839 -0.20634036 1.0735092 0.8161815 0.29128546 -0.27125725 0.24420422 0.5047796 -0.41719633 0.9983119 0.6352645 1.069769
java.sql.connection.preparestatement() -0.036606178 -0.70679 0.6049784 -0.704735 -0.2673505 0.7011414 0.45742446 0.2908102 0.018263273 -0.6816651 -1.4568884 -0.37289 0.59281033 -0.46752486 -0.23334278 0.16612491 0.81252444 0.4808666 0.19993296 -0.094722286 -0.07663672 -0.5813633 -0.70165646 -0.42063242 -0.76574624 0.17262696 -0.54925376 -0.41878638 -0.05946544 -0.08929296 -0.8054395 -0.5994445 -0.1509926 0.49471605 -0.654168 0.21682045 -0.15118758 -0.4767446 0.10254246 0.2672773 1.033152 0.6981686 -0.0912154 0.053305615 -0.96846604 1.2821878 0.98807096 -0.5160566 -0.89751536 0.063355654
java.sql.preparedstatement.setint() 0.5248625 -0.7850834 0.89298826 -1.0887383 -0.013327451 0.62325203 0.82039243 0.063171536 0.041346136 -0.71610266 -2.1028929 0.2079402 1.1084626 -0.4461731 -0.033438146 -0.28138745 1.0054544 0.2298931 0.49961334 0.119052224 0.3751717 -0.16659586 -0.83179605 -0.27964953 -1.07566 0.57622176 -0.45019642 -0.28387272 0.39761752 0.0397604 0.22333746 -0.59094286 -0.36230594 0.45120582 -0.9903102 -0.22738732 0.10604258 -0.68510014 -0.10069352 -0.12624808 1.6838297 0.9736042 0.19305833 0.0668571 -1.449275 1.6817573 0.34591737 -0.3909417 -1.2007135 -0.56535685
java.lang.stringbuffer -0.37866256 0.12821144 0.01865224 0.08049561 0.2198571 0.081516534 0.16783674 0.068354905 0.30896488 -0.44144332 -0.14168592 0.22309943 0.32397586 -0.25549883 0.1469348 0.036582604 0.002280229 0.13361633 -0.08652866 -0.45759976 0.1976119 -0.75641155 0.1994161 0.037704203 0.030979067 0.14393054 0.16421288 -0.012706153 0.2924193 0.032099463 0.042908117 -0.07298544 -0.49508524 0.38795128 -0.37748796 -0.14922996 -0.3776672 0.08651082 -0.12757169 0.62211585 0.42111534 -0.37083805 0.28950587 -0.45876738 0.06830529 0.54401845 -0.26126587 0.5536409 -0.17247564 0.33658454
java.util.arraylist.toarray() -0.11274671 0.27906552 -0.15592392 -0.29521635 -1.0991383 0.2978928 0.08360684 0.34362498 0.86785436 -0.07690378 -0.12469525 -0.4892903 0.6334748 -1.1634445 -0.1943646 -0.04127837 0.10589922 -1.6055253 0.0398477 -1.0601252 -0.10113888 -0.18451172 0.42637718 0.62131935 0.40345198 0.10836321 -0.5844983 0.0719171 0.6377026 -0.49854326 -0.32933035 -0.33468667 -0.43145156 0.5967651 -0.24814582 0.34629458 -0.10071271 -0.14777383 0.22322112 0.20631954 0.018913912 0.24959423 0.9698319 -0.5292538 0.5081675 0.9451431 -0.45277807 -0.28999734 -0.19062375 0.99767286
java.util.vector.addelement() -0.28025684 0.1634042 0.38578603 -0.17650717 -0.94756687 0.7528217 -0.37575486 -0.066418946 0.32214898 -0.61196995 -0.2842208 0.38814482 0.51189643 -0.5558312 0.46943006 0.27104035 0.17626 0.07905528 -0.31622076 -0.2742138 0.6821299 -0.65357095 -0.08828191 0.65529 0.6349277 0.018362967 0.5899376 0.5475251 0.5344355 -0.8481894 -0.2192717 0.13032457 -0.70544386 1.0224568 0.0068261377 -0.4123277 -0.98285526 0.62341046 -0.6324754 0.3639937 0.54644096 0.25082824 0.0034468628 0.3807727 0.79456735 0.949669 0.35121167 0.008192295 0.3052775 -0.33788478
java.util.set.iterator() -0.29667762 -0.09297687 0.73011506 -0.79846513 -0.16327415 0.09003571 -0.66412646 -0.21790345 0.30830503 0.42860335 -0.6330194 -0.20605873 -0.19409432 -0.93116575 0.49996185 -0.04104981 -0.007758427 0.31950524 -0.36247337 -0.289599 -0.028208164 -0.32363737 0.8251182 0.50880283 -0.16797702 0.14516346 -0.22865672 -0.8064343 -0.09592279 0.49155945 -0.025865652 0.31697077 -0.3982213 0.19225238 -0.59264606 -0.32274294 -0.49853122 0.79538816 -0.5052843 0.018947821 0.33492348 0.49335364 1.002021 -0.5883079 -0.72644037 1.0591605 0.18028785 0.11228586 -0.51396084 1.0365167
java.sql.resultset.getint() -0.26462775 -0.5441588 0.9016011 -0.6973501 -0.8746331 0.9394123 0.76154864 -0.44723698 0.5280565 0.059121296 -1.3143752 0.23528318 1.4793835 0.09979376 -0.34675628 -0.36903688 0.4117564 -0.9704883 0.21345818 0.9470127 -0.47285813 -0.10001568 -0.8985842 -0.51541764 -0.2358426 0.29278654 -0.6975231 -0.3688811 0.95722586 0.11881484 -0.63729626 -0.31773698 -0.48285988 0.44545394 -0.9719367 -0.2821002 0.4172052 -0.040485155 -0.6450789 0.37510866 0.7219667 1.3967286 0.08310342 0.23670924 -0.18235189 1.4122974 0.6834489 -1.4320635 -0.11208719 -1.0282804
java.util.vector.elementat() 0.14484915 0.14672227 0.29800144 -0.23409964 -0.48927194 0.8457471 -0.20564438 0.48983034 0.3584597 -0.7523801 -0.831548 0.85908055 1.0515614 -0.5712291 0.34231734 0.30493116 0.2024014 0.16544443 -0.6966589 0.09664781 0.22221301 -0.6684504 -0.736986 0.8592197 0.48735204 0.35864484 -0.59910214 0.7048268 0.2825604 -0.35822955 0.21440943 0.26533714 -0.0965743 0.57843393 -0.023556916 -0.6396638 -0.7276256 1.0527056 -0.18923424 0.07817733 -0.1385136 0.44893768 0.19164696 -0.34259927 0.93177295 0.7332534 -0.043246478 -0.35970345 1.1728584 0.328847
java.lang.string.substring() -0.44770756 -0.6343878 0.3206986 0.1565801 0.04038103 0.42482418 0.4503954 -0.13569173 -0.642632 -0.7815448 -0.42162243 0.14714845 1.3383703 0.5842137 1.3824375 0.19959508 -0.3780833 -0.69909674 0.41007346 -0.34700432 0.86119545 -0.6515628 -0.08522254 0.77667224 0.63091797 0.15937206 -0.8440156 0.09580429 0.19672078 0.457452 -0.8846853 -0.6212399 0.096620545 0.17896317 -1.0403063 -1.3967888 -0.76072145 0.1553744 0.30038753 0.3086614 0.80157864 0.7744383 -0.0013208028 -0.525741 0.0089568775 0.2897064 0.01470091 0.53206205 -0.17870136 0.57955945
java.io.file.isdirectory() 0.13740025 -0.061584774 -0.20190476 -0.57428586 -0.52517307 0.7650149 0.11616291 0.4727059 -0.6949473 0.3216031 0.47911713 0.33285597 0.65448505 -0.5189844 0.10743202 -0.34715107 -0.28361046 0.26728904 -0.13977568 -0.83524877 0.48352367 -0.92322266 0.5726548 -0.35636735 0.43458965 0.29344234 -0.50173384 -0.38706383 -0.30442834 0.5927598 -0.1844252 -0.5265037 -0.51516443 0.713285 -0.16193236 0.20591626 -0.867245 -0.4979658 0.19628398 -0.038854208 -0.35574135 0.53796434 0.40554875 -0.020833965 0.67783153 1.0081236 -0.09164164 -0.3899714 0.24063252 -0.06540276
java.util.vector.get() -0.048772737 0.18077089 0.24808355 -0.52683306 -0.10168411 0.34115097 -0.04697313 0.3082402 0.43108046 -0.3564107 -0.4986725 0.3639333 0.84228003 -0.07690633 0.5109862 -0.040844887 -0.2394947 -0.019185757 -0.18852198 -0.16509545 0.13153467 -0.5889454 0.27670664 1.3061535 -0.27106917 0.37103984 -0.52298635 0.8085307 -0.1917764 -0.46514985 -0.2679137 -0.5291079 -0.3923197 0.7352847 -0.28726798 0.22399952 -1.2872336 0.5330488 -0.19968934 -0.12355591 -0.7049266 0.53265226 0.15286602 -0.22742884 -0.13544975 0.9977003 0.109684855 -0.21574607 1.1600494 0.5004207
java.lang.string.charat() -0.16499668 0.118854925 0.76130426 -0.039126847 0.08747725 0.60273653 1.3296226 0.76821214 -0.6903766 -0.5381611 -0.46865857 0.7469844 1.2532004 0.62066174 1.4716216 0.42976865 0.033387408 -0.17164065 -0.11920092 0.033452813 0.87284917 -0.61943746 0.18673319 0.37343392 0.035317793 0.13783118 -0.461731 -0.16948564 0.40839392 0.4193534 0.05727897 -0.13001822 -0.27658126 0.20564376 -0.7623255 -2.3270252 -0.40951654 0.7110897 -0.088926256 0.1568517 0.68389785 0.90259296 -0.33582646 -0.3751957 -0.38146913 0.6197211 -0.11692324 0.51023525 0.07647506 0.30920765
java.io.file.getpath() 0.1738786 -0.29946673 0.33821297 -0.110912785 -0.5932729 1.3554065 -0.06726571 0.209858 -0.6492297 0.45887578 0.5534661 0.49878362 0.08192744 -0.5131916 -0.15765932 -0.5078599 -0.47966915 -0.013431033 -0.07557485 -0.5219495 0.41675153 -0.7663341 0.29229593 -0.031010963 0.64395654 0.47316578 -0.60210586 0.02315911 0.15514503 0.48419198 -0.5485637 -0.33522615 0.4029364 0.09197987 0.04584882 0.10321466 -1.1720648 -0.5422311 0.1539439 -0.014718503 -0.33891466 0.3907119 0.447615 -0.26665592 0.060277812 0.8696121 0.10048228 -0.10980473 0.1930076 -0.25564533
java.util.map.clear() 0.015745765 0.3595972 0.59051275 -0.3239568 -0.47088364 -0.49040446 0.2948327 -0.016020916 0.16097723 0.40903527 -0.5083512 0.541957 0.29783934 -1.9179937 -0.821967 0.7398674 -0.08711382 0.039697133 0.28456098 -0.22012778 0.42063767 -0.6789347 -0.42151147 -0.24114616 -0.61534595 -0.28499395 0.0023531879 -0.19002788 0.04121386 -0.16342749 -0.5629846 0.22108038 -0.3619689 0.48492992 -0.55282354 0.315449 -0.46795708 0.36811805 -0.13766791 -0.44782677 0.25019214 0.08255389 0.43604165 -0.17131095 -0.5321037 1.1496036 -0.2984041 -0.3382228 0.6684131 0.32176194
java.lang.string.trim() 0.2773586 0.2533337 0.40283066 -0.62150156 -0.15496005 -0.057925478 1.1069463 0.09674877 -1.1977209 -0.419262 0.14086108 0.2773421 1.5315533 0.04230187 1.2026967 -0.113578826 -1.305762 0.028383432 -0.46361196 0.2439047 0.12769075 -1.0790614 -0.17473562 0.75041527 0.26507625 -0.40639886 -0.33583763 -0.2615899 0.34458822 0.27573287 -0.82265663 -0.58163565 0.4300179 0.24955821 -1.7397374 -1.6394178 -0.5930884 0.12304014 0.5929442 0.562483 0.8760523 0.19932485 -0.35872504 -1.3318725 -0.19954684 0.09194474 -0.16146836 0.2213241 0.16426106 0.25577828
java.lang.stringbuilder.tostring() -0.17900097 0.8808848 1.4717416 -0.39974365 0.07325421 0.44447193 1.4076873 -0.18028766 -1.2044104 -1.3879546 -0.038423106 0.051488806 1.4726571 -0.09697597 1.1647549 0.5714373 -0.4828466 -0.29927891 0.26018283 -0.44755048 1.1191399 -0.30798623 -0.8241006 -0.14020072 -0.32675427 -0.44173294 -0.90528786 -0.614096 0.36906406 0.34864596 -0.5700235 -0.16845596 1.0470529 1.445017 -0.10267625 -1.9776688 -0.80721873 -0.58561724 0.2824248 0.59124374 1.4571327 1.1108521 0.6424145 -1.0546627 -0.8441276 0.64388764 -0.43762755 1.360164 -0.17519473 -0.08729143
java.util.set.addall() 0.14791887 0.3440812 0.06967964 -1.0322661 -0.58259106 -0.22062588 -0.6322027 0.33338377 0.38547865 0.7188584 -0.28824103 0.176458 0.2594081 -1.0809065 -0.023806855 0.12799804 0.23437914 0.063905045 0.14233491 -1.0125927 -0.10486326 -0.4269769 0.571326 0.2444122 -0.36540976 -0.2009234 -0.39774507 -1.032179 -0.020464217 -0.054932065 -0.09901249 0.09884841 -0.25741994 0.4512854 -0.39707205 0.069952756 -1.0577939 -0.24009863 -0.41599402 -0.95138323 -0.004445824 0.29256228 0.5389738 0.037365068 -0.7413288 0.69533366 0.07466695 0.2733221 -0.38034698 1.0106376
java.io.file.mkdirs() -0.0696178 -0.19341654 0.13578327 -0.2020262 -0.5716064 1.2118757 0.211338 0.75407696 -0.6656164 0.38816142 0.28421628 -0.16154224 0.5737027 -0.4995706 -0.424203 -0.38567796 -0.040821865 0.4997863 -0.017492678 -0.31293792 0.6572725 -0.637098 0.9677258 -0.30017516 0.19719443 0.18068878 -0.88059866 -0.19198997 -0.15773664 0.76576835 0.03550316 0.09717822 -0.20498812 0.6257046 -0.12887031 -0.04231418 -1.3409868 -0.6156859 0.74556303 0.06288869 0.0778683 0.12297821 -0.0047044843 0.0563301 -0.0036319834 0.8405946 0.357788 -0.10572111 0.19928603 -0.045123436
java.io.file.getparentfile() -0.10097443 -0.22972223 0.022399776 -0.16976054 -0.6730895 1.0796322 0.1342333 0.27071464 -0.22096545 -0.03566432 0.1971626 0.6962087 0.445674 -0.84738517 -0.07127548 -0.30901358 -0.67005587 0.5214297 0.10972331 0.018261692 0.2688451 -0.57273513 0.9363341 -0.4509652 0.6264503 0.26075518 -0.56188124 -0.24997585 0.11415749 0.46575716 0.13891552 0.14539452 -0.13064983 0.52687 -0.17719504 0.36608487 -1.2218771 -0.6169891 0.6883809 -0.038157415 -0.2749183 0.0422703 0.15073459 -0.58141935 0.086645864 0.8916073 0.08344988 -0.5844762 -0.25211605 -0.19469494
java.util.set.remove() -0.17282479 -0.69774324 0.35693583 -1.2147324 -0.4267729 0.26962847 -0.5421465 0.13755946 0.005199019 0.73185754 -0.18048702 0.040108666 0.5156531 -1.1509027 0.4127203 0.101468615 0.19817121 -0.056664404 0.90958035 -0.44050646 0.15829232 0.31079513 0.55455494 0.3296759 -0.09390731 -0.3260946 -0.066553436 -1.0313683 0.41557685 0.16755457 0.3580287 0.30322632 -0.7620839 0.22757511 -0.43614057 -0.08448641 -0.5474758 0.67946666 -0.15173042 -0.7222171 -0.45871663 0.42713267 0.88814664 -0.10239894 -0.58731407 1.1541728 -0.09968137 -0.43659702 -0.32907918 0.75646925
java.io.bufferedreader.close() -0.54219604 -0.40531215 0.42379105 0.11781027 -0.6857326 0.31530258 0.20406182 0.37892655 0.47126636 -0.13024837 -0.0144480355 -0.011246625 0.20699301 -0.90355587 -0.1003493 -0.5635915 -0.8188614 -0.43716303 -0.09682176 -0.5442446 -0.6743743 -0.52529174 -0.5829261 -0.49000874 0.33291918 0.110073015 -0.76531696 0.121261746 0.15251595 -0.21898645 -0.47231692 -0.18749173 -0.6108938 0.1446216 -0.95600814 0.11286588 -0.5697927 -0.2376516 -0.35721943 0.1849839 0.42119536 -0.09791024 0.31357053 -0.8087164 -0.19165036 1.3611726 0.40124232 0.47677284 0.8289943 -0.50283754
java.io.file.listfiles() 0.01622797 0.04556796 0.016482579 -1.1073666 -0.9588092 0.5074483 0.27515 0.82649666 -0.35754648 0.50539005 0.49818018 0.6534185 0.53960544 -0.47073692 -0.6106605 -0.006851742 -0.20288335 0.13203865 -0.07448657 -0.7299627 -0.13633859 -0.91803163 0.41251144 -0.22236897 0.17662308 0.42613897 -0.47908178 -0.236317 -0.18123369 0.481218 -0.16562761 -0.7624952 -0.09532913 0.53435856 -0.12410805 0.1941073 -0.75568324 -0.31566533 0.065171346 0.030248322 -0.5479965 0.45822772 0.6047765 -0.16859797 0.5173511 0.8250414 0.11161789 -0.53993535 0.55723184 0.24834402
java.io.printstream.print() -0.58064336 0.53423953 0.2272754 -0.11635661 0.6144604 0.85454005 0.7931315 -0.45723316 0.4525234 -0.487542 -0.11949991 0.5037377 0.4140111 -1.0313278 -0.10893662 0.30819914 1.3913795 0.5920113 -0.09327138 -1.2522913 0.424716 -1.3463601 -0.024915032 0.29626885 0.1163067 0.88043743 -0.6521741 -0.2580236 0.2584652 -0.43899086 0.04137925 -0.19615482 0.2382596 1.0405123 -0.5795601 0.4651257 -1.0261872 1.0022584 -0.47043777 0.4299543 -0.24226245 0.31372437 0.34355155 -0.23752108 -0.17574176 0.98232037 -0.5828763 -0.61408275 0.4448354 -0.52008796
java.util.hashmap.containskey() -0.18561329 0.07134372 0.27039018 -0.41957846 -0.11953202 0.49732077 0.39538845 -0.09929705 -0.28764814 0.2782994 -0.39510396 0.08415033 0.7610918 -0.96005785 0.8759374 -0.19946113 0.009326784 0.042074952 0.21305665 0.16689871 -0.7337788 -0.11023144 0.40981457 1.2234637 -0.3897545 -0.7329994 0.049366765 -0.15242404 0.8639818 0.13858932 0.37255496 -0.7504835 -0.15717714 0.8087268 -0.49391633 0.32824555 -0.78586113 -0.16699183 -0.29609445 0.043742627 -0.72966665 0.91102725 0.19319363 -0.70546347 0.16237815 0.7249785 0.30898613 -0.45888084 -0.09013524 0.2086867
java.util.set.isempty() -0.45937476 -0.34075803 0.40116024 -1.1364089 -0.12785053 0.07582368 -0.32109576 0.4164288 0.020759149 0.882092 -0.25806433 -0.055379994 0.017521985 -0.5714834 0.39316568 -0.30816606 -0.0040898086 0.25070438 -0.13786916 -0.5449655 0.3927635 -0.17535597 0.5162311 0.40523905 -0.16500889 -0.33920985 -0.17062546 -1.2198418 0.016914386 0.18066552 0.15874197 0.3237937 -0.6700673 0.47223818 -0.3776892 -0.2466577 -0.551568 0.42586327 0.13764481 -0.80566883 0.113246195 0.6151698 0.8142879 -0.2616059 -0.68480176 1.1005375 0.25026837 -0.0034061363 -0.40409502 0.789311
java.sql.preparedstatement.executequery() -0.16638558 -0.39278963 1.0926607 -0.9781837 -0.11049894 0.51942694 0.73887295 0.4634577 0.20663857 -0.17034487 -1.9456221 -0.38947088 0.8456367 0.032988936 -0.3177876 -0.17626356 0.9825956 0.039103158 -0.051444665 0.517384 -0.6084492 -0.19787571 -0.633106 -0.90999126 -0.40006486 0.38050258 -0.5637997 -0.4318595 0.33391666 0.074947156 -0.3776513 -0.929259 -0.9876286 0.6159471 -0.6927395 -0.089591615 0.118528925 -0.1351909 -0.0452662 0.5516997 1.4816813 1.0102435 0.30032653 0.03156643 -1.1618576 1.5777166 1.0018829 -0.892562 -0.7965815 -0.54828924
java.lang.character.valueof() -0.41703492 2.037842 1.0430999 -0.9268629 0.8917324 1.685056 0.5558592 0.46179566 -1.2818313 -0.1972111 -0.3170334 -0.017300358 1.3610532 -0.16138831 1.3361218 -0.10863989 -0.08073992 -1.5381191 0.013639264 -1.0314513 1.148026 -0.01622681 0.042894866 0.7091455 -1.3195556 -0.3750767 -0.42865855 -0.25219244 1.1621976 -0.4427403 -1.5102036 -0.40026668 0.024473835 0.76161844 0.12945236 -1.8408202 -1.143192 0.7250473 1.73327 0.5637083 1.2817897 0.2357858 0.023171874 0.15053178 -1.0171686 0.093390025 0.7792394 -0.24287415 -0.75274 1.7610251
java.io.outputstream.close() 0.15471528 -0.5373369 0.69337356 -0.18415521 -1.2050351 0.2300682 -0.12943487 0.25277022 0.19643769 -0.2806079 0.057951786 -0.26735693 0.16651262 -0.800537 -0.3905049 -0.28892624 -0.042752717 0.29700002 0.76326764 -0.18948197 0.452572 -1.0992844 0.08959299 0.22254218 0.10740266 0.19860375 -0.66569823 -0.18927217 0.60148346 0.07780142 0.0918946 0.1825721 -0.065711245 -0.20404953 -1.0845764 -0.09116961 -1.4485232 -0.28013054 0.6813948 -0.4597964 0.5430153 -0.4503449 0.07959976 -0.47766492 -0.38973844 0.8161424 -0.62207776 -0.5537127 0.3564483 -0.49439448
java.util.arraylist.remove() -0.32117352 -0.34016907 0.014986287 -0.7217043 -0.7661384 0.3474305 0.529204 0.15712757 0.33095708 -0.27435762 -0.27568948 -0.44099456 0.07035683 -0.82341826 0.612799 0.5172624 0.13144617 -1.3973424 0.87023646 -0.10950077 0.09248845 -0.49945557 0.28105476 0.70319563 0.18330885 -0.040696062 -1.0551136 0.12165216 0.65912426 -0.034368135 0.3646589 0.029162914 -0.24154934 0.8075992 0.21839082 0.04690772 -0.54013485 -0.45808056 -0.16752656 -0.6853328 -0.42439973 0.5665759 0.2523953 -0.09904553 -0.06604996 0.88446236 -0.13159457 -0.3807121 -0.16568537 0.9639706
java.lang.integer.parseint() -0.54069144 0.10060935 0.49198282 -0.027856348 0.061508607 0.71560985 0.27358636 -0.18847978 -0.27913067 -1.1656046 -0.18085231 0.25318027 1.4613694 0.4773525 1.4871777 0.21807986 -0.41855273 -0.49918845 0.72609866 -0.131693 -0.21908523 -0.929574 -0.8164739 1.3387517 -0.04308586 -0.15600161 -0.44084102 0.100872576 0.5444235 0.3861269 -0.99175256 -0.8039672 -0.24428235 0.3222769 -1.0672877 -1.0617013 -0.88598174 -0.23267452 0.9766651 0.0056797164 0.74732137 0.55191714 -0.80714434 -0.6906643 -0.75099295 -0.06667887 -0.2667699 0.113180704 0.19375753 0.025882106
java.lang.math.abs() 0.81520295 0.7907467 1.1007993 -0.700195 0.15932824 0.06147236 0.16537929 -0.29963055 -0.59328234 -0.20636508 -0.25105414 -0.8404179 1.0681564 0.102315255 1.7246325 1.1297232 0.24892937 -0.8822577 -0.18552671 -0.115231834 0.6273424 -1.2327882 -0.16286024 0.3592221 0.6533726 0.17069866 -0.5306004 -0.55016553 0.34854227 0.31059244 -0.11810633 -1.1568354 -0.104721226 0.22071467 -0.8997655 -1.0926046 -0.11090218 0.19343098 -0.22882001 -0.7564915 0.7240926 0.417508 -0.9538693 0.038326185 -0.5140415 0.66946566 0.08699146 0.1892839 0.74173003 0.34465244
java.lang.string.valueof() 0.27391088 0.22469555 0.66812056 -0.3581397 0.11011964 0.48628026 0.60254955 -0.59440494 -1.0144042 -0.49571547 -0.09767548 -0.3366672 1.6568704 0.52491194 1.2061806 0.8319512 -0.522835 -0.15794942 -0.093938105 0.13390608 0.42839715 -1.0477387 -1.0912411 0.1545361 -0.49413618 0.47857097 0.09667575 0.15997867 0.94042623 0.8093843 -0.6332528 0.22474328 0.3881951 0.6606579 -0.1283266 -1.3362608 -0.98320884 0.67666626 0.7666665 0.117209874 0.22662716 0.61531377 0.0676084 -0.32020184 0.46817207 0.37094277 0.10222942 0.17171541 -0.2685835 0.5028414
java.sql.connection.createstatement() 0.28023523 -0.91208106 0.6111198 -0.83748555 -0.38073173 0.98128235 0.398678 -0.22664282 0.006370741 -0.34800607 -0.7329218 0.31731436 0.4314342 -0.61683565 0.015366977 0.5109135 0.538749 -0.023353348 0.086619824 -0.0014036698 -0.5289033 -0.8977523 -0.4571087 -0.5384058 -0.51074606 -0.9905641 -0.95972973 -0.65573746 0.28975213 0.15233327 -0.3234529 -0.069847055 -0.32465473 0.65944266 -0.9159039 0.39871106 0.048570517 -0.5591337 -0.016046625 -0.03999509 1.1100167 0.2496814 -0.57442176 -0.010792709 -0.23726663 1.3898576 0.733183 -0.1399581 -0.17853284 0.08427144
java.lang.math.max() -0.2111569 0.62663573 0.49829254 -0.33917937 0.07974367 0.3204081 0.065561466 -0.17706995 -1.1112933 -0.7432407 0.052709732 0.40647128 1.0018857 0.34145108 0.6516007 1.0367212 0.010334275 -0.7845181 0.43726504 -0.086238645 1.0798771 -1.2816286 0.013776571 0.43418822 0.427499 0.26215413 -0.218154 -0.22616188 0.7961014 0.7963226 -0.16972809 -0.7912411 0.6247443 0.5578595 -0.90868205 -0.92461133 0.08005123 -0.14400437 -0.19948582 -0.31158903 0.16283084 0.22996087 -0.44736046 0.09113402 0.3172064 0.8132868 0.48264724 -0.34184098 0.8309694 0.100879826
java.util.map.isempty() -0.23525915 -0.23336314 0.44456193 -0.29081985 -0.08827066 -0.19535364 0.3625397 0.92172486 -0.14854175 0.8299687 -0.7258278 -0.17269069 0.26108736 -1.0216222 -0.15139149 -0.035130944 -0.25565943 0.5329972 -0.53615373 -0.23534971 0.92435724 -0.3183052 0.04789742 0.016090073 -0.031402174 -0.24372621 0.012218275 -0.71500695 -0.1912893 0.36710563 -0.70495266 -0.20871823 -0.5683826 0.8691659 0.00997011 -0.25785708 -0.3915769 0.120024286 -0.15352356 -0.7055427 0.52402747 0.19087914 0.45354638 -0.75706613 -0.5282135 0.7209724 -0.3360192 -0.3869772 -0.26719257 0.50628185
java.lang.string.format() 0.5709097 0.3745603 1.1659143 -0.06497623 -0.5114689 0.13814047 1.6113414 -0.5275412 -1.4726421 -0.7956754 -0.24766275 -0.6700758 1.0713649 0.24861914 0.56648207 0.3377483 -0.31405297 -0.081127025 0.5536686 -0.12338357 0.89088356 -0.8418305 -0.43764204 0.41495335 0.2862243 0.08524232 -0.34431228 -0.30087253 0.29250363 0.77921855 -0.41524714 -0.16362427 0.12261986 0.7948283 -0.47979814 -0.78091484 -0.6935127 -0.148536 0.45256117 0.5471286 0.21382183 0.6769829 -0.004829984 -0.9572374 0.014113762 -0.09772269 -0.7292495 0.046177942 0.34829444 0.6791603
java.lang.string.indexof() -0.47582126 -0.12853803 -0.043926105 0.082192615 -0.054738346 0.13567312 0.8379262 -0.15754364 -0.7366491 -0.81645536 -0.5783012 0.6234162 1.0790998 0.6156285 1.1140342 0.1650543 -0.17247975 -0.7996956 0.38696837 0.26602104 0.712401 -0.98235047 -0.23174413 0.5118559 1.1007481 -0.14669192 -0.79572344 0.22434399 0.13852851 0.2994682 -1.0336188 -0.5478065 0.2477985 0.347503 -1.0594758 -1.6567518 -0.9767217 0.3776782 0.34022644 0.40235174 0.8729404 0.39515826 -0.69843686 -0.6764308 -0.03711347 0.422798 0.08725415 0.8505577 0.12136627 0.6934694
java.io.file.length() -0.41211286 -0.22640158 0.6374333 0.19307949 -0.9819616 0.5172455 -0.2666421 0.06868508 -0.4778938 -0.3402054 0.5856352 0.12813541 0.15292308 -0.32312915 0.036384337 -0.25361022 -0.3696338 -0.32888925 -0.018900268 -0.48261145 0.5189499 -1.5616872 -0.054386944 -0.2755857 0.46121937 0.14814147 -0.17889282 -0.55353653 0.39177877 0.62577486 -0.5649849 -0.16174218 0.43931863 0.49161804 -0.53666323 0.20022427 -0.11087458 -0.4505144 -0.18305755 0.52972543 0.0048587043 0.27187753 -0.0074405074 -0.11957805 0.13130869 1.156186 -0.17107137 -0.58560693 0.55285907 -0.55957174
java.lang.double.parsedouble() 1.0051125 -0.0032348884 0.94606614 0.07895636 0.22244549 1.4719409 0.8988904 -0.59540975 -2.0522506 -0.092880495 0.09821208 0.15433693 1.2198303 -0.16925728 2.0373766 -0.060736444 -0.13727798 -0.15259832 -0.6844059 0.39039782 0.21626273 -0.5704973 -1.6811621 1.0314904 0.12981312 0.6970787 -1.3398174 0.53655523 0.06689942 0.93268543 -0.40073377 -1.8455808 -0.31307352 0.36999035 -2.9506652 -0.6051474 -0.3071235 0.3121432 0.95347035 0.10422234 1.6039461 0.57891005 -1.3603008 -0.502398 -0.9656789 -0.049006496 -0.029488888 -0.053551774 0.7584293 0.09600603
java.sql.resultset.close() -0.40013978 -0.5967467 0.77717096 -0.8370713 -1.0133755 0.4962413 0.8801706 0.33213747 0.5235786 -0.08687709 -0.90629447 -0.28587097 0.96343637 -0.42311904 -0.272661 -0.57221645 0.55820185 -0.6701659 0.76099765 0.19544147 -0.68532 0.22156234 -0.86777246 -0.971782 -0.44075143 0.3426227 -0.5110614 -0.31042346 0.4954637 -0.09209506 -0.8643857 -0.38332647 -0.7358042 0.6266076 -1.3428471 -0.024221245 -0.070477545 -0.43484545 -0.8453754 -0.24489012 0.6822833 0.2811662 0.2998819 0.051938586 -0.1733143 1.3673747 0.20028603 -1.0157299 -0.2005515 -0.39339137
java.sql.connection.close() -0.35303876 -0.6806945 0.71707463 -0.9407831 -1.3187968 0.61613274 0.64505774 0.38346007 -0.032974094 -0.41870758 -0.48623964 -0.3014218 0.675325 -0.88272095 0.3233565 0.45902726 0.18516172 -0.15991586 0.40707183 0.19509457 -0.14140731 -0.1003873 -0.94178724 -0.80689555 -0.31714824 -0.3184808 -0.84536386 -0.35476688 0.18382834 -0.47823232 -0.76812917 -0.20520361 -0.6363644 0.11753876 -1.3485373 0.3913113 -0.56287503 -0.5213417 -0.049598314 -0.4740207 0.6929285 0.58514565 0.24947563 -0.15841469 -0.26277527 0.5378754 0.3453273 -0.43305174 0.18123776 -0.29172206
java.sql.statement.execute() 0.17453256 -1.0338546 1.0475235 -0.95545393 -0.23303455 0.80633336 0.45321298 0.19746356 0.35510093 -0.5536236 0.06496428 0.100583084 0.7898932 -0.7457109 0.45200166 0.15664265 0.54143906 -0.041586094 0.33287466 0.03663297 -0.6328318 -0.5127786 -1.1846168 -1.0107518 -0.76955503 -0.3356249 -1.1411608 -1.3888009 0.7100322 -0.0153991 -0.43358526 -0.11304242 -0.05749073 0.9380431 -1.0024686 0.28786513 0.19162463 -0.61665326 -0.14287506 -0.41637093 0.6079107 0.96868306 -0.24813072 0.04740365 -0.34068397 1.5633607 0.8127252 0.047921784 -0.5275758 -0.011153715
java.lang.string.equalsignorecase() 0.6163613 0.20588744 -0.37196562 -0.49073797 0.008998359 0.200816 0.8215108 0.11487243 -1.0356809 -0.833699 0.5410256 -0.3662581 2.5972986 0.15913486 1.6365253 0.17493406 -1.2421932 -0.29328007 -0.37659952 -0.5686794 0.6949445 -1.2049525 -0.682404 0.2021236 0.42334235 -0.87572914 -0.34938958 1.3917083 -0.5978372 1.0638229 -1.1327245 -1.0217595 -0.31726173 0.76162994 -0.66754913 -1.4256927 -0.5046714 -0.0635161 0.3755411 -0.16830899 1.6769007 1.4668181 -0.7614674 -0.4562622 -0.105649 1.0223111 -0.09192869 -0.31867254 0.28308028 0.16512786
java.io.file.createtempfile() 0.23490314 -0.60667115 0.5084162 -0.29228318 -0.7227871 1.66346 -0.30234462 0.41189292 -0.42040804 -0.4184114 0.1230755 0.20812665 0.29943424 -0.4845395 -0.57768077 0.13240981 -0.26281244 0.3999198 0.1914178 -0.10877672 0.0022658582 -0.7712926 0.45268977 -0.2176342 0.18944351 0.5063811 -0.7952235 -0.016607016 0.59983665 0.8928323 0.5627513 -0.40526628 -0.21777686 0.19001548 -0.2708329 0.6145791 -0.90784186 -0.43232492 0.35722008 -0.30181503 -0.032975763 -0.042735714 -0.0019520492 -0.05180037 -0.03031386 0.9178276 -0.1847953 -0.56377625 0.13621649 0.053377718
java.util.list.indexof() 0.119928956 -0.8154603 -0.4466806 -0.6637505 -0.29389796 0.50888747 -0.15462266 -0.43043655 0.662418 0.18020472 -0.42729253 0.965079 0.18314579 -0.31314316 0.96816176 -0.30132967 0.6042405 -0.40190127 -0.058873415 0.08354313 0.16588913 -0.46203583 0.44265118 -0.32193512 -0.010337974 0.027697532 0.40532562 0.4653611 0.78036016 0.67119384 -0.22620153 -0.30105305 -0.058907077 0.0997188 -0.34308207 -0.22364382 -1.2729374 0.35075942 -0.28236622 -0.45184165 -0.4850425 0.36913463 -0.061235387 0.20172815 -0.019897345 0.91251945 0.44066384 -1.2098114 -0.119285785 0.6240172
java.sql.preparedstatement.executeupdate() 0.048335537 -1.0097604 0.79504454 -0.90350926 -0.70951444 0.7140111 0.9936199 0.20168099 -0.17318982 -0.58653355 -1.5606334 0.051809184 0.64280254 -0.22394122 -0.5509274 -0.77810216 0.71454066 -0.05590163 0.53181136 -0.21244639 0.21969622 -0.37319416 -1.4823219 -0.75229347 -1.1613665 0.46269932 -0.46855527 -0.034319885 0.6638414 0.2685953 -0.11479128 -0.42738473 -0.20146649 0.67407763 -1.4890994 -0.7864642 0.077672444 -0.70488185 -0.13451044 -0.49547076 1.027437 0.6385067 0.58065027 0.15300147 -1.5295206 1.5007828 0.55310357 -1.0910231 -0.49140817 -0.4132441
java.util.arraylist.clear() 0.012293944 0.40498108 0.027616153 -0.30639622 -0.59466463 0.115710355 0.6659534 -0.033996455 0.52582735 0.28548616 0.19380519 0.08219249 0.17345113 -1.3305283 -0.29327953 0.96484673 0.0009398245 -1.1724569 0.29678813 0.15959391 -0.35991678 -0.80256975 0.14904086 0.42551833 -0.41020283 -0.20800295 -0.7020992 0.3106492 0.4422888 0.19942921 0.42451492 -0.4328641 -0.3036583 0.80038327 -0.39051217 0.035126053 0.015944129 -0.01815934 0.106269 -0.32066855 -0.24334413 0.36505783 0.4679962 -0.26465306 0.121593066 1.3936137 -0.547761 -0.15178475 0.22859015 0.3514594
java.io.printwriter.close() -0.54626006 -0.6191987 0.62254393 -0.6396914 -0.9778475 0.57450384 -0.00019481279 0.58974457 0.61456823 -0.66421056 0.36809883 -0.047318313 0.5710204 -1.2386465 -0.6690678 -0.5898924 0.1599392 -0.056382697 -0.6291054 -0.33271027 0.67582273 -0.7436438 -0.48853555 0.07808337 0.7724486 -0.11093345 -1.2814963 0.27412295 0.30319494 0.017390264 -0.6143002 0.6605655 0.5691269 0.54003936 -0.07992113 0.85909605 -0.9597977 -0.37636638 0.020774465 -0.32089868 0.607997 -0.2438715 0.28741366 -0.56529135 -0.57265294 0.9384355 0.09005128 0.26776865 -0.065345556 -0.18874283
java.util.linkedlist.size() -0.03946718 0.47298357 0.42551273 -0.56527203 -0.8541257 -0.3280329 0.01617056 -0.009589615 0.28903317 0.51478076 -0.36966357 0.08675004 0.15554765 -0.8296449 0.109104626 0.14239575 -0.02348868 -0.10116495 0.21240526 -0.4499522 -0.099412106 -0.8440453 -0.8025542 0.7601392 1.1785121 -0.18416406 -0.03952343 -0.3221687 0.439969 -0.07003796 0.18525454 -0.1321277 -0.45650002 0.6698044 0.020536534 0.04605537 -0.33296606 -0.04078108 -0.25782597 0.12583004 -0.64767224 0.26927528 0.6704717 -0.22946173 -0.46187395 1.4016086 1.113104 -0.16040023 -0.10399195 1.2100687
java.lang.math.min() -0.14900686 0.8743443 0.5905371 -0.13716203 0.29135096 0.45475715 -0.0019761024 -0.30754504 -0.94165975 -0.5395454 -0.12086002 0.22887564 1.0547476 0.3832741 0.87563014 1.2745059 0.36410588 -0.8634476 0.6605538 0.0076398877 0.8437172 -1.0169686 -0.0120543055 0.398254 0.5266613 0.5111783 -0.061128065 -0.38446873 0.7035286 0.37770382 0.01166343 -0.79237133 0.45258546 0.48974234 -0.9932748 -1.307028 0.12943769 0.36164737 0.08053252 0.028257629 0.20526423 0.23590083 -0.010959802 0.015626155 0.20985845 0.83992153 0.43910706 -0.12438714 0.61296916 0.28735152
java.sql.statement.executequery() -0.050599646 -1.0954316 0.87804335 -1.0312413 -0.23009224 1.0690994 0.5964027 0.012853805 0.22624092 -0.19699149 -1.1190511 0.34146127 0.5240443 -0.12150375 -0.05143626 -0.051102646 0.91304594 -0.37377 0.2212508 0.33030587 -0.721671 -0.59253746 -0.40574235 -0.763287 -0.4938925 -0.63862586 -1.019724 -0.39462435 0.72340035 0.20384113 -0.18981041 -0.21852641 -0.5956334 0.92716986 -1.1527299 -0.085223734 0.40508813 -0.21044143 -0.015924025 0.4157444 0.9813348 0.36865422 -0.31251636 0.12422488 -0.04862541 1.6597369 0.6349479 -0.69334805 -0.034736373 -0.08528142
java.net.urlencoder.encode() -0.1917383 -0.65481114 -0.016566306 0.6097444 0.5039731 0.54733926 -0.40904912 0.403693 0.23109776 -0.3129374 -0.5071835 -0.30725512 1.3359381 -0.55315024 -0.14644523 -0.80765647 0.2636051 0.17587568 0.14262211 -0.49408367 -0.09756356 -0.069199465 -0.036891554 0.53441024 0.13076009 0.26639938 -0.3553256 -0.23643646 -0.16457228 0.7365406 -0.10429666 0.046045925 0.102148764 0.71916187 -0.56778044 -0.7429187 -1.0340148 -0.7001675 -0.001639184 0.29908323 0.32379487 -0.63551587 0.32152596 -0.78168225 -0.39500543 0.78606075 -0.3892074 -0.45347536 -0.3386105 0.084585615
java.util.arraylist.contains() -0.49052835 -0.025714245 0.11360086 -1.1811479 -0.1723165 0.43355215 0.17835496 0.339499 0.30711868 0.47931287 -0.32470185 -0.69980294 0.3108347 -0.6472661 0.47656903 0.28242308 0.2029964 -1.0209391 0.34256116 0.28867945 0.05439901 -0.3099034 0.43891817 0.28377596 0.09734048 -0.34117022 -0.81924725 0.24061312 0.0701454 -0.34475052 0.30371615 -0.40764216 -0.17551626 1.0373727 0.2980794 0.45300227 -1.0630268 -0.4853129 -0.24691178 -0.09235739 -0.1076405 0.6126825 0.52740604 -0.3745368 0.4073184 0.6165337 0.12291663 -0.44621676 -0.21533239 0.68763447
java.util.hashmap.keyset() -0.21274449 -0.021044157 0.29850003 -0.33412376 -0.5483257 -0.109056234 0.2655725 -0.23831397 0.49788105 0.22848015 -0.29614255 0.07207379 0.23474061 -0.8989505 0.29493955 -0.08668382 0.08985635 -0.006616872 -0.7900756 -0.42392352 -0.12681107 -0.3257443 0.8904029 1.2079201 -0.9096622 0.13844717 -0.29432604 -0.050017178 0.45091167 0.9239023 0.021621028 -0.26451916 -0.053170625 0.84919256 -0.24477178 0.18815513 -0.72770184 0.13750689 -0.5311647 -0.08406344 -0.24005193 0.6398255 0.89279383 -0.32010117 -0.24856736 1.0243266 0.54536057 0.08014714 -0.35340634 0.36030006
java.sql.date -0.2956541 -0.1384053 0.014637425 -0.9006801 0.3013022 0.827665 -0.40790457 0.1603899 0.1951728 0.2573427 -0.18312116 -0.17530142 0.38768646 0.10124472 -0.27742282 -0.11651057 -0.38590676 -0.0885321 0.2594759 0.3215055 -0.066563524 -1.275083 -0.47807014 0.23320608 -0.11340928 0.26509896 0.027548734 0.04882653 0.23018304 -0.2780708 -0.59770864 -0.30636686 -0.23491181 0.34592098 0.106051214 0.6477417 -0.35190058 -0.14439732 -0.15451047 0.39124444 0.07328785 0.14231317 0.055635225 -0.17761613 -1.091483 0.7182158 -0.20267572 0.105013795 -0.26791385 0.23532106
java.net.url.openconnection() -0.36644697 0.13917951 0.3700172 0.37562868 0.09907821 1.0072036 -0.4809048 0.48820633 -0.29089314 -0.3030815 -0.8140783 -0.95863634 0.6513858 -0.41314924 -0.42032805 -0.5676059 -0.33225864 0.4092482 -0.1339099 -0.50078034 0.20166919 -0.51343775 0.38444495 0.5742004 0.7189365 0.18982509 -0.67554104 -0.8795373 0.51098204 0.710121 -0.09230667 -0.5343404 0.21262713 0.32887533 -0.7256443 -0.14872839 -0.9699033 -0.6101416 -0.015595894 0.3433931 -0.023575705 -0.43266758 -0.17577885 -0.7366003 -0.55602044 1.049716 -0.6626174 0.03050394 -0.17809726 -0.28556865
java.io.file.isfile() 0.07966555 -0.13361612 -0.06396439 -0.30232924 -0.7722342 0.79240674 0.07045157 0.647813 -0.74306285 0.33347186 0.47959352 0.14226896 0.24470626 -0.84333396 0.026576776 -0.39667684 -0.6397889 0.14994954 -0.085642084 -0.27269462 0.32643807 -0.6983363 0.5309617 -0.15107134 0.63448095 -0.0043030563 -0.006247129 -0.3698475 -0.092034265 0.5261569 -0.58963305 -0.5254876 -0.17543148 0.36174458 -0.85801685 0.3437595 -0.7075234 -0.6822561 -0.1367757 0.13604647 -0.17119147 0.40550247 0.029059984 -0.19611539 0.6378347 1.0796611 -0.021565717 -0.46322778 0.17269722 -0.08413076
java.net.url -0.5208798 -0.2831616 -0.3310395 -0.016484752 0.13313131 0.5707388 -0.40466443 0.30305192 -0.07096853 -0.24520455 -0.5978431 -0.49828535 0.46378493 -0.31325805 -0.37289518 -0.3608424 -0.038267825 0.08562885 -0.48128715 -0.5351754 -0.053605143 -0.22862945 0.4296698 0.23644331 0.43672216 0.15346928 0.06178128 -0.61183065 0.2662007 0.45200443 -0.3970033 -0.35613686 -0.37720814 0.09264321 -0.5838783 0.34702155 -0.9813661 -0.59137636 0.06899449 0.050094135 -0.35311213 -0.21409744 -0.11176493 -0.5887923 -0.032575946 0.6161147 0.09877206 -0.13904803 0.047651093 0.0035229106
java.util.hashmap.remove() -0.5532979 -0.29910967 0.2695258 -0.5495297 -0.49976555 0.3587932 0.72742474 -0.27927625 -0.22515781 -0.41641653 -0.34185812 -0.06569665 0.37299466 -1.0569516 0.79267824 -0.35575494 0.12568153 -0.48907542 0.37206423 -0.15243745 -0.5767409 -0.2675493 0.28005838 0.7659236 -0.3251121 -0.27816716 0.16429137 -0.13739812 0.93484175 0.18331817 0.41551882 -0.17702958 -0.21824622 1.1001915 -0.060215022 0.39509925 -0.5895794 0.110725515 -0.48386425 -0.8368574 -1.0203315 0.6569478 0.37819588 0.113172896 -0.35506895 1.1509832 0.035991233 -0.38935554 -0.17748563 0.37943757
java.util.arraylist.addall() 0.15999953 0.752318 -0.19198689 -0.46603942 -1.0340278 -0.09907058 0.7528588 0.29893407 0.3249794 0.4169376 0.053994123 -0.66542435 0.6338208 -1.0634935 -0.46084008 0.35903412 0.7399183 -1.1890435 -0.25920674 -0.58598775 -0.40967524 -0.4969127 0.34854853 0.17275757 0.37657368 -0.26949129 -0.5816905 0.24276039 0.13353021 0.33468822 0.18054347 -0.54617125 -0.08819301 0.81843305 -0.12510806 0.6271 -0.7438065 -0.27895308 -0.15889534 -0.24827178 -0.16852973 0.02586906 0.34344196 -0.09545822 -0.38739595 0.82060724 -0.35867655 -0.058478747 -0.43802795 1.0636427
java.lang.integer.tostring() -0.2560813 -0.067356765 1.2051522 -0.26762047 0.13813382 0.15094405 0.82203317 -0.512627 -0.29034495 -0.052038204 -0.41504526 -0.41065174 1.4814279 0.67018265 0.7567792 0.61528325 -0.5466866 -0.49709943 0.16935958 -0.44810358 0.043944992 -0.73216903 -0.38285863 1.0121502 -0.08098849 0.003390684 -0.088275835 -0.28687194 0.4436373 0.14279862 -0.4954567 -0.42229435 -0.08722691 0.5630553 -0.8452306 -1.9508922 -0.7069164 0.9337856 0.78123575 0.29215553 0.5281992 0.7593913 0.22308418 -0.3623548 -0.97957325 0.06636301 0.24934061 0.26550603 0.6023176 0.6356643
java.sql.statement.close() -0.17259349 -0.9568908 0.8452812 -1.002166 -0.9231425 0.6754087 1.2311348 0.38986385 0.6531799 -0.1565007 -0.375834 -0.25602087 0.9132275 -0.53748626 -0.13920917 -0.25911263 0.61159205 -0.63462156 0.5860213 0.054604083 -0.915297 -0.38644156 -1.0133897 -1.0906258 -0.47946608 -0.73872966 -0.74599063 -0.6974753 0.695523 0.14195104 -0.7936152 -0.2458963 -0.0585491 0.5476889 -1.037732 0.0679377 -0.4260494 -0.582116 -0.5125753 -1.010496 0.91232425 0.24933371 -0.056509525 0.016124196 -0.10249486 1.2629849 0.27087703 -0.51229346 -0.03799734 -0.5832087
java.io.file.touri() 0.026780121 -0.76653725 -0.28930393 0.07728162 -0.35974735 0.7504267 -0.34739 0.80831265 -0.5081899 -0.07927511 0.0045209103 0.11484486 0.2948192 -0.735986 -0.41094938 -0.087863386 -0.38549596 0.046624303 -0.2956722 -0.58719355 -0.16126814 -0.08763829 0.29637784 0.04987492 0.18416366 0.41495764 -0.07922426 -0.9328735 0.5267473 0.27099696 -0.6741584 0.10290771 0.08573977 0.11945448 -0.4563804 0.4053372 -1.1244432 -0.70242965 0.33543918 -0.28695813 -0.088551976 0.3843165 0.1868478 -0.6846008 0.5502955 0.870702 -0.1347888 -0.81840366 0.46665666 0.036432218
java.util.map.putall() 0.20388897 0.29226494 0.6103699 -0.2644014 -0.7165527 -0.024309939 0.10178103 0.22266765 -0.10435383 0.5829722 -0.25782758 0.4750766 0.21069351 -1.1438518 -0.56072724 -0.09635999 -0.06013858 -0.016200049 -0.50949055 -0.4132351 0.5525916 -0.57630014 -0.19152267 0.4779736 -0.21065202 -0.2292362 -0.018709105 -0.37903175 0.3036399 -0.10254544 -0.7901313 0.07801712 -0.23543072 0.72646934 -0.282884 -0.45007718 -0.5991009 -0.06429815 -0.784824 -0.6555352 0.35227624 -0.60698813 -0.002292943 -0.6118721 -0.72148436 0.6577067 -0.6087065 -0.2778407 0.010274869 0.5502762
java.io.file.tostring() -0.016982237 -0.5645574 -0.3112081 -0.27071056 -0.576066 1.0603828 -0.0042715822 0.5740927 -0.08352494 0.24963821 0.5203048 -0.23056293 0.22045457 -0.54263574 -0.17670313 -0.4670592 -0.39601076 0.08937348 -0.047763668 -0.61308974 0.6000462 -0.6252047 0.36871338 -0.26034242 0.2779499 0.5328616 -0.5386093 -0.06442792 0.2969435 0.41083533 -0.42237285 -0.33798024 -0.42771596 0.07668523 -0.6613866 0.8665422 -0.845397 -0.4432822 0.09583297 0.16501255 0.08953999 0.8244499 0.29349652 -0.15266104 0.17022371 0.9841368 -0.12720063 -0.028625812 0.41158935 -0.21192773
java.lang.string.startswith() -0.55762756 -0.20631397 0.15343373 -0.002529791 0.41682637 0.64879066 0.47529042 -0.12082074 -0.8308455 -0.37484616 -0.28434256 0.16553487 1.455787 -0.12502389 1.479195 0.10904174 -0.59686416 0.030431032 0.5530619 -0.30775112 0.68176025 -0.81251186 0.10805137 0.6169013 0.91688836 -0.45284054 -0.38392094 -0.26130533 0.093927436 -0.024162881 -0.92595565 -0.5867226 -0.05113826 0.52107966 -0.744597 -0.84244186 -0.66000795 0.39127746 0.59017247 0.47997063 0.33643535 0.94114596 0.09667673 -0.8075338 0.7129328 0.49525973 -0.25989825 0.13706672 -0.24163188 0.23771016
java.io.printwriter.flush() -0.49247342 -0.349508 0.63910097 -0.46997833 -0.830612 0.6704963 0.43447396 0.67097884 0.5075327 -0.39479455 -0.04592849 -0.004420337 0.9877453 -1.1326199 -0.5743013 -0.3003012 0.4448665 0.09396397 -0.5975961 -0.17300089 0.3739925 -0.80022097 -0.4739329 0.07729349 0.93508875 -0.3881724 -1.3546634 0.55236864 0.24284267 -0.1657968 0.069920525 0.71077955 0.6540794 0.25359038 0.048024222 0.48622262 -0.7786022 -0.15572776 -0.014694097 -0.24009861 0.78101236 -0.31538495 0.25325945 -0.74175406 -0.6266573 0.95034957 -0.27091703 0.22145277 -0.40315548 -0.0126168085
java.lang.string.hashcode() -0.33117968 0.3462234 0.77834904 0.618246 0.16473337 1.5225394 1.0325997 -0.39217073 -0.46151033 -1.2211701 -0.69972515 -1.056969 2.3945625 0.9023421 0.69132775 0.37690356 -0.29338008 -0.3526982 0.8131419 0.13769007 0.39985308 -0.6334473 0.51007134 -0.25538453 0.31312293 1.5521502 -0.1745769 -1.1864784 1.7513036 0.3216335 -0.2814001 -0.2372147 1.5237464 0.40876248 -0.80226064 -1.3275813 -0.56329244 0.7908616 -0.81049484 -1.3270631 1.0073509 0.9948359 -1.2239363 -0.92478275 -1.7150652 0.22088979 1.3696246 1.043208 0.02057591 0.58197117
java.util.arraylist.iterator() -0.15561509 0.37726027 0.04231118 -0.024971265 -0.49301785 0.23543693 0.09580779 0.2912099 0.59768623 0.09678188 -0.1109671 -0.34484714 -0.041461658 -0.95252407 0.047355685 0.83255446 -0.013214058 -1.0390708 0.31070566 0.05288512 -0.30976528 -0.6332801 0.33625606 0.6805462 -0.050273508 0.19044517 -0.7545196 0.27737746 0.010179937 0.9942197 0.15348548 -0.07262417 -0.36671272 1.0650604 0.0035878543 0.09793329 -0.5363363 0.1743204 -0.33296505 0.1013599 0.5344605 -0.033475403 0.6875306 -0.61779374 0.3213569 1.1368145 0.035039768 -0.08204753 -0.3570999 0.7333456
java.net.url.openstream() -0.5738625 0.057644118 0.4812567 0.30588192 -0.51953554 1.2363827 -0.072741464 0.25550842 0.020687867 -0.35521296 -0.475582 -0.019269988 0.29641736 -0.36401096 -0.617122 -0.16050158 -0.33648443 0.2559171 -0.36181462 -0.6305433 -0.29192737 -0.38710675 0.086310156 0.41647634 0.90966123 -0.21273467 0.13346992 -0.5732149 -0.19622886 0.50820744 -0.3468989 -0.5471103 -0.3635933 0.051726155 -1.0351013 0.08253941 -1.1136326 -0.69177395 -0.085318744 -0.13629092 0.12599951 -0.2620336 -0.24802026 -0.37850636 -0.31813046 0.8306369 0.37137625 -0.14759612 0.10664461 -0.2978124
java.io.outputstream.flush() 0.16143726 -0.3500482 0.8211123 0.09396367 -0.88614017 0.2184712 -0.07648437 0.6165079 0.1857475 -0.72413415 -0.48462465 -0.42328343 0.4212085 -0.910455 -0.11278243 -0.4734679 0.046334293 0.59797734 0.6468122 -0.22003502 0.559058 -1.3476186 0.024680478 0.1884202 0.61599165 -0.04566349 -0.6984009 0.15070698 0.56178284 0.17020293 0.38039035 0.6032095 -0.27314425 -0.22636168 -0.7036177 -0.2964709 -1.3749816 0.30235207 0.5082048 -0.35829824 0.5136435 -0.44318396 0.16090727 -0.05285026 -0.33944035 0.98226655 -0.68310726 -0.12759107 0.57002085 -0.20482896
java.net.url.tostring() -0.39431465 -0.4392358 -0.12264077 0.10068995 -0.014300755 0.84550273 -0.09496745 0.043449685 0.043677848 -0.4045983 -0.6866697 -0.62502486 0.4157844 -0.32417032 -0.1280035 -0.45077097 -0.2924498 0.09490372 -0.26890674 -0.58281153 -0.050354782 -0.10424278 0.08976465 0.33024085 0.7838279 0.41218406 -0.04321371 -0.6418839 0.31586486 0.04280376 -0.4235954 -0.24721001 -0.100603335 0.20047982 -1.0158174 0.35491258 -1.1042235 -0.4555344 -0.25679347 -0.022615092 -0.44567648 -0.0900552 0.27169788 -0.40966725 -0.07707514 0.7963877 0.11996577 -0.3128116 -0.17716576 -0.10700878
java.util.set.toarray() -0.2606225 0.2334738 0.4181468 -1.2376834 -0.92331 0.25261828 -0.80890685 0.023224935 0.36946407 0.23335467 -0.6902606 -0.263059 0.3631246 -0.9673531 0.017042564 -0.6916235 0.36673254 0.2199151 0.20160362 -1.18444 0.4147123 -0.23244129 0.69533265 0.20543315 -0.39283937 0.48914352 -0.2789711 -1.1197096 0.5617974 -0.2672682 -0.20391569 0.15617475 -0.3269928 -0.22700931 -0.322761 -0.1704263 -0.70225763 0.32077962 -0.32416508 -0.19602309 0.16520523 0.79083335 1.4302188 0.3075133 -0.25507447 0.66862994 0.57368 0.33362597 0.035102654 1.3711488
java.io.file.deleteonexit() -0.043735083 -0.7922626 0.75216043 -0.268782 -0.6618345 1.5026411 -0.33444345 0.47688895 -0.41314724 -0.1639449 0.18016322 0.5220256 0.15319015 -0.48536643 -0.3643019 0.22271061 -0.37178534 0.46793854 0.11548822 -0.30794486 0.30493674 -0.5826861 0.44123536 -0.28996035 0.006011014 0.17810845 -0.91089463 -0.15067776 0.612521 0.90477026 0.46922368 -0.16594666 -0.17881621 0.49340367 -0.34990057 0.56367815 -1.0971966 -0.50075257 0.4139839 -0.409967 0.071389556 0.2613221 0.0027174118 -0.01659994 -0.05910528 1.1783959 -0.19599967 -0.48931056 0.36400875 -0.15446386
java.io.file.mkdir() 0.024829822 -0.39726225 -0.20045657 -0.61453456 -0.22728859 1.5204897 -0.07685867 0.57012534 -0.73870707 0.52143806 0.07412464 0.11368712 0.38018098 -0.39850295 -0.34054646 -0.06813013 -0.003961174 0.33277127 0.13008979 -0.37270468 0.6429787 -0.7962107 0.55079776 -0.10917462 0.013019113 0.10786196 -0.8948243 -0.23697284 0.31266397 0.4531235 0.2683733 0.04752778 -0.18857256 0.7107602 -0.13466996 0.08721057 -1.263849 -0.6970432 0.67362016 0.053353712 -0.10668812 0.30164546 0.047932215 0.20430686 0.40957648 1.0749961 -0.09340433 -0.05410517 0.2545467 -0.18073529
java.util.list.set() 0.61714125 -0.5965749 -0.15039848 -0.5643192 -0.79003453 0.4851285 -0.3506827 0.114232816 0.4661166 0.42732927 -0.51540476 0.7292227 0.45231894 -0.57071096 0.5333572 -0.36313346 0.9032189 -0.57444483 0.5080938 0.32664633 0.33827814 -0.08883489 -0.19540277 -0.15668322 0.14126775 -0.32665765 0.19374871 0.6164572 0.59220695 -0.072241776 0.24355406 -0.43925646 0.08892423 -0.26247016 -0.15226884 0.21849048 -1.0600083 0.20129074 -0.36962444 -0.57961476 0.23115546 0.08302959 0.102813564 -0.47640836 0.0063792393 1.0259751 0.04101915 -0.96466935 0.47432205 0.64087313
java.io.file.createnewfile() -0.005506169 -0.4023291 0.66758156 0.0023559197 -0.68304217 1.2926896 0.22242442 0.4625417 -0.3762419 0.18121396 -0.120453596 0.007510696 0.09569479 -0.60949683 -0.1772045 -0.44952378 -0.46046576 0.5412774 0.08014788 0.1293343 0.63625175 -0.5884991 0.5194179 -0.4379526 -0.064848535 0.1542551 -0.7587968 -0.2659948 0.08700624 0.7065679 -0.06285547 0.05086724 -0.29130664 0.5942814 -0.08043666 0.21425757 -0.9607735 -0.873499 0.6539705 0.26892078 -0.012013472 0.10746333 0.01608381 -0.111621566 -0.12914406 1.3701456 -0.15923235 0.2010592 0.30838135 -0.3608911
java.lang.math.sqrt() 1.1765816 0.5165857 1.2794353 -0.47386295 -0.01667294 0.84242994 0.091749 0.10441868 -0.40434384 -0.6285067 0.03249658 -0.76479924 1.4815195 -0.16069432 1.114495 1.2658625 0.20312342 -0.69070184 -0.81160706 0.49741912 0.8855767 -0.69029117 -0.47039488 0.7652647 0.7559009 0.78733695 -0.23007607 -0.11809474 0.4677281 0.13031772 -0.7241706 -0.60561556 0.34197056 0.49365085 -1.1647501 -0.6797572 0.46097735 0.1252994 -0.28385746 -0.5380322 0.78860646 0.7821695 -0.5813885 -0.10217978 -0.7298214 0.7583371 0.36535808 -0.0060928273 1.0737349 0.71919715
java.util.hashmap.values() -0.1512201 0.21057129 0.6213524 -0.25121662 -0.86117053 -0.27636042 0.1790573 -0.01483604 0.38720366 0.22116974 -0.20133014 -0.040338736 0.26927555 -0.8266699 0.1535226 0.2633562 0.51160896 -0.37357476 -0.8854683 0.33736762 -0.25031102 -0.1997763 0.32661957 0.946912 -0.57053894 0.53007615 0.0034779634 0.05554358 0.23984306 0.909993 -0.39903215 -0.22241576 0.12754269 1.2750012 -0.35107043 0.08689631 -0.5412981 -0.6012731 -0.43139347 -0.14013946 -0.11679494 0.6239896 1.2220249 -0.23125519 0.15262473 1.0866296 0.43604603 -0.18947306 -0.14092852 -0.1762623
java.io.printwriter.write() -1.0206987 -0.72531503 0.6156283 -0.23664312 -0.24199773 0.70437425 0.60325205 0.897145 0.0003494051 -0.82723033 -0.7871152 0.566187 0.9737734 -1.1903718 0.35898438 -0.53601336 0.6682979 0.5920001 -0.35690013 -0.8098022 0.91024965 -0.5450613 -0.5784866 0.59170127 1.1192362 0.22246125 -1.1831589 0.22682086 0.57921994 0.20473433 0.18183807 0.9905894 0.06970401 1.2938915 0.26759508 0.72726315 -0.74450797 0.09210364 -0.21507998 0.20225193 0.4463993 -0.31761873 -0.3313605 -0.63433725 -1.0118666 1.282389 0.08617339 -0.5891198 -1.039147 -0.337994
java.io.file.lastmodified() -0.54740727 -0.18072501 0.30051976 -0.5150462 -1.07538 0.7898774 -0.20131558 0.21153085 -0.49122724 0.5866133 0.23756824 -0.25398755 0.40250295 -0.574415 -0.07878869 -0.2820326 -0.7565512 0.3798108 -0.009908018 -0.16840477 0.25860637 -1.2828233 0.012782355 0.08428983 0.3636651 0.63260716 -0.17981318 -0.8364918 0.48757267 0.09292107 -0.54368967 0.027242757 0.18590665 0.46073025 -0.13578296 0.14648767 -0.4768282 -0.42267576 -0.47826096 0.19976917 -0.5184485 0.09533277 -0.04978404 0.22687206 -0.17753942 1.0086495 -0.7516129 -0.7473916 0.2794714 0.06807712
java.lang.math.pow() 0.95888495 0.11467827 1.2455475 -0.46381477 0.30568606 0.68050575 0.6606059 -0.20370379 0.03463189 -0.56463057 -0.41768807 -0.12918924 1.8154789 0.5909097 1.441699 1.0653391 0.17011507 -0.5728012 -0.46171004 0.70483106 1.0130508 -0.84523046 -0.29094002 0.5607975 0.45070818 0.37913844 0.04432183 0.0063884715 0.08838667 0.22123002 -1.0510296 -1.1778033 0.09056979 0.9584019 -0.794599 -0.95792305 0.4159425 0.37885752 -0.08567562 -0.4756767 1.0131631 0.91373706 -0.35751483 0.037997738 -0.70478153 0.47002771 -0.06505849 -0.5058014 1.2960013 0.968788
java.io.file.getcanonicalpath() 0.09234266 -0.6733547 0.108775616 -0.26033357 -0.9440388 1.4868182 -0.2919534 0.43542135 -0.4884132 0.51874536 -0.3545772 -0.021273257 0.6169775 -0.6558978 0.06219066 -0.07875553 -0.26172048 0.13748725 0.089262836 -0.28494084 0.012189224 -0.42894638 0.22240946 -0.29524875 0.6764407 0.18187524 -0.8558573 -0.48178092 -0.2533829 0.46675807 -0.41671276 0.015850857 -0.14132173 0.26726878 -0.48958558 0.535882 -0.67288923 -0.42449978 -0.049639743 0.0635086 -0.11718979 0.6752574 -0.037662636 -0.35527626 0.3780895 0.62006444 0.18015727 -0.36789685 0.4219699 -0.30470312
java.net.inetaddress.getbyname() -0.1898222 -0.55987597 0.17239922 -0.14237532 -0.24100968 0.72794634 -0.16351534 0.15231852 0.55040807 -0.47503868 -1.2389485 -0.22952166 0.8449218 -0.38142586 0.14504948 -0.8549269 0.6009859 -0.28040722 0.30214322 0.018944154 -0.07336138 -0.39578116 0.3351441 -0.34609774 0.60954905 -0.45107886 -0.495074 -0.29482195 -0.012566129 -0.13331038 -0.08003452 -0.4308386 -0.51850796 -0.1489801 -0.3285238 -0.31454122 -1.1906818 -0.24238588 0.36490944 0.4886895 0.07805065 1.1437638 -0.28276232 -0.2986154 -0.67078894 0.024144197 -0.21443237 0.94431573 0.32075414 -0.33717456
java.net.uri.create() -0.30174503 -0.8156081 0.12524246 -0.31545702 -0.35247225 0.41559124 -0.75581485 -0.061718747 0.09939562 0.3586572 -0.006551943 -0.31102344 0.9087215 -0.13497 -0.41470492 0.01043881 0.02601027 0.11672862 0.03472455 -0.7114119 0.05306917 -0.38227355 0.01655662 0.6165487 0.87676066 0.10316167 -0.8026184 -1.0649505 0.9155246 0.07798653 -0.17999662 -0.3550033 -0.8172882 0.34278882 0.13865378 0.040542543 -1.1159275 -0.004022348 0.7435396 -0.23765966 0.22628523 0.7445101 0.13882968 -0.6281632 -0.4119039 0.039419647 -0.11546513 -0.8459483 0.18550213 0.20078312
java.util.hashmap.size() -0.33399937 -0.13409123 0.8501656 -0.38262296 -0.9889977 -0.020948056 0.31138444 -0.22095595 0.48961028 -0.20429395 -0.3765592 -0.085540146 0.21357018 -0.8296185 0.43081135 -0.3826822 0.13378637 0.07803555 -0.861115 0.09022792 0.02422631 -0.45529726 0.35930747 0.76545537 -0.29125926 0.30223474 0.23920554 0.028176937 0.54590577 0.4667636 0.056875825 -0.3458262 0.30012083 0.7832008 -0.3921208 0.1770381 -0.18380569 -0.3344583 -0.72514606 0.016836261 -0.41608635 0.7033188 0.86912894 -0.24332991 -0.24241115 1.2085006 -0.031659376 -0.40283877 0.023523863 0.30657706
java.sql.connection 0.17002362 -0.51265514 0.30826706 -0.73947465 -0.69372076 0.6428911 0.1009659 -0.04324683 -0.37812212 -0.36900935 -0.6672861 -0.33716327 0.05057725 -0.44504708 -0.0047960635 0.48199743 0.60526884 0.2776894 -0.161408 0.07385668 -0.2639544 -0.7366055 -0.63757646 -0.3819008 -0.4489414 -0.24253733 -0.23658471 -0.7746902 0.22216834 0.18051668 -0.50023043 -0.15168507 -0.61773807 0.17112108 -0.34221116 0.32257667 -0.28586668 -0.40756115 0.11377567 -0.1755169 0.7249947 0.5549894 -0.29834813 -0.36669546 -0.37564993 0.5135538 0.5536452 0.08087547 -0.36591667 0.37916508
java.sql.preparedstatement.setlong() 0.15507032 -0.6567699 1.2915369 -1.2610497 -0.57609683 0.7312713 0.8224407 0.2727057 -0.007933276 -0.40315133 -1.8085867 -0.27360496 1.144117 -0.33148834 0.080227524 -0.3978448 0.8566297 0.45038527 0.80897176 -0.08688344 -0.011177611 -0.44057465 -0.6590632 -0.25356203 -1.127492 0.73168486 -0.4827086 -0.13980398 0.3929591 0.15553682 0.4636529 -0.3721778 -0.4001346 0.16662583 -0.86332136 0.2988763 -0.32878512 -0.19453076 0.10830066 -0.42984498 1.182349 0.89732176 0.09230748 0.1766417 -1.5238048 1.7044573 0.7391906 -0.70883197 -1.3958547 -0.17565204
java.util.vector.elements() -0.077093214 0.15210354 0.3401783 -0.3579103 -0.4589357 0.09553328 -0.25308076 0.061314736 0.38867217 -1.052341 -0.7224967 0.010673114 0.80391395 -0.2728236 0.06384535 0.23727877 0.49243218 -0.28901428 -1.0857505 -0.16141742 0.36008418 -0.2670185 0.8189871 0.16229677 0.37392452 0.54845417 -0.83638793 0.13703959 -0.12974672 0.327949 0.070458226 0.30315852 -1.0846559 1.4499782 0.08574958 -0.44011033 -1.5436456 0.59898895 -0.89378834 0.035637878 -0.13819075 0.42786476 -0.43633965 0.52949274 0.1930898 1.0413634 0.36483094 0.21937412 -0.095347494 -0.33423382
java.util.arraylist.isempty() -0.25600258 -0.17210855 -0.22149847 -0.24589162 -0.17723869 0.20779666 0.28831252 0.7099022 0.48508132 0.41142908 -0.03773837 -0.57569283 0.4698694 -0.9500124 0.24626182 0.2152187 -0.18972328 -1.0801849 0.274887 0.13825737 0.013324474 -0.31336215 0.12671356 0.5703166 0.01893409 -0.34377196 -0.6516898 -0.08836281 0.2583884 0.35307992 0.13169062 -0.46530083 -0.73912644 1.0406884 0.035375703 -0.11630678 -0.27322197 -0.61515313 0.25931144 -0.3986557 -0.32293248 0.43020797 0.36696148 -0.3582498 0.26134467 1.0313648 -0.28538573 -0.17980799 -0.30394933 0.89360285
java.util.map.getvalue() -0.19986716 -0.52981704 0.88824016 0.28760242 -0.26269847 0.71537256 0.028888663 0.30930123 -0.70561826 0.5850164 -0.45465955 -0.111887574 0.414873 -1.072238 0.50005543 -0.11892059 0.5773538 0.06797421 0.0098663885 0.47674632 0.057792723 0.16326424 0.87930727 0.5919833 0.21079336 0.047852904 -0.35505554 -0.1671657 0.26939678 0.69972885 -0.55176544 -0.036195572 0.17010324 0.4264932 0.2818867 -0.22970846 -0.48318422 0.116262324 -1.0232482 -0.38962945 0.41101077 -0.059483185 0.387058 -1.0060598 -0.087240726 0.8079595 -0.28037715 -1.187454 0.34949118 0.6486041
java.util.set.clear() 0.013114902 0.27603722 0.4451453 -1.0498757 -0.31184205 -0.38904306 -0.48123628 -0.13944156 0.21475205 0.29921016 -0.23409577 0.12161969 -0.029873729 -1.9638162 -0.04521556 0.6020053 -0.123413526 0.10522866 0.43828285 -0.8636283 -0.23568456 -0.78339475 0.13377793 0.13763295 -0.57352144 -0.016008737 0.14253439 -1.1795161 0.057686735 -0.25896516 0.26831293 0.082866676 -0.36431652 0.17678957 -0.7364507 0.15686914 -0.5693332 0.44332486 0.0066489168 -0.6384344 -0.20846854 0.4960138 0.92621034 0.14313576 -0.30988872 1.1580343 0.13453276 -0.0038718693 0.55769616 0.22603516
java.net.uri.tostring() -0.13422464 -0.9199279 0.1449338 -0.10928352 -0.2819224 0.74320054 0.14006363 0.115182616 0.13047631 0.3217284 0.25235215 -0.7558183 0.48419294 -0.35953692 -0.174482 -0.16593215 -0.3050597 0.06092739 -0.0719183 -0.4079213 0.15660356 0.13402064 0.41392252 0.57780486 0.64809173 0.40267375 -0.12485578 -1.1968901 0.7479385 -0.014746183 -0.5243452 -0.34866384 -0.56518275 0.17064856 -0.1698455 0.063196845 -1.0962517 -0.49847716 0.33096948 0.059694536 0.18056765 0.4484951 0.3366578 -0.7735975 -0.17242156 0.2904648 -0.12558408 -0.750108 -0.2687623 0.4489247
java.net.socket.close() -0.4376234 -0.74717283 0.8595014 -0.07110678 -0.701331 0.42603144 -0.07148962 0.3 0.9025643 -0.6091811 -0.3905761 -0.5584624 0.39892647 -1.008726 -0.14299722 -0.84638065 0.19344373 -0.53881645 0.06982543 -0.029176177 0.1480244 -0.6979865 0.077934764 -0.19926825 0.8707856 -0.6194178 -1.041258 -0.14120369 0.17971388 -0.014193878 -0.23193687 0.11014588 -0.52820873 0.035783157 -0.5390942 -0.33649895 -0.81674725 0.032436952 0.3627927 -0.7572562 0.35993654 0.5666656 0.18866055 -0.36137882 -0.73204565 1.011261 -0.7640114 0.3543243 1.0168369 -1.1674274
java.util.map.getkey() -0.199713 -0.58204246 1.0211023 0.17850612 -0.34462562 0.74216616 -0.10427467 0.1688691 -0.9944397 0.5873258 -0.48662996 -0.11410806 0.50847036 -1.1053157 0.49897212 -0.00450609 0.55822456 0.204918 -0.070375115 0.60108274 0.11394487 0.20123224 0.94179416 0.4229619 0.21399608 0.26554182 -0.48600224 -0.10368407 0.30694506 0.54953456 -0.4427023 0.10212847 -0.111222446 0.635636 0.32630312 -0.3764869 -0.5674273 0.09346345 -1.2433178 -0.30849466 0.57490295 0.35130543 0.4025549 -1.1055367 -0.065067835 0.6835054 -0.22423418 -1.1865214 0.21080793 0.8414756
java.io.bufferedreader -0.5218412 0.12760623 0.3032514 0.13680574 -0.49674255 0.30388346 -0.099791676 0.5234631 0.20796229 -0.43035 0.06203723 -0.035402745 0.28791338 -0.17668593 -0.612215 -0.42662647 -0.4392086 0.15188695 -0.6045105 -0.4474464 -0.66628706 -1.1089746 0.12084459 -0.41940227 0.22810748 -0.1947091 -0.7618276 -0.2816827 0.47877815 0.5912449 -0.2526313 -0.36587235 -0.5863149 0.36012834 -0.37660998 -0.14832954 -0.8683988 -0.13268895 0.12081125 0.86064464 0.44173783 -0.2065486 -0.27204973 -1.0201827 -0.34363118 0.97342414 0.440467 0.50280976 0.15491784 -0.45628297
java.sql.statement.executeupdate() 0.40505144 -0.722738 0.48665503 -1.0455661 -0.19064184 1.752499 0.9826904 -0.14946775 0.4106719 -0.41043234 -0.43718982 0.2668972 0.61252695 -0.5338532 0.4076074 0.033205196 0.47670153 -0.09307319 0.5086384 -0.60247725 -0.49168563 -0.68541634 -1.231065 -0.8153062 -0.88802105 -0.79199284 -0.8743316 -0.730119 0.1330406 0.69394195 -0.5524415 -0.159889 0.50696456 1.1610856 -0.9247253 0.07290482 -0.118310384 -0.2995489 -0.40633127 -0.0044187005 1.3337697 -0.30273184 -0.16959547 -0.34127995 -0.5482849 1.5288231 0.9175326 -0.5241196 -0.4915519 -0.6427864
java.sql.resultset -0.093819834 -0.6453615 0.5586109 -0.6137332 -0.35101494 0.7908417 0.30062345 0.19221622 0.245582 -0.1266919 -1.044885 -0.11069856 0.42560893 -0.025872704 -0.07521024 0.12720571 0.8220903 0.23235564 -0.25791356 0.3164189 -0.5292741 -0.5698885 -0.3659348 -0.38917235 -0.54761106 -0.06890869 -0.5826187 -0.79453266 0.40732893 0.2115171 -0.46218044 -0.3204588 -0.678606 0.50486004 -0.7422878 0.03404419 0.23276392 -0.33375162 -0.060905576 0.31628528 0.9576682 0.40333867 -0.18162812 -0.1502615 -0.33498278 1.3144118 0.8279859 -0.5467168 -0.7341462 0.20820959
java.lang.stringbuffer.length() 0.10394036 0.674717 -0.073051535 -0.5509438 0.15612377 0.15852891 1.547876 0.7474253 -0.7044171 -0.9765987 0.52078074 0.629953 1.0038025 0.76428366 1.2851336 0.07947639 -1.0877014 -0.7122111 0.5460811 -0.74125975 0.37314916 -1.6465447 -0.34534875 0.39649346 0.29042152 0.8590635 0.007528993 -0.25761658 0.8236268 1.0843709 -0.4248752 -0.50662017 -0.2753661 0.6483974 -1.3670713 -1.7122062 -0.86459273 1.0148402 0.45563766 0.37767315 1.0938005 0.5789016 0.1908196 0.18230025 -0.08399397 0.8658843 0.010625402 0.48451766 0.6117719 1.4032767
java.lang.math.sin() 1.3185707 0.4599763 1.7186928 -0.14114565 0.5656049 1.2510067 0.63174105 0.04898515 -0.40499154 -0.18524311 -0.53592545 -0.3650259 1.5010835 -0.027384717 1.0167285 1.7939367 -0.31793734 -0.19570808 -0.635751 0.4385733 0.5432029 -0.882834 -0.4481675 0.47440544 0.33458573 0.97614217 0.085434124 -0.59352046 0.7613537 0.1607341 0.20714493 -0.9808181 0.42883676 0.6732157 -1.5857912 -0.7960068 0.49342257 0.43998283 0.07680525 -0.43971857 1.3766254 0.8183349 -0.10533694 0.073027134 -1.0041828 1.0670705 0.5982573 0.14634742 1.1503987 0.2955861
java.net.uri -0.33852583 -0.77123004 -0.025485842 -0.1799572 0.15458614 0.5980164 -0.31338227 0.60664546 -0.08301725 0.15007745 -0.0017876113 -0.23693845 0.284613 -0.25327873 -0.11805647 -0.06699362 -0.18224369 0.17510599 -0.16777724 -0.27867836 -0.08642709 -0.2205256 0.23733863 0.365715 0.5358599 0.1534116 -0.013005554 -0.6755869 0.60048383 0.11684148 -0.45528567 -0.40679556 -0.7012949 0.23917554 -0.14790948 0.27195287 -0.87444526 -0.17943206 0.35007176 -0.013096752 0.21533228 0.25740778 0.0030740881 -0.96126795 -0.23255987 0.14056362 0.07604922 -0.5495257 -0.35874403 0.2897574
java.sql.preparedstatement 0.03793217 -0.74270266 0.3153956 -0.82102096 -0.3265204 0.60082513 0.21178351 0.29655305 0.046254504 -0.46597463 -1.1416861 -0.36281404 0.43817326 -0.2733168 -0.27597374 0.019643292 0.8993564 0.50961375 -0.013881742 0.17830382 -0.08962651 -0.77511984 -0.4551055 -0.1371711 -0.69285005 -0.025201729 -0.25864086 -0.6149581 0.14853923 0.08118067 -0.6062092 -0.5783552 -0.23507515 0.30451143 -0.60582983 0.22146243 -0.13145545 -0.46723133 0.11426056 0.10672035 0.8425171 0.60191625 -0.2089623 -0.3176844 -0.82024854 1.0388566 0.8660638 -0.1235231 -0.85537136 0.21261454
java.sql.resultset.getlong() -0.123298645 -0.43472105 1.3644657 -0.90740365 -0.76442647 0.6302746 0.8372582 -0.38493204 0.4299918 0.7657078 -0.846394 -0.007933076 1.3910093 -0.0292027 -0.47181004 -0.44509435 0.5907291 -0.6270987 0.9810354 0.25750843 -0.5549312 -0.9109713 -0.6141094 -0.96931297 -0.37473437 0.6674388 -0.6857907 -0.2585156 1.1520541 0.35754466 -1.0823313 -0.2833619 -0.9631696 0.43515456 -0.44293606 0.10482885 0.5700082 0.5636214 -0.54004097 0.22729808 0.90149903 1.2355417 -0.1548549 0.5096025 -0.16996424 1.4981931 0.10921406 -1.3048435 -0.6118136 -0.83555126
java.io.file.list() -0.080288015 -0.25378576 -0.11997567 -0.82769036 -1.0890232 0.49285394 0.22786638 0.72131246 -0.46827185 0.47313386 0.6607138 0.6941523 0.23563553 -0.42297363 -0.49129376 -0.33739063 0.05852189 0.064082235 -0.062266476 -0.72075677 -0.010278203 -0.8345973 0.72735006 -0.19237295 -0.053498227 0.59438187 -0.5971093 -0.16887048 0.10474314 0.090123996 -0.24878156 -0.46114868 -0.2729618 0.5188293 -0.46834385 -0.05971926 -1.0101217 -0.065557405 0.07284777 0.39478168 -0.12332778 0.64236015 0.20312783 -0.35373783 0.71424985 0.61902666 0.046406798 0.004176709 0.42674607 0.5289361
java.util.list.sublist() 0.68423676 0.2443438 0.07418353 -0.24849944 -0.58528954 -0.48189437 0.21397087 0.31188306 0.46671543 0.58080256 -0.103473715 0.122273386 0.34652638 -0.25333706 0.4231773 -0.012806139 0.7440912 -0.2616582 -0.41526684 -0.44256172 0.12434438 -0.78242964 -0.61866623 -0.48658335 0.50211406 0.17718565 -0.2589348 -0.12031239 0.5826044 0.3988519 0.025792439 -0.71719086 0.60781854 -0.18579017 0.19905111 0.5310764 -1.1717507 0.010535618 -0.28440347 -0.4557621 -0.09814424 0.09100825 0.34802154 -0.6860685 -0.96691924 1.5066493 0.2341122 -0.74554306 -0.43757775 0.48327446
java.sql.preparedstatement.execute() 0.642259 -1.1661304 0.7457976 -1.2670723 -0.8526 0.36829105 0.8167458 -0.1338538 0.11964353 -0.7044492 -0.99466646 -0.3650049 0.5658443 -0.6443267 -0.3025842 -0.73458534 0.6191986 0.6536874 0.636807 0.5425102 -0.07429672 -0.068378896 -1.0981438 -1.0943611 -0.8097333 0.5017524 -0.1412338 -0.24635766 0.8018989 -0.077395976 0.31482118 -0.5776286 -0.67166835 0.58472663 -1.1694343 -0.20224066 -0.5761989 -0.6403871 0.38517895 -0.10633137 0.8378287 0.5179951 0.5223817 0.06902919 -1.0539025 1.9513187 0.24465649 -0.37709206 -0.67254955 -0.08250394
java.util.hashmap.clear() -0.23991011 0.45394576 0.4375886 -0.5777238 -0.70852435 0.027674988 0.5454769 -0.5445256 0.06409385 0.012529759 0.006253827 0.34675056 0.0767101 -2.1569326 -0.042277336 0.50361913 -0.00016956902 -0.3554548 -0.12622662 0.18137617 -0.6311755 -0.48266515 -0.065196626 0.78238803 -0.40840578 -0.22344366 0.29930687 -0.19811383 0.55552095 0.1815437 -0.1280968 -0.9569104 -0.03887168 0.9667128 -0.53586304 0.24277158 -0.2688541 -0.123747125 -0.33672225 -0.03982958 -0.32739225 0.25325114 0.43951145 0.081199035 -0.22123913 1.4976867 -0.27441493 -0.26483223 0.2695836 -0.01972063
java.net.inetaddress.getlocalhost() -0.060945205 -0.910945 0.45710218 -0.32474104 -0.35918725 0.49419957 -0.36452535 0.14110355 0.6237429 -0.56475353 -1.1691651 -0.42391592 0.88070947 -0.08916282 -0.054857768 -0.5566309 -0.15603794 0.012781762 -0.04325653 -0.23772353 -0.112049796 -0.6950905 0.0015824453 -0.27370504 0.08571472 -0.30646184 -1.0242049 -0.49865624 0.27086666 0.06908052 -0.32288197 -0.09682415 -0.16391149 0.090455875 0.3626994 -0.17036527 -1.1265006 -0.45348093 0.19761096 0.36532763 -0.1478813 0.9670501 -0.3572187 0.1278478 -0.48908046 0.8021542 -0.6591441 0.7239409 0.037151128 -0.35060656
java.lang.math.round() 0.27003273 0.901321 0.54506385 0.06533197 0.00708239 0.5325379 0.43329486 -0.6705193 -0.34734282 -0.24353106 0.033732332 -0.37174204 1.3844357 0.58770317 1.276215 0.9622247 -0.051607616 -0.7827184 0.75392777 0.78949505 0.2457758 -1.1459533 -0.7055592 0.2517686 0.04311161 0.43965802 0.031412013 -0.07911926 0.60726625 0.95110154 -0.56803113 -1.0162702 0.9601275 0.36123392 -1.1019298 -0.87270343 -0.09838488 0.23785746 0.31998432 -0.18706182 0.26450744 0.9094862 0.044668317 -0.12546563 -0.4394912 0.9973229 0.6881288 0.1545335 0.69260895 -0.030093614
java.net.socket.getoutputstream() -0.5773425 -0.33941182 1.0004412 -0.18643303 -0.40056914 0.97470176 -0.57569146 -0.03923854 0.3920691 -0.8540887 -0.48924598 -0.39223525 0.57950187 -0.37557912 -0.6076382 -0.56962335 0.12318796 0.22771555 -0.56904864 -0.09796152 0.6469982 -1.0293872 0.3491953 -0.1115245 0.5783294 -0.44209272 -1.1835452 -0.13036296 0.7294802 0.36156017 0.39152604 0.020969417 -0.2781054 -0.07482779 -0.2101928 -0.45162582 -0.82716966 0.27485335 0.4503064 0.19603498 0.7005955 1.0132821 0.33007124 -0.59116423 -0.4849379 0.94952494 -0.80509776 0.35640514 0.6367263 -1.1760565
java.io.file.canread() 0.08349334 0.06524516 0.057331752 -0.28869188 -0.63800305 1.2127903 0.12736182 0.4717226 -0.36606628 0.65570986 0.4395884 -0.13678616 0.2644652 -0.7973586 0.13140158 -0.4129255 -0.6219205 0.42794302 -0.3471462 -0.61167246 0.39033577 -0.9260512 0.015650649 -0.3409756 0.66596675 -0.24783772 0.10300831 -0.62400913 -0.34662026 0.5342697 -0.53316593 -0.8105138 -0.34564313 0.6303786 -0.6853049 0.31889647 -0.9458584 -0.4141768 0.2527027 0.3091921 -0.14512353 0.6072085 -0.45160216 0.11292384 0.33353063 1.218491 0.112628624 -0.22831406 0.03507708 -0.27806166
java.lang.integer.valueof() -0.18342204 0.7476269 0.8826233 -0.48427975 -0.23950203 0.48096687 0.83136916 -0.13067923 -0.6221114 -1.195047 -0.92220724 -0.8589941 1.2921312 0.49313205 1.4699163 0.28465655 -0.6771115 -0.80100906 0.33375332 -0.2056471 0.6143525 -0.35438254 -0.47766128 0.4989344 -0.37134373 -0.2954289 -1.0243626 -0.037710097 0.52834994 0.7902456 -1.125135 -0.59216934 -0.6461082 0.06963636 -0.5874605 -0.59829295 -0.42771924 0.7334156 0.5628859 0.2740318 0.12059142 0.6360378 -0.32988203 -0.8375568 -1.0268371 -0.3692571 0.42239615 0.19532631 0.17878488 1.0637088
java.sql.drivermanager.getconnection() 0.15140322 -0.7670654 0.097517446 -0.62924653 -0.84134054 1.0399663 0.4832922 -0.11192369 -0.08886579 -0.15253061 -0.59758985 -0.13130863 0.26446906 -0.7280689 -0.01461044 0.20724122 0.112762325 0.39064392 0.21376061 -0.23503661 -0.17221683 -0.85719484 -0.73852813 -0.29652944 -0.38798994 -0.46628234 -0.7214407 -0.4184601 0.06616966 -0.18113114 -0.7016554 -0.40202194 -0.5217281 0.5758475 -1.0440562 0.26722002 -0.74065906 -0.43407735 0.20374365 -0.119894095 0.6870467 0.53916866 -0.7181734 -0.416574 0.15950218 0.6156683 0.49278462 0.09855724 -0.11748611 0.43330315
java.lang.math.cos() 1.2809845 0.5609936 1.6222335 -0.40681937 0.5305321 1.2803949 0.46652842 -0.0043166163 -0.27282545 0.0085113505 -0.43065798 -0.32449836 1.7317251 0.19490984 1.1190903 1.8862617 -0.22782509 -0.22381559 -0.70899576 0.5222612 0.64690894 -0.8430605 -0.44620365 0.4526624 0.3511006 1.0030231 0.21005748 -0.36644632 0.7736141 0.159831 0.12572424 -1.0155088 0.3989535 0.8236993 -1.3795607 -0.78148013 0.42074272 0.551468 0.021150714 -0.42741376 1.5280464 0.94375217 -0.24531461 0.054508816 -0.8562869 1.0660772 0.5734697 0.07665519 1.0662842 0.36554006
java.util.hashmap.entryset() -0.34542698 -0.048997864 0.65228677 -0.3803327 -0.652952 0.2542668 -0.17531933 0.039793 0.25645423 0.33878142 -0.14646754 -0.008703712 0.23135579 -0.8641983 0.37157404 -0.02978414 0.39085665 0.06305488 -0.7530496 0.33669472 -0.3130595 -0.04429886 0.8346032 0.7201747 -0.68409264 0.21384825 -0.2572104 -0.08366131 0.62784755 0.68990874 0.053575497 0.0051874616 -0.019358085 1.0981272 -0.09069836 -0.5020114 -0.45261747 -0.24087945 -0.6890755 0.20216396 0.121703975 0.18070258 0.79187787 -0.6935444 -0.06029034 0.82621443 -0.11857794 -0.36475587 -0.11200883 0.2935073
java.net.url.getfile() -0.78483677 -0.5353468 -0.2914448 -0.3738099 -0.31787378 0.5963531 -0.0022339001 0.14554231 -0.425098 -0.68402016 -0.50186825 -0.28372124 0.6272204 -0.25758374 -0.0045313067 -0.5930677 -0.37156686 0.085256115 -0.7762087 -0.550091 0.11964812 -0.21498372 0.40379936 -0.172356 1.3215506 0.2363533 -0.16220523 -0.16532852 0.1880612 0.76807046 -0.36486837 -0.5417527 -0.11494833 0.18410866 -0.5657973 0.4056695 -1.451195 -0.89073336 0.27805516 0.18415183 -0.33971298 0.15403445 -0.20593508 -0.25664377 0.0046208273 0.7197913 -0.020493299 -0.2550025 -0.11464805 0.12352516
java.lang.string.replaceall() 0.22473612 0.00499357 0.6434284 -0.16962638 0.28632912 0.7778424 0.7292579 -0.15720625 -1.1797918 -0.9555333 -0.07189749 0.5531017 1.9170263 0.73192465 1.0539272 0.544218 -1.6982006 0.27917036 0.6137705 0.031878 0.29271895 -0.49657097 -0.20543902 -0.29479703 0.48237607 -0.4076179 -0.94501615 -0.049236543 0.35204563 0.23834534 -1.2532452 -0.6504241 0.4767643 0.14693582 -1.5581752 -1.1837897 -1.120483 0.5115626 0.24257758 0.6734832 0.9120678 0.9962264 -0.5289946 -1.434105 -0.085912414 0.3447407 0.22833532 -0.11338173 0.6501402 0.9888032
java.net.url.getprotocol() -0.4141811 -0.3877034 -0.44126505 -0.19317026 0.24981645 0.3637924 -0.037003312 0.5095925 -0.7774755 -0.7159971 -0.96789896 -0.42723775 1.0708866 -0.25440237 0.080564626 -0.87617874 -0.24503522 0.4428009 -0.74542767 -0.40494663 0.12046993 -0.40053514 0.34280923 0.13544808 1.2272897 0.22156876 -0.20221944 -0.69347036 0.48428094 0.45293388 -0.22226964 -0.6936406 -0.06708031 0.550672 -0.6795671 -0.014089286 -1.6734599 -0.87435544 -0.008865111 0.0727837 -0.46503547 0.3340542 -0.21722011 -0.57439035 -0.03143794 0.57999754 -0.121029876 -0.21542037 -0.50564927 -0.6161107
java.net.socket.getinputstream() -0.68069977 -0.009229604 1.0523291 -0.078015625 -0.45285085 0.8276304 -0.36369655 0.05635524 0.52204514 -0.9115335 -0.51433736 -0.28332433 0.60791755 -0.36663046 -0.744682 -0.6273832 0.09512288 0.113200925 -0.48303437 -0.098112054 0.6376336 -1.131618 0.28286332 -0.06967229 0.78599405 -0.82862276 -1.1593783 -0.23100778 0.65919274 0.5555912 0.21475656 0.060743496 -0.4747973 -0.28555274 -0.3215687 -0.5154704 -0.5160138 0.15142189 0.5027377 0.25312355 0.6281455 0.94826305 0.2751509 -0.5796707 -0.28740475 1.1099343 -0.627437 0.2557973 0.7643 -1.1164604
java.io.file.renameto() -0.053308234 -0.638188 0.59106886 -0.7049996 -0.7802792 1.4582348 0.19105585 0.3035609 -0.35013783 0.46841344 0.6717518 -0.15393454 0.6151809 -0.7305944 -0.3557298 -0.78952914 -0.40601495 0.08408476 0.2535323 0.071474634 0.8443309 -0.64208025 -0.17006145 -0.3890134 0.3379868 -0.08377874 -0.386338 -0.16331112 0.18967344 0.5338242 0.14303981 0.013183201 0.30329472 1.0321653 -0.47534832 0.36633053 -0.6670145 -0.14050446 0.4677017 -0.071045004 -0.22833975 0.13560708 0.6723855 -0.1800942 0.40917337 1.3476917 -0.0858001 -0.6055348 0.09616509 -0.5136141
java.util.linkedlist.get() -0.06895454 0.18575086 0.39281452 -0.8621062 -0.64744526 0.034138683 -0.09480719 0.1300286 -0.053266082 0.44024557 -0.5102723 0.056574665 0.6140801 -0.546422 0.4352898 -0.153412 0.19493043 -0.23460083 0.89483184 -0.71715546 -0.10236539 -0.41528574 -1.3468884 0.71408015 0.68248415 -0.068815574 -0.080153555 0.18850413 0.25674656 -0.19192897 0.2124406 -0.8991152 -0.20829393 0.48671928 -0.06978376 0.1251783 -0.4018523 0.013406701 -0.48954278 -0.2195321 -0.5406117 0.10184375 0.54227537 -0.37304845 -0.23611186 1.7960798 1.4919398 -0.38151124 0.02796693 1.4406244
java.util.vector.contains() -0.070886716 0.15977746 0.01640783 -0.49661148 -0.14308116 0.38747892 -0.28083888 0.27870676 0.33369172 -0.19680412 -0.45940185 0.26417986 0.4432194 -0.8952294 0.6524147 -0.31573167 0.07782494 -0.11476928 -0.29530242 0.031252563 0.12554586 -0.5650488 0.34788105 0.16531591 0.4382621 -0.2144623 0.06521094 0.06563691 -0.07905392 -0.7954098 -0.28946918 0.23304743 -0.55397063 1.133511 -0.39847475 0.538765 -1.3288835 0.6493263 -0.7610254 0.2820558 -0.34943205 0.7193993 0.093568794 0.44870362 0.79112995 0.9370193 0.30011556 0.118429825 0.41348606 -0.27664945
